//Numpy array shape [64, 192]
//Min -0.257812500000
//Max 0.250000000000
//Number of zeros 523

#ifndef BWR2_H_
#define BWR2_H_

#ifndef __SYNTHESIS__
backward_recurrent_weight2_t bwr2[12288];
#else
backward_recurrent_weight2_t bwr2[12288] = {0.0546875, -0.0156250, -0.0937500, 0.1171875, -0.1328125, -0.1171875, -0.0390625, -0.1171875, 0.0000000, 0.0703125, -0.0937500, 0.0468750, -0.0234375, 0.0859375, 0.0234375, -0.0312500, -0.0468750, 0.0546875, 0.0546875, 0.0234375, -0.0156250, -0.0859375, 0.0078125, 0.0000000, -0.0312500, -0.0078125, -0.0156250, 0.0546875, 0.0234375, -0.0859375, -0.0390625, -0.0078125, 0.0468750, -0.0078125, 0.0234375, 0.1015625, -0.0312500, 0.1406250, -0.0156250, -0.0468750, 0.0859375, 0.0390625, 0.0781250, -0.0312500, 0.0859375, 0.0000000, 0.0078125, -0.0546875, 0.0234375, 0.1171875, -0.1015625, 0.0468750, -0.0312500, -0.0468750, 0.1250000, -0.0937500, 0.0468750, 0.0937500, 0.0078125, -0.1328125, 0.0000000, -0.0234375, -0.0312500, 0.0312500, -0.0781250, 0.0312500, -0.0625000, 0.0234375, -0.0156250, 0.1640625, -0.0859375, -0.0625000, 0.0156250, -0.1093750, 0.0078125, 0.0078125, -0.1406250, 0.0468750, -0.0703125, -0.0312500, -0.1015625, -0.0468750, 0.0312500, 0.0000000, 0.0625000, 0.1015625, -0.1171875, 0.0781250, -0.0390625, -0.0390625, -0.0312500, -0.0078125, 0.0937500, 0.0156250, -0.1093750, -0.0312500, -0.0234375, -0.0156250, 0.0000000, 0.0859375, 0.0234375, 0.0078125, 0.0546875, 0.0546875, -0.1562500, -0.0312500, 0.0000000, 0.0234375, -0.0078125, 0.0234375, -0.1953125, 0.1484375, 0.0000000, -0.0703125, 0.0625000, -0.1484375, 0.0000000, -0.0078125, 0.1171875, 0.0546875, -0.0390625, 0.0390625, 0.0468750, -0.0078125, -0.0625000, 0.0078125, 0.0390625, 0.0000000, 0.0312500, -0.0703125, -0.0390625, 0.0625000, 0.0234375, 0.0312500, 0.0000000, -0.0078125, -0.0234375, 0.1328125, 0.0859375, 0.1328125, -0.0937500, -0.0390625, -0.0859375, 0.0625000, -0.0390625, -0.0546875, 0.0234375, -0.0234375, 0.0625000, -0.1015625, -0.0156250, 0.0546875, -0.0937500, -0.0312500, 0.0781250, 0.0390625, -0.0390625, -0.1093750, -0.0390625, -0.1093750, -0.1015625, 0.0546875, -0.0390625, 0.0000000, 0.0234375, 0.0312500, 0.0859375, 0.0390625, 0.0546875, -0.0937500, 0.0312500, 0.0546875, 0.1015625, 0.0703125, -0.1171875, -0.0078125, -0.0078125, 0.0703125, -0.0468750, 0.1328125, 0.0156250, 0.0000000, 0.0234375, -0.0468750, 0.1093750, 0.0468750, -0.0078125, -0.0312500, -0.0625000, 0.0703125, 0.1093750, 0.0859375, -0.0468750, -0.0078125, 0.0312500, -0.0546875, -0.0390625, 0.0468750, 0.0078125, -0.0234375, 0.0078125, -0.1640625, 0.0312500, 0.0000000, -0.0859375, 0.0468750, 0.0937500, -0.0390625, -0.0156250, -0.0703125, 0.0156250, 0.0312500, 0.0781250, -0.0078125, 0.0625000, -0.1328125, -0.1718750, -0.0156250, 0.0234375, -0.0390625, -0.0078125, -0.0156250, 0.1015625, 0.0234375, 0.0312500, 0.0234375, 0.1328125, -0.0703125, -0.0156250, 0.0234375, 0.0234375, 0.0234375, 0.0390625, 0.0078125, -0.0312500, 0.0546875, 0.0546875, -0.0937500, -0.0390625, 0.0546875, -0.0781250, 0.0312500, 0.0000000, 0.0000000, 0.1171875, -0.0234375, 0.0312500, -0.1875000, 0.0312500, -0.0781250, 0.0234375, 0.0156250, -0.1640625, -0.0390625, -0.0312500, 0.0781250, 0.0781250, -0.0546875, 0.1406250, 0.0078125, -0.0156250, -0.0468750, 0.0078125, -0.0156250, -0.0468750, 0.1406250, 0.0312500, -0.1015625, -0.0390625, -0.0156250, 0.0625000, 0.0078125, 0.0781250, 0.0625000, 0.1171875, 0.0937500, 0.0390625, 0.1171875, 0.0078125, 0.0312500, -0.0234375, -0.1328125, -0.0859375, 0.0390625, -0.0156250, -0.0390625, -0.0234375, -0.0781250, -0.0312500, 0.1171875, 0.0625000, 0.1250000, -0.1796875, -0.0234375, -0.0312500, -0.0156250, -0.0781250, 0.0937500, 0.0468750, -0.0859375, -0.0546875, 0.0859375, 0.0000000, 0.0078125, 0.0937500, -0.0234375, 0.0078125, -0.0156250, -0.0156250, 0.0078125, -0.1093750, -0.0078125, 0.0390625, 0.0546875, 0.0546875, -0.1562500, 0.0156250, 0.0625000, 0.1093750, 0.1484375, 0.0000000, 0.1250000, -0.0625000, 0.0937500, 0.0937500, -0.0625000, -0.0468750, -0.0234375, 0.0625000, -0.0234375, -0.0859375, -0.1328125, 0.0234375, -0.0937500, -0.0937500, 0.0000000, -0.0390625, -0.0156250, 0.0000000, 0.0625000, -0.0468750, -0.0234375, -0.1953125, 0.0312500, -0.0546875, -0.0625000, -0.1015625, 0.0078125, -0.0546875, -0.0156250, -0.0703125, 0.0859375, -0.1015625, -0.0546875, -0.1406250, -0.0312500, -0.0078125, -0.0703125, 0.0468750, 0.0703125, 0.0390625, 0.0000000, 0.0078125, 0.0625000, 0.1093750, 0.1015625, -0.0156250, 0.0000000, 0.0000000, -0.0156250, -0.0390625, 0.0078125, -0.1171875, 0.1406250, 0.0078125, -0.0234375, 0.0078125, 0.0703125, 0.0625000, 0.0234375, -0.0312500, 0.0937500, 0.0625000, -0.0234375, -0.0625000, 0.1562500, 0.0156250, 0.0312500, -0.0156250, -0.0781250, -0.0546875, 0.1484375, 0.0156250, 0.1484375, 0.1250000, 0.0625000, 0.1718750, -0.0156250, -0.1171875, -0.0546875, 0.0625000, 0.0937500, 0.0000000, 0.0546875, -0.0546875, -0.1250000, 0.0312500, 0.0234375, -0.0390625, -0.0390625, -0.0625000, -0.0546875, 0.0000000, -0.0625000, 0.0312500, 0.0312500, 0.0234375, -0.0390625, 0.0000000, -0.0781250, 0.0859375, 0.0312500, -0.1015625, -0.0468750, 0.0703125, 0.0390625, -0.1640625, 0.0781250, -0.0312500, -0.0390625, -0.0078125, -0.0312500, 0.0234375, 0.1171875, 0.0000000, 0.1406250, 0.1796875, -0.0546875, 0.0625000, 0.0468750, -0.0078125, 0.1015625, -0.1250000, -0.0546875, 0.0546875, 0.0546875, 0.1171875, -0.0234375, -0.0859375, -0.0312500, -0.0078125, 0.0390625, 0.0156250, 0.1718750, 0.0781250, 0.0937500, 0.0625000, 0.1015625, 0.0234375, -0.0937500, 0.0703125, -0.0234375, 0.1093750, -0.0312500, -0.0625000, -0.0078125, -0.0625000, -0.0390625, -0.0078125, 0.0546875, 0.1093750, -0.0156250, -0.1171875, 0.0156250, 0.0625000, 0.0156250, -0.0781250, -0.0703125, 0.0000000, -0.1406250, -0.0156250, -0.0703125, -0.0468750, 0.0000000, -0.0625000, -0.0937500, 0.0781250, 0.0703125, -0.0390625, 0.0781250, 0.0390625, -0.0859375, 0.1406250, -0.0390625, -0.0468750, 0.1250000, 0.0625000, -0.0468750, 0.0625000, -0.0859375, -0.0156250, -0.0703125, 0.0937500, -0.1328125, 0.0468750, -0.0546875, -0.1562500, -0.1562500, 0.1093750, -0.0781250, -0.0312500, 0.0390625, -0.0859375, -0.0703125, 0.1015625, -0.0625000, -0.0625000, -0.0312500, -0.0703125, 0.1171875, 0.1562500, 0.0078125, -0.1015625, 0.0781250, -0.1171875, -0.0703125, 0.0234375, -0.0234375, 0.0546875, -0.0078125, -0.0859375, 0.0468750, 0.0625000, -0.0625000, -0.1015625, -0.0546875, -0.0625000, 0.0781250, -0.0312500, 0.0156250, 0.0234375, 0.1015625, 0.1015625, -0.0625000, -0.0156250, 0.0234375, 0.0546875, 0.0078125, -0.0156250, -0.0390625, 0.0390625, -0.0312500, -0.0781250, -0.0625000, -0.0468750, -0.0468750, -0.1171875, 0.0078125, -0.1171875, -0.1718750, 0.0000000, 0.0468750, 0.0156250, 0.1250000, 0.0625000, -0.0390625, 0.0078125, 0.1015625, -0.0156250, -0.0625000, 0.0156250, 0.0000000, 0.0625000, 0.0078125, -0.0625000, 0.0703125, -0.1171875, -0.0859375, 0.0390625, -0.0468750, 0.0859375, -0.1171875, 0.1093750, 0.0859375, 0.0781250, -0.0078125, -0.0312500, -0.0078125, -0.0312500, -0.0078125, -0.0468750, 0.0000000, 0.0625000, -0.1250000, 0.1093750, 0.0156250, 0.0000000, 0.0703125, 0.1171875, 0.2109375, 0.0703125, 0.1015625, -0.0468750, -0.0781250, -0.0546875, -0.0078125, 0.0078125, 0.0078125, -0.0234375, 0.0234375, -0.0546875, 0.0546875, 0.1093750, -0.0156250, 0.0156250, -0.0156250, 0.0625000, 0.1484375, 0.0625000, 0.0859375, 0.0234375, 0.0937500, 0.0390625, 0.0000000, 0.0781250, -0.0078125, 0.0390625, 0.0625000, 0.1250000, -0.0390625, -0.0156250, -0.0625000, 0.0468750, 0.0625000, -0.0312500, 0.0234375, -0.0390625, -0.0937500, 0.0000000, 0.0156250, -0.0781250, 0.0703125, 0.0000000, 0.0781250, 0.0625000, 0.0078125, 0.1093750, 0.0781250, -0.0468750, -0.1171875, -0.1484375, 0.0234375, -0.0078125, -0.0468750, -0.1484375, 0.1875000, 0.0390625, 0.0781250, 0.0468750, -0.0703125, -0.0937500, 0.0234375, 0.0312500, 0.1171875, 0.0000000, 0.0234375, 0.0234375, 0.0703125, 0.0859375, 0.0390625, -0.1171875, -0.1015625, 0.0078125, 0.0859375, 0.1406250, 0.0859375, -0.1875000, -0.0312500, -0.0078125, -0.0546875, -0.0703125, -0.0234375, 0.0078125, 0.0546875, -0.0859375, 0.1093750, 0.0703125, -0.0625000, -0.1406250, 0.0781250, 0.1015625, -0.0234375, -0.0390625, 0.0390625, 0.0781250, 0.0703125, -0.0781250, 0.0000000, -0.0546875, 0.0781250, 0.0781250, -0.0546875, -0.0390625, 0.0625000, -0.0703125, 0.0468750, 0.0937500, -0.0625000, -0.0312500, -0.0156250, -0.0234375, -0.1406250, -0.0312500, -0.0468750, -0.0625000, -0.0156250, -0.0156250, 0.0937500, 0.0234375, 0.0703125, -0.0468750, 0.0156250, -0.0781250, -0.0468750, -0.0703125, 0.0156250, 0.0625000, -0.0625000, -0.0703125, -0.0781250, 0.0078125, 0.0078125, -0.0312500, -0.0703125, 0.0625000, -0.0468750, 0.0234375, -0.0468750, 0.1015625, 0.0468750, 0.0546875, -0.0859375, -0.0546875, -0.0078125, 0.1015625, 0.0859375, 0.0625000, -0.0156250, -0.0546875, -0.0078125, -0.0390625, -0.1640625, -0.0156250, 0.0859375, -0.0625000, 0.0781250, 0.0625000, 0.0156250, -0.0781250, 0.0625000, 0.0859375, -0.0546875, 0.0312500, -0.1093750, 0.0468750, -0.0468750, 0.1171875, -0.1328125, 0.0937500, 0.0078125, 0.0781250, 0.1093750, -0.0312500, -0.0703125, -0.0078125, 0.0468750, -0.1171875, -0.0234375, -0.0156250, -0.0390625, -0.0468750, 0.0078125, 0.0234375, -0.0156250, -0.0156250, 0.0234375, 0.1093750, -0.1875000, 0.0312500, -0.1015625, 0.0000000, 0.0468750, -0.0937500, -0.0937500, -0.0546875, 0.1328125, 0.0546875, -0.0156250, -0.0937500, -0.0468750, -0.0312500, 0.0312500, 0.0859375, 0.0234375, 0.0468750, 0.0390625, 0.0937500, 0.0703125, -0.2343750, -0.0390625, -0.0234375, -0.0546875, 0.0312500, -0.1406250, 0.0078125, -0.0156250, -0.0546875, -0.0234375, 0.0937500, -0.0390625, -0.0312500, 0.0781250, -0.0781250, -0.1093750, 0.0937500, -0.0312500, 0.0000000, 0.0625000, -0.0312500, -0.0156250, 0.0546875, -0.1171875, 0.0546875, -0.0546875, 0.0312500, 0.1015625, -0.0390625, 0.0703125, -0.0078125, 0.1484375, -0.0625000, -0.0390625, -0.0078125, -0.0390625, 0.0234375, 0.0859375, 0.0312500, 0.0781250, 0.0781250, 0.1171875, -0.0078125, -0.0937500, -0.0625000, 0.0234375, 0.0937500, -0.0390625, 0.0312500, -0.1328125, -0.0546875, 0.0390625, -0.0312500, 0.0156250, 0.1093750, 0.0703125, -0.0234375, -0.1562500, -0.0468750, 0.0390625, 0.0000000, -0.1328125, -0.0625000, -0.0781250, -0.0859375, -0.0625000, -0.1171875, -0.0156250, 0.0000000, -0.0078125, 0.0078125, 0.0390625, 0.0000000, -0.0234375, -0.0781250, 0.0000000, 0.1015625, 0.0703125, 0.0468750, -0.0312500, 0.1562500, -0.0156250, -0.0468750, 0.0234375, -0.0781250, 0.0546875, -0.1250000, 0.0000000, 0.1015625, -0.0781250, -0.0468750, 0.0546875, -0.0703125, -0.1484375, 0.0234375, -0.0703125, 0.1250000, 0.0234375, 0.0234375, -0.0390625, -0.0625000, -0.1093750, 0.0703125, 0.0859375, 0.0468750, 0.1093750, -0.0468750, 0.0390625, 0.0234375, 0.0156250, -0.1171875, -0.0546875, -0.0468750, 0.0234375, 0.0234375, 0.0234375, 0.0468750, 0.0468750, 0.0859375, 0.0468750, -0.0546875, -0.0156250, -0.1093750, 0.1875000, 0.1015625, -0.0546875, -0.1406250, -0.0546875, -0.0546875, 0.1015625, -0.0781250, -0.0078125, -0.0781250, 0.0234375, 0.1406250, 0.0625000, -0.0234375, 0.0703125, -0.0937500, 0.0078125, -0.0468750, 0.0625000, 0.0000000, 0.0312500, -0.0468750, -0.0468750, 0.0078125, -0.0703125, -0.0390625, -0.0625000, 0.0156250, -0.0078125, 0.0312500, 0.0625000, 0.0234375, 0.1406250, -0.0546875, -0.0156250, 0.0703125, 0.0312500, -0.1484375, -0.0390625, 0.2109375, 0.0468750, 0.0937500, -0.0156250, -0.0312500, 0.0000000, 0.0234375, -0.0390625, -0.1953125, 0.0078125, 0.0781250, 0.0546875, -0.1171875, -0.0312500, 0.0312500, 0.0703125, 0.0625000, -0.0859375, 0.0859375, 0.0156250, 0.1015625, 0.0156250, 0.0234375, -0.0078125, 0.0078125, 0.0625000, -0.0937500, 0.0390625, 0.1406250, -0.0625000, -0.0468750, 0.0625000, 0.0625000, -0.1562500, -0.0234375, 0.0625000, -0.1015625, 0.0468750, 0.0625000, -0.0078125, 0.0312500, 0.1093750, 0.0234375, 0.1015625, 0.0234375, -0.0937500, -0.0781250, -0.0312500, -0.0234375, 0.0156250, 0.0546875, -0.0859375, -0.0312500, 0.0078125, 0.1875000, 0.0468750, -0.1171875, 0.0312500, 0.0156250, 0.0703125, -0.0312500, 0.0390625, -0.0078125, 0.0625000, 0.0234375, -0.1328125, -0.0390625, 0.0781250, 0.0312500, -0.1015625, 0.0781250, 0.0468750, -0.0625000, 0.0078125, -0.0390625, 0.1250000, -0.0078125, -0.0156250, -0.1250000, -0.0781250, -0.0468750, -0.0781250, 0.0468750, -0.0156250, -0.0859375, 0.0468750, -0.1093750, -0.0546875, 0.0781250, -0.0781250, -0.0703125, 0.1250000, -0.0703125, -0.0703125, -0.0703125, 0.1171875, 0.0312500, 0.0703125, -0.0078125, 0.0703125, -0.0859375, -0.0468750, 0.0390625, -0.0390625, 0.2343750, 0.0546875, 0.1171875, 0.0546875, 0.0156250, 0.0703125, 0.0546875, 0.1328125, 0.0937500, 0.0546875, 0.0078125, -0.0078125, -0.0234375, -0.0625000, -0.1093750, -0.0859375, 0.0390625, -0.0625000, 0.0312500, -0.1015625, 0.0546875, -0.0078125, 0.0781250, -0.0937500, 0.0312500, -0.0234375, 0.0000000, 0.1562500, 0.0859375, 0.0312500, -0.0234375, 0.0390625, 0.0312500, -0.0390625, -0.0234375, 0.0390625, -0.0546875, -0.0781250, 0.0937500, 0.0390625, -0.0234375, -0.0546875, 0.0390625, -0.0546875, -0.0546875, 0.0546875, 0.0234375, -0.0859375, 0.0468750, -0.0078125, 0.0078125, -0.1015625, 0.0156250, 0.0234375, 0.1171875, -0.0546875, 0.1015625, 0.0156250, 0.0937500, 0.0234375, -0.0468750, -0.0703125, 0.0078125, 0.0781250, -0.0468750, -0.1953125, 0.1093750, 0.0468750, 0.0234375, 0.0234375, -0.0937500, -0.0078125, 0.1093750, -0.0625000, 0.0390625, -0.0156250, -0.0312500, 0.0859375, -0.0468750, 0.0625000, 0.0000000, 0.0703125, -0.0468750, -0.1250000, 0.0390625, -0.0234375, -0.0546875, -0.0859375, 0.0703125, -0.0546875, 0.0781250, -0.0234375, 0.1093750, -0.0937500, -0.0468750, 0.0937500, 0.1406250, 0.0078125, -0.0781250, -0.0937500, 0.0468750, -0.0312500, 0.0312500, -0.0078125, 0.0546875, -0.0625000, 0.1093750, 0.0859375, 0.0703125, -0.0625000, -0.1093750, 0.0234375, 0.0000000, -0.0703125, 0.0312500, 0.0390625, 0.0703125, -0.0546875, -0.0546875, -0.0390625, -0.0234375, -0.0468750, -0.0781250, 0.1093750, 0.0703125, 0.0937500, 0.0078125, 0.0312500, 0.0234375, -0.0703125, 0.0156250, -0.0703125, -0.0078125, -0.0312500, 0.1406250, -0.0234375, 0.1093750, 0.0468750, -0.0390625, 0.0468750, 0.1875000, 0.1171875, 0.0703125, 0.0625000, 0.0781250, -0.0234375, -0.0468750, 0.0078125, 0.0312500, 0.1250000, 0.0234375, -0.1562500, 0.0625000, 0.0234375, -0.0078125, 0.0390625, 0.0234375, -0.1328125, -0.0156250, -0.0312500, 0.1093750, 0.2187500, 0.0390625, 0.1093750, 0.0312500, -0.0625000, 0.0703125, 0.0625000, 0.0000000, 0.1093750, 0.0859375, 0.0156250, 0.1015625, 0.0156250, 0.0156250, 0.0703125, -0.0156250, 0.0859375, 0.1171875, 0.1171875, -0.0703125, 0.0468750, -0.0390625, 0.0156250, 0.2109375, -0.0625000, -0.0390625, 0.0156250, -0.0625000, 0.0234375, 0.0078125, -0.0156250, -0.0390625, -0.0468750, -0.0156250, -0.0312500, 0.0078125, 0.0000000, 0.0390625, -0.0468750, -0.0781250, 0.0000000, 0.0390625, 0.0546875, 0.0468750, 0.0468750, -0.1171875, -0.1328125, 0.0312500, -0.0390625, 0.1875000, 0.1406250, 0.0312500, -0.0312500, 0.0781250, 0.0468750, -0.0078125, -0.0703125, -0.0312500, 0.0781250, 0.0234375, 0.0234375, 0.1796875, 0.0078125, 0.0703125, -0.0703125, 0.0703125, 0.0390625, -0.0546875, 0.0546875, 0.0000000, -0.0234375, -0.1718750, 0.0546875, 0.1093750, -0.0234375, 0.0390625, -0.0390625, 0.1953125, 0.0000000, 0.0390625, 0.0468750, -0.0546875, 0.1015625, 0.0156250, 0.0000000, 0.0390625, 0.0156250, 0.0625000, -0.0078125, -0.1953125, -0.0781250, -0.0156250, -0.1171875, 0.0078125, -0.0781250, -0.0703125, -0.0312500, -0.0234375, 0.1015625, 0.0625000, 0.0234375, 0.0937500, 0.0312500, 0.0625000, 0.0312500, 0.1171875, 0.0156250, 0.0078125, -0.0468750, -0.0468750, 0.1093750, 0.0781250, -0.0078125, 0.0859375, 0.0468750, 0.0625000, -0.0781250, 0.2265625, 0.0312500, -0.0078125, -0.0312500, 0.0546875, -0.0781250, 0.0078125, 0.1562500, 0.0546875, -0.1250000, -0.0625000, 0.0078125, 0.0468750, 0.0312500, 0.0468750, 0.0468750, -0.0390625, 0.0312500, 0.0312500, 0.0000000, 0.0156250, 0.0703125, -0.0312500, 0.0078125, 0.0000000, 0.0390625, -0.0078125, 0.0312500, -0.0234375, -0.0156250, 0.0156250, -0.0234375, -0.1015625, 0.1015625, 0.0156250, -0.1640625, 0.0312500, 0.0156250, -0.1250000, 0.0078125, 0.0156250, 0.0078125, -0.0078125, -0.1093750, 0.0546875, -0.0625000, 0.0078125, 0.0078125, 0.0468750, -0.0156250, 0.1015625, 0.1250000, 0.0312500, 0.0312500, 0.0703125, -0.1406250, 0.0390625, 0.0937500, -0.0078125, 0.0390625, 0.0078125, -0.0078125, -0.0234375, -0.0546875, -0.0234375, -0.0312500, -0.0312500, -0.0468750, 0.0000000, -0.0781250, 0.0703125, 0.0234375, 0.1796875, 0.0468750, 0.0468750, -0.0859375, 0.1015625, 0.1015625, 0.0000000, -0.0859375, 0.0859375, -0.0234375, 0.0000000, 0.1718750, -0.0312500, -0.0078125, -0.0625000, -0.0937500, -0.0390625, -0.0312500, -0.0234375, -0.0703125, -0.0468750, -0.0937500, 0.0546875, 0.0781250, -0.0234375, -0.0468750, -0.0078125, 0.0078125, -0.0703125, 0.1406250, 0.1484375, 0.0625000, 0.0390625, 0.0703125, 0.0156250, -0.0703125, 0.2031250, -0.0078125, 0.0156250, -0.0390625, -0.0546875, -0.0234375, 0.0156250, -0.0312500, -0.0703125, -0.1015625, -0.2031250, 0.0156250, -0.0625000, 0.0390625, 0.0156250, -0.0703125, 0.0390625, -0.0390625, -0.0156250, 0.0859375, 0.1484375, 0.0390625, 0.0468750, -0.0937500, -0.0625000, -0.1093750, 0.0703125, 0.0078125, -0.0703125, 0.0234375, -0.0546875, -0.2031250, -0.0703125, -0.0703125, -0.0859375, 0.0078125, -0.1171875, -0.0234375, -0.0234375, 0.1015625, 0.0468750, 0.0859375, -0.1562500, 0.1015625, 0.0000000, -0.0156250, -0.0468750, -0.0546875, 0.1328125, -0.0625000, -0.0546875, 0.0625000, -0.1015625, 0.0625000, 0.0234375, -0.0781250, -0.0703125, 0.1171875, 0.0312500, -0.0156250, 0.0468750, -0.1406250, -0.0234375, 0.0000000, -0.0781250, 0.0078125, -0.1328125, 0.0000000, 0.0000000, -0.0781250, -0.0625000, 0.0312500, -0.0234375, -0.0937500, 0.0312500, 0.0078125, -0.0390625, 0.0234375, -0.1015625, 0.1171875, 0.0546875, -0.0078125, -0.0937500, -0.0234375, -0.0156250, -0.0546875, 0.0078125, -0.1640625, 0.1171875, -0.1328125, 0.0625000, -0.0625000, 0.0000000, -0.0156250, -0.0078125, 0.0234375, -0.1015625, 0.0312500, -0.0625000, 0.0781250, 0.0703125, 0.1640625, 0.0078125, -0.0156250, 0.0156250, -0.1015625, -0.0312500, -0.0468750, 0.1171875, 0.0937500, -0.0625000, -0.0468750, 0.1171875, -0.0781250, 0.0078125, 0.0234375, 0.0234375, 0.0625000, 0.0859375, -0.1093750, 0.0000000, -0.0781250, -0.0625000, -0.0312500, 0.0156250, 0.0703125, 0.0703125, 0.0078125, -0.0859375, 0.0390625, 0.0000000, 0.0312500, -0.0078125, 0.0078125, -0.0937500, -0.0156250, -0.0078125, 0.0000000, 0.0546875, 0.1484375, -0.0390625, -0.1250000, -0.1406250, 0.0156250, 0.0859375, -0.0078125, -0.0468750, -0.0156250, 0.0156250, -0.2265625, 0.0156250, -0.0546875, 0.0625000, 0.0234375, -0.0546875, 0.1171875, 0.0625000, 0.0078125, 0.0078125, 0.1093750, -0.0234375, 0.0000000, 0.0234375, -0.0468750, -0.1015625, -0.0390625, -0.1484375, -0.0546875, 0.0000000, 0.0468750, 0.0156250, 0.0156250, 0.0937500, 0.0390625, -0.1562500, -0.0390625, 0.1171875, -0.1640625, -0.1093750, 0.0390625, -0.0390625, 0.0078125, 0.0781250, -0.0234375, 0.0000000, 0.0312500, 0.0000000, 0.0546875, 0.0312500, 0.0390625, -0.0156250, -0.0625000, -0.0234375, 0.0078125, 0.0546875, 0.0156250, 0.1093750, -0.0468750, -0.0625000, -0.0781250, 0.0078125, 0.0234375, 0.0625000, 0.0625000, 0.0625000, 0.0625000, -0.0859375, -0.1406250, 0.0312500, -0.0468750, 0.0468750, 0.0781250, 0.1484375, 0.0000000, 0.0859375, -0.0312500, -0.0546875, -0.0156250, 0.0234375, 0.0234375, -0.0546875, 0.0468750, 0.0078125, 0.1328125, 0.1093750, 0.0546875, 0.0390625, 0.0156250, -0.0234375, -0.0546875, 0.0859375, 0.1328125, -0.0781250, -0.1718750, -0.0234375, -0.0546875, 0.0468750, -0.0078125, 0.0546875, 0.0156250, 0.0625000, -0.0234375, 0.0234375, 0.0078125, -0.0781250, -0.0234375, -0.0078125, 0.0234375, -0.0078125, -0.1640625, 0.0468750, -0.0078125, 0.1250000, 0.0156250, 0.0625000, 0.1328125, -0.0156250, 0.0078125, 0.0546875, 0.0937500, -0.0703125, 0.0078125, 0.0625000, 0.0234375, 0.0390625, -0.0703125, 0.0703125, 0.0625000, 0.0000000, 0.0703125, 0.2500000, 0.0703125, 0.0000000, -0.0234375, 0.0859375, -0.0078125, -0.0937500, -0.0781250, -0.0312500, -0.0078125, 0.0781250, -0.0390625, 0.0156250, 0.0468750, 0.0468750, -0.0078125, 0.0625000, 0.0390625, 0.0000000, -0.0312500, -0.0312500, -0.0625000, 0.0703125, 0.0390625, 0.0234375, -0.0390625, 0.0000000, -0.0468750, 0.0156250, -0.1015625, -0.1406250, 0.1171875, 0.0234375, -0.0390625, -0.0781250, -0.0156250, -0.0156250, -0.0781250, -0.0468750, -0.0234375, 0.0234375, 0.0312500, 0.1562500, -0.1093750, -0.0390625, -0.0312500, 0.0156250, 0.0781250, -0.0781250, 0.0078125, -0.0781250, 0.1171875, 0.0156250, 0.0156250, 0.0078125, -0.0312500, -0.2031250, -0.0937500, 0.0390625, 0.0546875, 0.0937500, 0.0546875, 0.0078125, -0.0234375, -0.0625000, -0.0156250, -0.0390625, -0.0390625, 0.0390625, 0.0781250, -0.0156250, -0.0546875, -0.1406250, -0.0781250, 0.0468750, 0.0156250, -0.0234375, -0.0468750, -0.0546875, 0.0312500, -0.0859375, -0.0312500, -0.0937500, 0.0156250, -0.0468750, 0.0703125, -0.0390625, 0.0703125, -0.0390625, 0.0546875, -0.0312500, -0.0468750, 0.1875000, 0.0625000, 0.0000000, 0.1171875, -0.0625000, 0.1640625, 0.1093750, -0.0625000, -0.0390625, -0.0703125, -0.0156250, -0.0937500, -0.0468750, -0.0156250, -0.0312500, -0.0546875, 0.0312500, -0.0625000, 0.0390625, -0.0156250, 0.1093750, -0.0468750, -0.0937500, -0.0546875, 0.0546875, -0.0234375, 0.0156250, 0.1406250, 0.0234375, -0.0781250, 0.0781250, -0.0781250, 0.0468750, -0.0625000, -0.1015625, 0.0000000, -0.1406250, 0.0000000, 0.0703125, -0.0781250, -0.0703125, 0.0312500, 0.0703125, -0.1406250, 0.0234375, 0.0390625, 0.0156250, -0.0468750, -0.1171875, -0.0156250, 0.0390625, 0.0000000, 0.0703125, -0.0546875, 0.0703125, -0.0078125, 0.1015625, -0.0156250, 0.0078125, 0.0703125, -0.0078125, -0.0312500, 0.0703125, -0.1328125, 0.0234375, 0.0468750, 0.0156250, -0.1015625, 0.0312500, -0.0546875, -0.0703125, 0.0312500, -0.1250000, -0.1250000, -0.0078125, -0.0937500, 0.0468750, -0.1250000, 0.1718750, -0.0546875, 0.0156250, 0.1093750, 0.1562500, -0.1562500, 0.0312500, 0.0078125, -0.0468750, -0.0546875, -0.0468750, -0.0468750, -0.0546875, -0.0703125, 0.0234375, 0.0625000, -0.0312500, -0.0234375, 0.1015625, -0.1250000, 0.0078125, -0.0156250, -0.0937500, -0.0234375, -0.0156250, -0.0859375, 0.1250000, -0.0937500, -0.1250000, 0.0000000, -0.0078125, -0.0156250, -0.1093750, 0.0859375, 0.0703125, 0.0234375, 0.0390625, 0.1171875, -0.0468750, 0.1093750, 0.1562500, -0.0312500, 0.0156250, 0.0156250, 0.0859375, -0.0390625, -0.0156250, -0.0156250, -0.0546875, -0.0859375, -0.0859375, -0.1406250, 0.0859375, 0.0390625, -0.0312500, -0.0625000, 0.0546875, -0.0859375, -0.0781250, 0.0078125, -0.0859375, -0.0937500, -0.0234375, 0.1250000, 0.0000000, 0.0468750, -0.1250000, 0.0156250, 0.0078125, -0.0625000, -0.0859375, -0.0312500, -0.0078125, -0.1093750, 0.0156250, 0.0156250, -0.0625000, 0.1484375, 0.0000000, 0.0625000, 0.0078125, 0.0703125, 0.0312500, -0.0937500, -0.1015625, -0.0156250, -0.0937500, 0.2109375, -0.0703125, -0.1250000, -0.0312500, -0.0625000, -0.0937500, 0.0312500, 0.0156250, 0.1328125, 0.0078125, -0.0781250, 0.0468750, 0.0703125, 0.0078125, 0.0234375, -0.0625000, -0.0312500, -0.0781250, 0.1015625, 0.0859375, -0.0156250, -0.0781250, 0.0078125, 0.0703125, 0.0703125, 0.0234375, 0.0234375, -0.0312500, 0.1250000, -0.0234375, -0.0234375, 0.0703125, -0.0625000, 0.1640625, -0.1406250, 0.1875000, 0.0468750, -0.0546875, -0.0312500, 0.0156250, 0.0312500, -0.0390625, -0.0703125, -0.0078125, 0.0390625, -0.0468750, -0.0234375, 0.0703125, -0.1484375, -0.0546875, -0.0937500, 0.0156250, 0.0859375, 0.0781250, 0.0078125, -0.0703125, 0.0390625, 0.0859375, 0.0312500, -0.1718750, 0.0703125, -0.0625000, 0.0625000, 0.0859375, 0.0312500, -0.1171875, -0.0781250, -0.1562500, -0.0078125, -0.0156250, 0.0546875, -0.0781250, -0.0703125, 0.0312500, 0.0468750, 0.0078125, 0.1562500, -0.0546875, -0.0312500, -0.0156250, -0.0078125, 0.0000000, 0.0000000, 0.0546875, 0.0000000, 0.1171875, -0.0703125, 0.0781250, 0.0546875, -0.0703125, -0.0859375, -0.0703125, 0.0703125, -0.0234375, -0.0390625, -0.0234375, 0.0312500, -0.1171875, 0.0390625, 0.0234375, 0.0468750, 0.0234375, -0.0156250, 0.0312500, -0.0625000, -0.0781250, -0.0156250, 0.0781250, -0.0625000, -0.0546875, -0.0625000, -0.0546875, 0.0625000, 0.0625000, 0.0078125, 0.0234375, 0.0703125, -0.0078125, 0.1250000, -0.0703125, -0.0468750, -0.1406250, 0.0468750, -0.0546875, 0.0703125, -0.0703125, -0.0078125, -0.0859375, -0.0078125, -0.0156250, -0.0312500, 0.0625000, 0.0937500, 0.0546875, 0.0937500, 0.1171875, 0.0781250, -0.0078125, 0.1796875, 0.0390625, 0.0468750, -0.0625000, -0.0234375, 0.2187500, -0.0234375, 0.1093750, 0.0859375, -0.0156250, 0.0468750, -0.1250000, -0.0625000, 0.0156250, -0.1250000, -0.1328125, -0.0468750, 0.0781250, -0.0312500, 0.0937500, 0.0312500, 0.0468750, 0.0234375, 0.0390625, 0.0859375, -0.0312500, -0.0312500, -0.0312500, -0.0546875, 0.0703125, -0.0625000, -0.0546875, 0.0234375, 0.1640625, -0.0156250, -0.1250000, -0.0078125, 0.0156250, 0.0390625, 0.0078125, -0.0156250, 0.0078125, -0.0468750, 0.1093750, 0.0156250, 0.0234375, 0.1406250, -0.0468750, -0.1328125, -0.0546875, 0.1093750, 0.0234375, -0.0546875, 0.0078125, 0.0546875, 0.0156250, 0.0546875, 0.0390625, 0.0156250, 0.0468750, 0.0312500, 0.0390625, -0.0781250, 0.1093750, -0.0078125, 0.0546875, 0.0078125, 0.0312500, 0.0625000, -0.0703125, 0.1640625, -0.0234375, 0.0625000, 0.2109375, 0.0390625, -0.0781250, 0.1093750, 0.0468750, -0.0859375, -0.0312500, -0.0390625, 0.0937500, 0.0468750, -0.0156250, 0.0468750, 0.0234375, -0.0078125, -0.0937500, -0.0234375, 0.0312500, 0.0546875, 0.0625000, -0.0468750, 0.0859375, -0.0625000, -0.0390625, 0.1093750, 0.0078125, 0.0781250, -0.0234375, -0.0078125, 0.0468750, -0.0234375, 0.0000000, -0.1328125, -0.1171875, 0.1171875, -0.0390625, -0.0703125, 0.1796875, -0.0156250, 0.0078125, -0.0781250, 0.0000000, -0.0781250, -0.0312500, 0.0859375, 0.0625000, -0.0312500, -0.0625000, -0.1796875, -0.0781250, 0.0078125, 0.1484375, -0.0312500, -0.0078125, 0.0156250, -0.0390625, 0.0781250, 0.1015625, 0.0468750, 0.1093750, 0.0156250, -0.0468750, 0.0625000, -0.0390625, -0.0546875, -0.0546875, -0.0234375, -0.0156250, 0.0312500, 0.0625000, 0.0312500, -0.0468750, 0.0859375, -0.0546875, -0.0156250, -0.0234375, 0.1171875, -0.0156250, -0.0468750, -0.0468750, 0.0234375, -0.0546875, -0.1015625, 0.0078125, 0.1484375, 0.0781250, 0.0781250, 0.0781250, -0.1015625, -0.0156250, -0.0156250, -0.0859375, -0.0078125, 0.0390625, 0.1250000, -0.0546875, -0.0468750, -0.0234375, -0.0468750, 0.1093750, -0.2031250, -0.0234375, -0.0312500, 0.0078125, -0.0468750, -0.0312500, -0.0859375, 0.1406250, -0.0078125, 0.0390625, -0.0703125, -0.1171875, 0.0390625, -0.0312500, 0.0937500, 0.0625000, -0.0703125, -0.0625000, 0.0156250, -0.0703125, 0.0390625, -0.0546875, -0.0234375, 0.1093750, 0.0156250, -0.0625000, -0.0781250, 0.0468750, -0.0781250, -0.0546875, 0.0000000, 0.0312500, -0.0078125, -0.1250000, -0.0234375, -0.1015625, -0.1171875, 0.0703125, 0.0703125, -0.0234375, 0.0234375, -0.0078125, -0.0312500, -0.1015625, 0.0859375, 0.0078125, 0.0156250, -0.0703125, 0.1015625, -0.0625000, -0.0546875, -0.0234375, -0.0781250, 0.1250000, 0.0078125, 0.0234375, -0.0625000, 0.0234375, -0.1953125, -0.0703125, -0.0234375, -0.0156250, 0.0937500, -0.0078125, 0.0390625, -0.0390625, 0.0781250, 0.1640625, 0.0000000, 0.0937500, -0.0078125, -0.0781250, -0.0625000, -0.0312500, -0.0546875, -0.0312500, 0.0390625, -0.0234375, 0.0781250, 0.0078125, -0.0078125, 0.0468750, -0.1093750, 0.0390625, -0.0078125, -0.1484375, 0.1406250, -0.0156250, 0.1093750, 0.0859375, 0.0390625, 0.0156250, -0.0781250, -0.0078125, 0.0546875, -0.0546875, 0.0078125, 0.0390625, 0.0625000, -0.0625000, -0.0625000, -0.0078125, -0.0078125, -0.1015625, 0.0390625, 0.0859375, -0.0546875, 0.0234375, -0.0156250, 0.0156250, -0.0312500, -0.0156250, -0.0390625, -0.0234375, -0.1093750, -0.1015625, -0.0546875, 0.0156250, -0.0859375, 0.0937500, 0.0468750, 0.0000000, -0.0312500, -0.0625000, 0.0156250, 0.0078125, -0.0625000, -0.0703125, 0.0000000, 0.0390625, -0.0234375, 0.0390625, -0.0078125, 0.0312500, -0.0156250, -0.1015625, 0.0234375, -0.0234375, -0.1796875, -0.1093750, 0.1093750, 0.0000000, -0.0625000, -0.1328125, -0.0234375, -0.0078125, 0.0078125, 0.0078125, 0.0703125, 0.0546875, -0.0468750, 0.0000000, 0.0000000, 0.0468750, -0.0468750, -0.0468750, -0.1328125, -0.0546875, -0.0468750, 0.0078125, -0.0078125, -0.0078125, 0.0312500, 0.0390625, 0.0000000, -0.1171875, 0.0000000, -0.1640625, 0.0156250, -0.0781250, -0.0078125, 0.0781250, -0.0312500, -0.1015625, -0.1718750, -0.0781250, -0.0703125, 0.1171875, -0.0546875, 0.0000000, -0.0390625, 0.0000000, -0.0312500, 0.0312500, 0.0703125, 0.0625000, 0.1093750, -0.0390625, -0.0703125, -0.0156250, 0.1015625, 0.0390625, 0.0625000, 0.0000000, 0.1093750, 0.0937500, -0.0937500, -0.1796875, -0.1718750, -0.0234375, 0.0468750, 0.0468750, 0.0156250, -0.1171875, 0.0703125, -0.1093750, -0.0546875, 0.0078125, -0.0156250, 0.0625000, -0.0781250, -0.0703125, -0.0234375, 0.0390625, 0.0078125, -0.0937500, -0.1640625, 0.0312500, 0.1484375, -0.0234375, -0.0078125, -0.0390625, 0.0312500, 0.0234375, 0.0078125, -0.0781250, 0.1562500, 0.1484375, 0.0546875, -0.0078125, 0.0078125, -0.0312500, 0.0234375, 0.0390625, 0.1406250, -0.0390625, 0.0312500, 0.0937500, -0.0468750, 0.0000000, 0.0156250, 0.0000000, -0.0625000, -0.0312500, -0.0468750, -0.0312500, -0.0078125, -0.0156250, 0.1015625, 0.0390625, 0.1250000, -0.1093750, -0.0078125, -0.1640625, -0.0703125, 0.0000000, -0.0390625, 0.0859375, -0.1093750, 0.0468750, -0.1328125, -0.0078125, -0.0703125, 0.0000000, 0.0156250, -0.0703125, -0.0156250, 0.0937500, 0.0156250, -0.0546875, 0.0390625, 0.0625000, 0.1796875, -0.0859375, 0.0468750, 0.0234375, 0.1171875, -0.1718750, 0.0000000, -0.0390625, 0.0937500, 0.0000000, -0.0078125, -0.0546875, -0.1406250, -0.0781250, -0.0625000, -0.0078125, 0.0937500, -0.2421875, 0.0390625, 0.0156250, 0.0312500, 0.0390625, -0.0390625, 0.0234375, -0.0078125, 0.1250000, 0.0625000, 0.0078125, -0.0468750, -0.0937500, -0.0156250, -0.0312500, 0.0468750, 0.0937500, 0.0078125, -0.0234375, 0.0312500, -0.1093750, 0.2187500, 0.0078125, 0.0000000, 0.0312500, 0.0546875, 0.0468750, 0.0000000, 0.0078125, 0.0390625, -0.0625000, -0.0781250, -0.1484375, 0.0546875, -0.0156250, -0.0703125, -0.0234375, 0.0625000, -0.0546875, -0.1562500, -0.1328125, 0.0156250, 0.1015625, -0.0312500, 0.0156250, -0.0625000, -0.0546875, -0.0781250, -0.0546875, 0.1015625, 0.0546875, 0.0078125, -0.0781250, 0.0468750, -0.0546875, -0.0703125, 0.0234375, 0.0390625, 0.0625000, 0.0781250, 0.1015625, 0.1328125, -0.0234375, -0.0937500, -0.0078125, -0.0156250, 0.0000000, 0.1015625, -0.0156250, -0.0781250, 0.0859375, -0.0078125, -0.0937500, -0.0703125, -0.0078125, 0.1406250, -0.0156250, 0.0312500, -0.0234375, 0.0312500, 0.0312500, -0.0859375, 0.0000000, -0.0703125, 0.0000000, 0.0156250, -0.0937500, -0.1015625, -0.0312500, 0.0937500, 0.1250000, -0.0625000, -0.1015625, 0.0312500, -0.1015625, 0.0859375, -0.0078125, -0.1250000, 0.0234375, -0.0156250, -0.0546875, -0.0468750, -0.0078125, -0.0156250, 0.0234375, 0.0312500, -0.0312500, 0.0625000, 0.0859375, -0.1093750, 0.0234375, -0.0078125, 0.0781250, -0.0468750, 0.0703125, 0.1406250, 0.0078125, 0.0937500, 0.0156250, -0.0625000, -0.0546875, -0.0234375, 0.0156250, 0.0078125, 0.0546875, 0.0156250, 0.0312500, 0.1171875, -0.0546875, 0.1093750, 0.0468750, -0.0078125, -0.0781250, 0.0703125, 0.0937500, 0.0000000, -0.0234375, 0.0156250, 0.0234375, 0.0000000, -0.0546875, -0.1015625, 0.0078125, 0.0390625, -0.0312500, -0.0234375, -0.0468750, -0.0390625, -0.1250000, -0.1093750, 0.0625000, 0.0156250, 0.1640625, -0.1171875, 0.0078125, -0.0078125, 0.0937500, -0.1562500, 0.0546875, 0.1250000, -0.0156250, -0.0312500, -0.0546875, 0.1875000, -0.0703125, 0.0937500, 0.1171875, -0.0937500, 0.0468750, -0.0156250, -0.0078125, -0.0234375, 0.0390625, 0.0078125, -0.0312500, -0.1093750, 0.0000000, -0.1484375, 0.0546875, 0.0078125, -0.0859375, 0.1328125, -0.0390625, -0.0468750, 0.0156250, 0.0156250, -0.1328125, -0.0781250, -0.0078125, 0.0078125, 0.0703125, -0.0625000, -0.0781250, -0.0546875, -0.0468750, 0.1562500, 0.0156250, -0.0781250, 0.2031250, -0.0859375, -0.0390625, -0.1250000, 0.0546875, 0.0468750, 0.0156250, -0.1250000, -0.0703125, -0.0078125, -0.1328125, 0.0546875, -0.0625000, 0.0781250, 0.0859375, 0.0781250, -0.0156250, -0.0156250, 0.0937500, 0.0546875, -0.0390625, -0.0546875, -0.1015625, -0.0312500, 0.0703125, 0.0546875, -0.0078125, -0.0312500, -0.0156250, 0.1015625, -0.0078125, 0.0546875, -0.0546875, 0.0781250, 0.0078125, -0.0156250, -0.1250000, 0.0859375, 0.0781250, 0.0703125, -0.1015625, 0.0000000, -0.0546875, -0.0156250, 0.0781250, 0.1718750, 0.0000000, -0.0078125, -0.0312500, 0.1093750, -0.0546875, 0.0000000, 0.0000000, 0.0859375, -0.0625000, -0.0078125, -0.0625000, 0.0390625, -0.1250000, 0.0312500, 0.0937500, 0.0078125, -0.0156250, -0.0625000, -0.0156250, 0.1718750, -0.0312500, -0.0859375, -0.0312500, -0.0546875, -0.0625000, 0.0312500, -0.1328125, -0.0781250, 0.0390625, 0.0156250, -0.0781250, 0.0000000, -0.0156250, -0.0078125, 0.0468750, -0.0078125, -0.2109375, 0.0546875, 0.0703125, -0.0859375, -0.0390625, -0.1406250, -0.1093750, 0.0312500, 0.0859375, 0.0312500, 0.0000000, 0.0546875, 0.0156250, -0.0156250, -0.0078125, 0.0703125, -0.0546875, -0.1953125, -0.1015625, 0.0937500, -0.0234375, -0.0390625, 0.0078125, -0.0625000, 0.2109375, -0.0468750, -0.0234375, -0.0859375, -0.0937500, 0.0625000, 0.0390625, 0.0000000, 0.0937500, -0.0078125, 0.1015625, 0.0546875, 0.0234375, 0.0000000, -0.0937500, 0.0312500, -0.0156250, -0.0546875, 0.0625000, 0.0312500, -0.1171875, 0.0078125, -0.1406250, -0.0234375, 0.1093750, -0.0781250, 0.0703125, -0.0546875, 0.0156250, 0.0546875, 0.0546875, -0.0156250, -0.0156250, -0.0312500, -0.0234375, 0.1015625, -0.0390625, -0.0312500, -0.0546875, 0.0546875, 0.0781250, 0.0625000, 0.0156250, -0.1484375, -0.0078125, 0.0078125, 0.0625000, 0.0546875, -0.0312500, -0.1093750, -0.0312500, 0.0703125, -0.0078125, -0.0859375, 0.0078125, 0.0312500, 0.0781250, 0.1484375, -0.0781250, -0.0468750, -0.1093750, -0.1718750, 0.0234375, -0.0156250, 0.0234375, -0.0390625, 0.1796875, 0.0546875, -0.1093750, -0.1328125, 0.1015625, 0.1406250, 0.1015625, 0.0000000, 0.0468750, 0.0625000, 0.0234375, -0.0625000, -0.0390625, -0.0078125, -0.0859375, 0.0078125, -0.0546875, -0.0390625, 0.0546875, 0.0468750, -0.0156250, 0.0312500, -0.0390625, -0.0156250, 0.0156250, -0.0703125, 0.0937500, -0.0312500, 0.0234375, -0.0078125, 0.0703125, 0.0234375, 0.1093750, -0.0390625, -0.0937500, -0.1328125, -0.0156250, -0.1328125, 0.0000000, 0.1562500, -0.0468750, 0.0234375, -0.0078125, 0.1015625, -0.0781250, -0.0312500, 0.0156250, 0.0234375, 0.1250000, -0.0390625, -0.0859375, 0.1406250, 0.0390625, 0.0546875, -0.0312500, -0.0390625, 0.0781250, 0.0078125, -0.0390625, -0.1484375, 0.0859375, 0.0625000, 0.0078125, 0.1171875, -0.0156250, 0.0781250, 0.0312500, -0.1015625, 0.1171875, 0.1015625, 0.0468750, -0.1171875, -0.0312500, -0.0234375, 0.0234375, -0.0156250, 0.0156250, 0.0859375, 0.0234375, -0.0078125, 0.1015625, 0.0078125, 0.0546875, 0.0312500, 0.0468750, 0.0156250, 0.0000000, 0.0156250, -0.0625000, -0.0078125, 0.0625000, -0.0468750, 0.0546875, -0.1250000, 0.0000000, 0.0312500, -0.0468750, -0.0234375, -0.0546875, -0.0468750, 0.0859375, -0.0781250, -0.0078125, 0.0234375, -0.0156250, 0.0000000, -0.0312500, 0.0078125, -0.0937500, -0.0781250, -0.1093750, 0.1015625, 0.0156250, -0.0546875, 0.0234375, -0.0156250, 0.0625000, 0.0546875, -0.0078125, 0.1015625, 0.1406250, 0.1484375, 0.0234375, 0.1171875, -0.0468750, -0.0781250, -0.1093750, -0.0234375, -0.0234375, -0.0781250, 0.0234375, 0.0078125, -0.1250000, 0.1015625, 0.0078125, 0.1015625, -0.0468750, -0.0546875, -0.1015625, -0.1484375, -0.0156250, -0.0234375, 0.0156250, 0.0703125, 0.0781250, 0.1406250, 0.0156250, -0.0312500, -0.0625000, 0.0859375, -0.0234375, -0.0937500, 0.0234375, 0.1406250, 0.1015625, 0.0625000, 0.0078125, 0.0078125, -0.0156250, 0.0546875, 0.0781250, -0.0390625, 0.0234375, 0.0390625, -0.0546875, -0.0859375, -0.0234375, 0.0078125, 0.0546875, -0.1328125, 0.1796875, 0.1171875, -0.0078125, -0.0078125, 0.0859375, -0.0546875, 0.1015625, -0.0546875, -0.0546875, -0.0625000, 0.0390625, 0.0859375, 0.1015625, -0.0625000, 0.0546875, 0.0078125, -0.0625000, -0.1328125, -0.0546875, 0.0000000, 0.0078125, -0.0468750, 0.0078125, 0.0859375, 0.1015625, 0.0078125, -0.0078125, 0.0078125, -0.0781250, 0.0781250, 0.0468750, -0.0468750, 0.0859375, -0.0781250, 0.0234375, -0.1328125, 0.0546875, 0.0781250, 0.0234375, -0.0156250, -0.0468750, -0.0390625, 0.0937500, 0.0390625, 0.0234375, -0.0234375, 0.0156250, 0.0234375, -0.0312500, -0.0625000, 0.1562500, 0.0312500, 0.0312500, -0.1640625, 0.0156250, 0.0859375, 0.1328125, 0.0859375, 0.0000000, -0.0390625, 0.0390625, -0.0781250, 0.0390625, 0.1093750, 0.1718750, -0.0625000, 0.0000000, -0.0546875, 0.0390625, 0.1718750, 0.0078125, -0.0156250, 0.0781250, -0.0156250, 0.0312500, -0.0546875, 0.0234375, -0.0468750, 0.0234375, 0.0625000, 0.0078125, -0.0703125, 0.0781250, -0.0234375, -0.0390625, 0.0234375, 0.0859375, 0.0859375, -0.0312500, -0.0312500, -0.0546875, 0.0390625, -0.0468750, -0.0390625, 0.0000000, -0.0781250, -0.0078125, 0.0390625, -0.0156250, 0.0000000, 0.1250000, 0.0078125, -0.0859375, -0.0156250, -0.0468750, 0.0000000, -0.1093750, 0.0859375, 0.0859375, 0.0312500, -0.0078125, -0.0156250, -0.0625000, 0.1093750, -0.0468750, -0.0468750, -0.0156250, -0.0468750, 0.1093750, -0.0156250, 0.0703125, 0.0078125, -0.0859375, 0.0234375, 0.0078125, -0.0234375, -0.0468750, -0.1484375, 0.0546875, -0.0390625, 0.0781250, 0.0156250, -0.0312500, 0.0546875, 0.0000000, -0.0625000, -0.0234375, 0.0468750, -0.0390625, 0.1640625, -0.0312500, -0.0390625, -0.0781250, -0.1171875, -0.0546875, -0.0234375, 0.0781250, -0.0546875, 0.0390625, 0.1093750, 0.0234375, -0.0625000, 0.0546875, -0.0546875, -0.1250000, -0.0078125, -0.0781250, -0.0625000, 0.1718750, 0.1093750, -0.1015625, 0.0156250, -0.1093750, -0.0546875, 0.0390625, 0.0312500, 0.0781250, 0.0234375, 0.0078125, 0.0937500, 0.1093750, 0.1328125, -0.0703125, 0.0859375, -0.1093750, -0.0390625, 0.0156250, -0.0781250, 0.0000000, 0.0312500, -0.0234375, -0.0703125, 0.0078125, 0.0859375, -0.0859375, 0.0078125, -0.0468750, 0.0625000, 0.0390625, 0.0859375, -0.0937500, -0.0703125, 0.0156250, -0.0625000, -0.0625000, 0.1015625, -0.0312500, 0.0703125, -0.1718750, 0.0859375, -0.0703125, 0.0000000, -0.0156250, -0.0234375, -0.0078125, 0.0625000, -0.0546875, 0.0781250, 0.1484375, -0.0312500, 0.0156250, 0.1640625, 0.0234375, 0.0234375, 0.1328125, -0.0390625, -0.0234375, -0.0468750, -0.0859375, 0.0390625, 0.0390625, 0.1250000, 0.1093750, -0.0390625, 0.0234375, -0.0234375, -0.0625000, -0.0703125, 0.0312500, 0.0859375, 0.0781250, 0.0468750, 0.0078125, -0.0156250, 0.0312500, 0.0234375, -0.1328125, 0.0390625, 0.0234375, 0.0390625, -0.0859375, -0.0312500, -0.0156250, -0.1171875, -0.1093750, -0.0625000, 0.1640625, 0.0546875, -0.0859375, -0.0546875, -0.1015625, -0.1171875, -0.0859375, -0.0859375, 0.1171875, 0.0703125, 0.0000000, 0.0000000, 0.1250000, -0.0468750, -0.1015625, -0.0234375, -0.0078125, 0.0234375, -0.1171875, -0.1328125, 0.0546875, -0.0859375, 0.0312500, -0.0390625, -0.0937500, -0.0390625, 0.1015625, 0.0234375, 0.1093750, -0.0859375, -0.1250000, 0.0156250, -0.0859375, -0.0937500, 0.0234375, 0.0312500, -0.0312500, 0.0078125, 0.0390625, 0.0703125, 0.0156250, 0.0390625, 0.0312500, 0.0468750, -0.0312500, 0.1015625, 0.1328125, -0.1718750, 0.1093750, 0.0390625, 0.0781250, -0.0859375, 0.1015625, 0.0625000, 0.0312500, -0.0078125, 0.0781250, 0.0312500, 0.0390625, -0.0390625, -0.0234375, 0.0937500, 0.0468750, 0.0546875, -0.0546875, 0.1406250, -0.0390625, 0.0156250, 0.1015625, 0.0625000, -0.1406250, -0.0390625, 0.0000000, 0.0781250, 0.0468750, -0.1015625, 0.0078125, 0.1328125, 0.0000000, 0.0234375, 0.0390625, -0.1015625, -0.1171875, -0.0937500, 0.0859375, 0.0000000, -0.0234375, -0.0312500, 0.0078125, 0.0468750, -0.0312500, -0.0156250, 0.0546875, 0.0703125, -0.0546875, -0.0468750, -0.2109375, -0.0625000, -0.1093750, 0.0468750, 0.0312500, 0.0078125, -0.0156250, -0.0390625, -0.0781250, 0.0156250, 0.1171875, -0.1093750, -0.0312500, 0.0156250, -0.0234375, 0.0078125, 0.1640625, -0.0078125, 0.0468750, -0.0781250, 0.0312500, 0.0703125, -0.0937500, -0.0390625, -0.0781250, 0.0312500, 0.0390625, 0.1171875, -0.0156250, 0.0234375, 0.0078125, 0.1328125, 0.0625000, 0.0078125, 0.0546875, 0.0546875, 0.0312500, -0.0546875, -0.0390625, 0.0468750, -0.0390625, -0.1562500, -0.0781250, -0.0078125, -0.0937500, 0.0234375, -0.1093750, 0.0000000, 0.0703125, 0.0625000, 0.0078125, 0.0078125, 0.1171875, 0.0078125, -0.0625000, -0.1484375, -0.1406250, -0.0468750, 0.0312500, 0.0312500, -0.0468750, -0.0312500, -0.1015625, -0.0468750, 0.1562500, 0.1015625, 0.0625000, 0.0390625, -0.0468750, -0.0546875, -0.0859375, 0.0937500, 0.1093750, 0.2343750, 0.0156250, 0.0156250, 0.0078125, 0.0703125, -0.0234375, 0.0312500, -0.0390625, -0.0468750, -0.0312500, -0.0625000, 0.0156250, -0.1093750, -0.0546875, 0.1250000, 0.0234375, -0.0468750, 0.0312500, -0.0078125, 0.1171875, -0.0078125, -0.1171875, 0.0937500, 0.0234375, -0.0156250, 0.0390625, 0.0156250, 0.0859375, -0.0312500, 0.0156250, 0.0234375, 0.0468750, -0.0625000, -0.0390625, 0.0390625, -0.0078125, -0.0937500, -0.0937500, 0.0468750, 0.0000000, -0.0312500, 0.0156250, -0.0781250, 0.0078125, 0.0468750, -0.1796875, 0.0078125, -0.0937500, -0.0312500, 0.0625000, 0.0000000, -0.0312500, 0.0234375, 0.0468750, -0.1484375, -0.0625000, -0.0468750, 0.0078125, 0.0078125, 0.1796875, -0.0078125, 0.0312500, 0.0156250, -0.1093750, -0.0468750, 0.0078125, -0.1171875, -0.0078125, 0.1250000, 0.0859375, -0.0078125, 0.1171875, -0.0390625, -0.0781250, -0.0703125, 0.0156250, -0.0156250, -0.1640625, 0.0781250, -0.1796875, 0.0312500, 0.0000000, 0.0000000, 0.0312500, -0.0078125, -0.1015625, -0.0234375, 0.0156250, -0.1015625, -0.0468750, -0.0312500, 0.0390625, -0.1796875, -0.0859375, -0.0078125, 0.0078125, -0.0312500, 0.0312500, 0.1484375, 0.0078125, -0.1875000, -0.0156250, 0.0078125, 0.0234375, -0.0156250, -0.0625000, 0.0390625, 0.1171875, -0.0234375, 0.0781250, 0.0781250, 0.0781250, -0.1875000, 0.0703125, -0.0625000, 0.0312500, -0.0078125, 0.0859375, -0.0859375, 0.0312500, -0.0234375, -0.1328125, 0.0546875, -0.0390625, 0.1328125, 0.0546875, -0.0078125, 0.0078125, 0.0156250, -0.0312500, -0.0468750, -0.0312500, -0.0078125, -0.0156250, 0.0781250, 0.0781250, 0.1250000, -0.0625000, -0.0937500, 0.0625000, 0.0312500, 0.0156250, 0.0546875, -0.0546875, -0.0312500, -0.0859375, 0.0781250, 0.1484375, 0.0546875, 0.1093750, 0.0625000, 0.0000000, -0.0703125, -0.0546875, -0.0546875, -0.0625000, -0.1953125, 0.0937500, 0.0234375, 0.0781250, -0.0312500, -0.1171875, -0.0546875, 0.0156250, 0.0859375, -0.1015625, 0.1875000, -0.1015625, -0.0859375, 0.0390625, 0.0703125, 0.0234375, -0.1328125, -0.0312500, 0.0000000, 0.0625000, -0.0390625, -0.0468750, -0.1015625, -0.0937500, -0.0078125, -0.0078125, -0.1093750, 0.0546875, -0.0781250, 0.0390625, 0.0234375, -0.1484375, 0.0234375, -0.0078125, 0.0859375, 0.0312500, -0.1015625, -0.1328125, 0.0156250, 0.0468750, -0.1562500, -0.0859375, 0.0078125, 0.0546875, 0.0000000, 0.1406250, 0.0312500, -0.1015625, 0.0781250, -0.0390625, -0.0625000, -0.0859375, 0.0078125, -0.0234375, 0.0234375, 0.0234375, 0.1093750, -0.0390625, -0.0703125, -0.0546875, -0.1015625, 0.0078125, 0.0000000, 0.0078125, -0.0312500, 0.0937500, 0.0156250, 0.1484375, -0.0390625, 0.0078125, 0.0312500, 0.1093750, -0.0312500, 0.0078125, 0.0703125, -0.0703125, -0.0234375, 0.0468750, -0.0546875, 0.0234375, 0.1093750, -0.0546875, -0.1093750, -0.0312500, -0.0859375, 0.0312500, 0.0468750, 0.1015625, 0.1015625, 0.0859375, 0.1015625, 0.0625000, -0.0078125, -0.0625000, 0.0312500, 0.0078125, -0.0468750, 0.0312500, 0.0390625, -0.0546875, 0.0625000, 0.0312500, -0.0937500, 0.0234375, 0.0937500, -0.0234375, 0.0703125, -0.0546875, 0.1015625, 0.0234375, -0.0312500, 0.0781250, -0.0625000, -0.0078125, -0.0312500, -0.0781250, -0.0078125, -0.0078125, 0.0000000, -0.1015625, 0.0781250, 0.0781250, 0.0234375, -0.0078125, 0.0156250, 0.1015625, 0.0000000, -0.0234375, 0.0078125, -0.0546875, -0.0312500, -0.2109375, 0.0703125, -0.1171875, -0.0390625, 0.1250000, 0.1406250, -0.1015625, -0.0859375, -0.0312500, -0.0703125, 0.0703125, 0.0390625, 0.0234375, 0.0078125, 0.0625000, -0.0078125, 0.0000000, 0.0468750, 0.0390625, 0.0156250, -0.0468750, 0.0078125, 0.1171875, -0.1093750, 0.0703125, -0.0390625, 0.0546875, -0.0781250, 0.0468750, 0.1093750, 0.0625000, -0.0468750, 0.0468750, -0.0312500, 0.0468750, 0.0468750, -0.0546875, 0.0703125, 0.0468750, 0.0546875, -0.1015625, 0.1171875, 0.0000000, -0.1484375, 0.0468750, -0.0234375, 0.0390625, 0.0546875, 0.0781250, 0.0468750, -0.1484375, 0.0781250, 0.1171875, 0.0625000, -0.1328125, -0.0078125, 0.0937500, 0.0859375, 0.0000000, -0.0312500, -0.0156250, 0.0312500, -0.0859375, -0.0468750, -0.0937500, 0.0703125, 0.0234375, -0.0078125, -0.0781250, 0.0390625, -0.1406250, 0.0156250, 0.1406250, 0.0390625, 0.0156250, -0.0625000, -0.0781250, 0.0078125, -0.0937500, 0.0859375, -0.0703125, -0.0156250, -0.0859375, -0.0625000, -0.0859375, 0.0390625, 0.0000000, 0.0078125, -0.0390625, 0.0078125, -0.2031250, 0.1093750, 0.0546875, 0.0625000, -0.0078125, -0.0234375, -0.0156250, -0.1796875, 0.0781250, -0.0468750, -0.1562500, 0.0390625, 0.0781250, 0.0078125, -0.0390625, 0.0312500, -0.0781250, 0.1328125, 0.0312500, -0.0781250, 0.0625000, 0.0937500, -0.0468750, 0.0625000, 0.1015625, 0.1015625, 0.0546875, 0.1015625, 0.0937500, -0.0312500, 0.0468750, 0.0156250, 0.0859375, -0.0390625, 0.0781250, 0.0937500, -0.0390625, -0.1250000, 0.0859375, 0.0234375, -0.0625000, -0.0156250, -0.0312500, 0.1250000, 0.0234375, 0.0000000, 0.0937500, -0.1093750, -0.0703125, -0.0468750, -0.0390625, -0.0312500, 0.0625000, 0.0546875, 0.0156250, 0.0625000, -0.0156250, 0.0000000, 0.0781250, 0.0078125, 0.0156250, 0.0000000, -0.0156250, 0.0078125, -0.0078125, -0.1015625, 0.1015625, 0.0546875, 0.0156250, 0.1015625, 0.0078125, -0.0312500, -0.0312500, -0.0468750, -0.0390625, -0.1015625, -0.0703125, -0.0468750, 0.0546875, -0.0234375, -0.1328125, -0.0078125, 0.0468750, -0.0859375, 0.1015625, 0.0781250, 0.0546875, 0.0468750, 0.1484375, -0.0078125, -0.0703125, 0.1093750, -0.0312500, -0.0625000, 0.0312500, -0.0312500, 0.0078125, 0.0234375, 0.0859375, -0.0390625, -0.0937500, -0.0078125, -0.0156250, -0.0234375, 0.0078125, 0.0390625, -0.0468750, 0.0781250, -0.1015625, 0.1171875, 0.0156250, -0.0234375, 0.0000000, -0.0078125, -0.0625000, 0.0078125, -0.1406250, -0.0625000, 0.0859375, 0.0781250, -0.0390625, -0.0937500, -0.0156250, -0.0546875, 0.0156250, 0.1406250, 0.0703125, -0.0234375, -0.0156250, -0.0468750, -0.0390625, 0.0000000, -0.0625000, 0.0468750, 0.0781250, 0.0234375, -0.0156250, -0.0234375, -0.0859375, -0.1953125, 0.0703125, 0.1015625, -0.0390625, -0.0625000, 0.0234375, 0.0546875, 0.0234375, -0.0156250, -0.0390625, 0.0781250, 0.0312500, -0.0468750, 0.1015625, 0.0312500, 0.0234375, 0.0390625, -0.0234375, -0.0390625, 0.0390625, 0.0625000, 0.0000000, 0.0390625, 0.0468750, -0.1093750, 0.0625000, -0.0156250, 0.0546875, 0.1171875, -0.1484375, 0.1250000, -0.2031250, 0.1015625, -0.1015625, -0.0546875, 0.0859375, -0.0703125, 0.1093750, -0.0312500, -0.0546875, -0.1562500, -0.0781250, -0.0781250, -0.0390625, 0.0234375, -0.0703125, -0.0390625, 0.0781250, -0.0390625, 0.1093750, -0.0234375, -0.0156250, 0.0703125, -0.0781250, -0.0781250, 0.0000000, 0.0078125, -0.0546875, -0.0156250, -0.0390625, -0.0078125, 0.0546875, 0.0937500, -0.0078125, -0.1484375, 0.0468750, 0.0703125, 0.0000000, 0.0625000, -0.0390625, 0.0156250, 0.0000000, 0.0078125, 0.0703125, 0.0390625, -0.1250000, -0.0156250, 0.1093750, -0.1171875, -0.0468750, 0.0312500, -0.0312500, -0.0546875, -0.0937500, -0.0234375, -0.0156250, 0.2265625, -0.0234375, 0.0234375, -0.2031250, -0.0156250, -0.1015625, -0.0859375, 0.1406250, 0.0312500, 0.0390625, -0.0703125, -0.0312500, -0.0234375, 0.0625000, -0.0625000, -0.0703125, -0.0078125, 0.0859375, 0.0000000, 0.0937500, -0.0468750, -0.0156250, 0.0625000, 0.1093750, -0.0390625, -0.1015625, 0.0000000, -0.1015625, -0.1093750, 0.0312500, 0.0312500, -0.1328125, -0.0156250, -0.0078125, -0.0468750, -0.0546875, 0.0234375, 0.0546875, -0.0078125, 0.0156250, 0.1250000, 0.0000000, 0.0156250, -0.0156250, 0.0156250, 0.1171875, -0.0703125, 0.0625000, 0.0703125, 0.0859375, 0.0000000, -0.0703125, -0.0703125, 0.0468750, -0.0546875, -0.0234375, -0.0078125, -0.1328125, -0.0781250, 0.0312500, -0.1718750, 0.0234375, 0.0937500, 0.0390625, -0.0859375, -0.1015625, 0.0390625, 0.0156250, 0.0625000, -0.1015625, 0.0390625, 0.0234375, 0.0468750, -0.0859375, 0.0234375, 0.0234375, 0.0312500, -0.0234375, 0.0078125, 0.0234375, 0.0781250, -0.0625000, 0.0312500, 0.0000000, 0.0234375, 0.0000000, 0.0468750, -0.1171875, -0.0312500, -0.0234375, 0.0000000, 0.0078125, -0.0390625, -0.0390625, -0.0468750, -0.0156250, -0.0390625, -0.1171875, 0.0156250, -0.0546875, 0.0546875, -0.0156250, -0.0468750, -0.0859375, 0.0390625, 0.0078125, 0.1093750, -0.0156250, 0.1171875, -0.1484375, 0.0078125, 0.0468750, -0.0546875, 0.0312500, -0.1093750, -0.0390625, -0.0468750, -0.0156250, 0.0625000, 0.0000000, -0.1015625, 0.0390625, -0.1171875, 0.0546875, -0.0781250, 0.0625000, 0.0937500, 0.0078125, -0.0390625, -0.0703125, 0.0937500, -0.0703125, 0.0312500, 0.1250000, -0.0468750, -0.0312500, -0.0234375, -0.0468750, 0.1250000, 0.0234375, 0.0234375, 0.0937500, 0.0156250, 0.0000000, 0.1406250, 0.0625000, -0.0468750, -0.0078125, 0.0312500, -0.0937500, 0.0468750, -0.0781250, 0.1328125, 0.1093750, 0.0625000, -0.0468750, 0.0625000, -0.0312500, -0.0390625, -0.0234375, 0.0078125, 0.0000000, 0.0859375, -0.0312500, -0.0234375, -0.0781250, -0.0703125, 0.2031250, 0.0546875, 0.0078125, 0.0156250, 0.0078125, 0.1015625, 0.0781250, -0.0468750, 0.0937500, -0.0390625, 0.0000000, -0.0546875, -0.2187500, 0.0078125, -0.0156250, -0.0468750, 0.0468750, -0.0546875, -0.0468750, 0.1015625, -0.0078125, -0.0390625, 0.1328125, -0.0312500, -0.1250000, -0.0312500, -0.1015625, -0.0156250, 0.0781250, -0.0468750, 0.0000000, 0.0078125, 0.0078125, 0.0781250, 0.0390625, 0.0000000, 0.1171875, 0.0312500, -0.0781250, 0.0781250, 0.1093750, -0.0312500, 0.0312500, 0.1484375, -0.1015625, 0.0234375, 0.0078125, 0.0234375, 0.0156250, 0.0078125, -0.0312500, -0.0546875, -0.0078125, -0.2578125, 0.0468750, -0.0234375, -0.0234375, 0.0703125, 0.0468750, -0.0781250, 0.0234375, -0.0390625, 0.1406250, -0.0234375, 0.1015625, 0.0000000, 0.0234375, 0.0078125, 0.0625000, 0.0781250, 0.0312500, 0.0156250, 0.0859375, 0.1562500, 0.0234375, -0.0546875, 0.1250000, 0.0781250, 0.0156250, -0.0312500, -0.0859375, 0.0312500, 0.0234375, 0.0078125, -0.0390625, 0.0312500, 0.1406250, 0.0625000, -0.1328125, 0.0078125, -0.1406250, -0.0390625, -0.0859375, 0.0625000, 0.0156250, -0.0234375, 0.0546875, -0.0078125, -0.0390625, 0.0625000, -0.0937500, -0.0859375, -0.0078125, -0.1796875, 0.0000000, 0.0625000, -0.0156250, 0.0234375, 0.0390625, 0.0937500, 0.0156250, 0.0781250, -0.1171875, 0.1015625, -0.0546875, 0.1093750, 0.0000000, -0.1484375, 0.0390625, 0.0859375, 0.0156250, 0.1015625, -0.1171875, -0.0078125, 0.1015625, 0.0625000, 0.0703125, -0.0546875, -0.0859375, 0.0078125, -0.0468750, 0.0156250, 0.0546875, -0.0703125, -0.0078125, 0.0390625, 0.0625000, 0.0078125, 0.0468750, -0.2578125, -0.0390625, -0.0234375, 0.0234375, -0.0468750, -0.0312500, 0.0625000, -0.1171875, -0.0546875, 0.1093750, -0.0625000, -0.0156250, 0.0625000, 0.0078125, 0.0781250, 0.0000000, 0.0312500, 0.0468750, 0.0156250, -0.0468750, 0.0000000, -0.0390625, 0.0156250, -0.1015625, -0.0703125, -0.0156250, 0.0156250, -0.1015625, 0.1093750, 0.0156250, -0.0078125, -0.0156250, 0.0000000, 0.0390625, -0.0312500, -0.1796875, -0.0703125, 0.1406250, -0.0781250, -0.0078125, 0.0703125, 0.0468750, -0.0546875, 0.0546875, -0.0312500, -0.1250000, -0.0625000, -0.0468750, 0.0859375, -0.0468750, -0.0234375, -0.0156250, 0.0000000, -0.0078125, -0.0390625, -0.0468750, -0.0234375, -0.0078125, -0.0703125, 0.0625000, 0.0078125, -0.0546875, -0.0312500, -0.0625000, -0.1015625, -0.1328125, -0.0234375, -0.0312500, 0.1093750, -0.2031250, 0.0546875, 0.1250000, -0.0312500, 0.0000000, -0.0234375, -0.0703125, -0.0546875, 0.0546875, 0.1250000, 0.0312500, 0.0312500, -0.0234375, 0.0156250, -0.0546875, 0.0234375, -0.0234375, 0.0468750, -0.0234375, 0.0156250, 0.1328125, -0.0390625, 0.0078125, 0.0078125, -0.1093750, 0.1015625, -0.0468750, 0.0937500, -0.0156250, -0.1328125, 0.0781250, -0.0781250, -0.0156250, 0.0156250, -0.0234375, 0.0937500, -0.0312500, 0.0312500, -0.1015625, 0.0156250, 0.0078125, -0.0078125, 0.0390625, 0.1015625, 0.0078125, -0.0937500, 0.0156250, 0.1718750, -0.0781250, -0.0703125, 0.0703125, -0.0390625, 0.0468750, -0.0234375, 0.1640625, 0.0156250, 0.0859375, 0.0000000, -0.0468750, -0.0468750, 0.0312500, -0.1015625, 0.1093750, -0.0078125, 0.0000000, -0.0781250, 0.0078125, 0.0156250, 0.0781250, -0.0156250, 0.1015625, -0.0234375, 0.0937500, -0.0156250, -0.1953125, -0.0078125, 0.0859375, -0.0937500, 0.1015625, 0.0156250, -0.0859375, 0.0078125, 0.0859375, 0.0078125, -0.0078125, -0.0234375, 0.0156250, 0.0078125, 0.0703125, 0.0000000, -0.0234375, -0.0312500, -0.0390625, -0.0234375, -0.0546875, 0.0546875, -0.0546875, -0.1875000, -0.1171875, 0.0000000, 0.0390625, -0.1328125, -0.0781250, -0.0937500, -0.0156250, 0.0468750, 0.1328125, -0.0781250, 0.0234375, 0.0781250, -0.0156250, -0.0078125, -0.0468750, 0.0390625, -0.1250000, 0.0390625, -0.0078125, -0.0234375, -0.0546875, -0.0468750, 0.0000000, 0.0078125, -0.0625000, -0.0234375, -0.0312500, 0.0937500, 0.1093750, -0.0312500, 0.0390625, 0.0000000, -0.0468750, -0.0468750, 0.0156250, 0.0390625, -0.0703125, -0.0546875, 0.0468750, -0.1562500, 0.0234375, 0.0156250, -0.0546875, 0.0781250, 0.0390625, 0.0625000, 0.1015625, -0.1093750, -0.0546875, -0.0546875, -0.0312500, 0.0937500, 0.0625000, 0.0546875, 0.1093750, -0.0937500, 0.1250000, -0.0859375, 0.0000000, 0.0546875, -0.0703125, -0.1250000, 0.0000000, -0.0156250, 0.0781250, -0.0390625, 0.0156250, -0.0468750, 0.0000000, 0.0000000, 0.0234375, -0.0468750, 0.0625000, -0.0468750, 0.0937500, 0.0468750, -0.0312500, 0.0234375, -0.0625000, 0.0546875, -0.0312500, 0.0937500, 0.1250000, 0.0156250, 0.1015625, -0.0312500, -0.1484375, -0.0312500, -0.0937500, 0.0000000, 0.0468750, -0.0468750, 0.0546875, 0.1718750, 0.0234375, -0.0156250, -0.0312500, -0.0078125, -0.0234375, 0.0703125, -0.0156250, 0.0156250, 0.0546875, 0.0234375, -0.0078125, 0.0468750, 0.1015625, -0.1796875, 0.1093750, 0.0078125, -0.0390625, 0.0546875, -0.1484375, 0.0468750, -0.0703125, 0.0234375, 0.0312500, 0.0625000, -0.0156250, 0.0234375, 0.0625000, -0.0625000, -0.0156250, 0.1093750, 0.0390625, -0.0156250, -0.0781250, 0.1171875, 0.0312500, 0.0156250, -0.0312500, -0.0625000, 0.0078125, 0.0078125, 0.0312500, 0.0390625, 0.0000000, 0.0156250, -0.0312500, -0.0234375, -0.0859375, 0.0703125, -0.0703125, -0.0390625, -0.0546875, 0.1328125, 0.0000000, 0.0234375, -0.0312500, 0.1406250, 0.0703125, 0.0703125, -0.0859375, 0.0937500, 0.0468750, 0.0546875, 0.0312500, -0.0468750, 0.0078125, -0.0546875, 0.0625000, 0.0000000, 0.0937500, -0.0390625, -0.0234375, -0.1562500, 0.0234375, 0.1953125, 0.0390625, -0.0546875, 0.0078125, 0.0703125, 0.1093750, 0.0312500, 0.1328125, -0.0703125, 0.0078125, 0.0078125, 0.0625000, -0.0390625, 0.0000000, 0.0156250, 0.0703125, 0.0078125, 0.0468750, -0.0390625, -0.0312500, 0.0468750, -0.0546875, -0.0234375, -0.0703125, -0.0468750, -0.0156250, 0.0468750, 0.0234375, 0.0625000, -0.0390625, -0.0234375, 0.0156250, 0.0546875, -0.0859375, -0.0546875, 0.1171875, -0.0781250, -0.0156250, 0.0546875, 0.0468750, -0.0468750, 0.0625000, 0.0468750, 0.0546875, 0.0390625, 0.0390625, -0.0078125, 0.1406250, 0.1015625, -0.1484375, -0.0390625, -0.0312500, 0.0312500, 0.0312500, -0.0156250, -0.0312500, -0.0468750, -0.0156250, -0.0859375, -0.0078125, 0.0000000, -0.0390625, 0.0234375, -0.0312500, -0.0156250, 0.0156250, -0.0703125, -0.0078125, 0.0078125, 0.0156250, -0.0937500, -0.0390625, 0.0625000, 0.0546875, 0.1015625, 0.0156250, 0.1171875, 0.1875000, -0.0781250, 0.1250000, -0.0156250, 0.0468750, -0.0937500, 0.0781250, -0.0156250, -0.0312500, 0.0234375, -0.0625000, 0.0390625, -0.0468750, -0.0546875, 0.0546875, 0.0156250, -0.0546875, 0.0000000, 0.0078125, 0.1718750, -0.0390625, -0.1406250, -0.1093750, 0.0703125, -0.1328125, -0.0156250, -0.0312500, -0.0234375, -0.1093750, 0.0703125, 0.0468750, 0.1406250, -0.0625000, 0.0156250, 0.0625000, -0.0781250, -0.0234375, -0.0156250, 0.0312500, -0.0390625, 0.0781250, 0.0312500, -0.1093750, 0.0468750, 0.0234375, 0.0078125, 0.0078125, 0.1328125, 0.0390625, -0.1093750, 0.0546875, -0.0390625, 0.0859375, -0.0390625, 0.0390625, 0.0156250, 0.1562500, 0.0234375, -0.0156250, 0.1171875, -0.0078125, 0.1171875, 0.0312500, 0.1484375, -0.0078125, 0.0546875, -0.0234375, 0.0546875, 0.0625000, 0.0000000, 0.0703125, 0.0859375, -0.0312500, 0.0312500, -0.0234375, 0.0781250, 0.0390625, 0.1015625, 0.0390625, 0.0156250, 0.0078125, -0.1093750, 0.0390625, 0.0703125, 0.0468750, -0.0937500, 0.0078125, -0.0546875, -0.0546875, 0.0781250, -0.0078125, 0.0546875, 0.1640625, 0.0703125, 0.0156250, 0.0546875, -0.0703125, -0.0312500, 0.0234375, 0.0000000, 0.0625000, 0.0078125, -0.0781250, -0.0625000, 0.0312500, 0.0625000, -0.0546875, 0.1406250, -0.0234375, -0.1015625, 0.0468750, -0.0234375, -0.0468750, 0.0156250, 0.0078125, 0.0234375, 0.0390625, 0.0625000, 0.0156250, 0.0234375, -0.1640625, -0.0781250, 0.0312500, 0.1015625, -0.0234375, -0.0937500, -0.0546875, -0.0312500, -0.1484375, -0.0859375, 0.0312500, -0.0468750, 0.1171875, -0.0703125, -0.0312500, -0.1015625, -0.0078125, 0.0234375, 0.0000000, -0.0156250, 0.0156250, 0.0312500, 0.1718750, 0.0546875, 0.0468750, 0.0703125, -0.1093750, 0.0078125, -0.0781250, 0.0078125, -0.0703125, -0.0390625, 0.0234375, 0.0078125, 0.0937500, 0.0859375, 0.0937500, -0.0312500, -0.0468750, 0.0156250, 0.0781250, 0.0859375, -0.0781250, -0.0625000, -0.0546875, 0.0234375, -0.1250000, 0.0000000, -0.0546875, -0.0234375, 0.1015625, 0.0625000, 0.0625000, 0.0156250, 0.0703125, 0.0859375, -0.1093750, -0.2421875, 0.0703125, 0.0000000, -0.0859375, -0.1406250, -0.1406250, -0.0312500, -0.0390625, 0.0390625, 0.0703125, -0.0234375, 0.0468750, 0.0234375, 0.0546875, 0.0000000, 0.0625000, 0.1015625, 0.0156250, -0.0234375, 0.0312500, 0.0234375, -0.0156250, -0.0156250, -0.0937500, 0.0234375, -0.0156250, -0.0390625, -0.0078125, -0.0078125, -0.0781250, 0.0312500, -0.0625000, -0.0859375, 0.1093750, 0.0390625, 0.0468750, -0.0078125, 0.1640625, -0.0390625, 0.0390625, -0.0937500, -0.0312500, 0.0390625, -0.0859375, -0.1093750, -0.0312500, -0.0390625, -0.0546875, 0.1171875, 0.0156250, 0.0937500, 0.1250000, -0.0234375, 0.0078125, -0.1015625, -0.0781250, 0.0703125, -0.0156250, 0.0546875, 0.0781250, 0.0156250, -0.1406250, 0.0078125, -0.0468750, -0.0468750, -0.2109375, 0.0234375, 0.1250000, 0.0390625, -0.0156250, -0.0312500, -0.1328125, -0.0781250, 0.1093750, -0.0156250, 0.0234375, 0.0078125, 0.0781250, 0.0937500, 0.1093750, -0.0156250, -0.0312500, 0.0625000, 0.0625000, -0.0703125, -0.0234375, 0.0468750, 0.1015625, -0.0234375, 0.0312500, -0.0625000, 0.0156250, -0.0859375, -0.0625000, -0.0156250, -0.0312500, 0.0390625, -0.0546875, -0.0703125, -0.0312500, -0.0468750, 0.0390625, 0.0234375, -0.0078125, 0.0234375, 0.0312500, -0.0546875, -0.0078125, 0.0390625, 0.1093750, 0.1015625, -0.0625000, -0.1093750, 0.0000000, -0.0859375, -0.0312500, -0.0546875, 0.0000000, -0.0468750, 0.0546875, -0.0937500, -0.0312500, -0.0781250, -0.0859375, 0.1718750, 0.0546875, 0.0078125, 0.0546875, -0.0156250, 0.0000000, 0.0625000, -0.1328125, 0.1562500, -0.0390625, 0.0234375, 0.0546875, -0.0156250, 0.0937500, -0.0703125, -0.0234375, -0.0468750, -0.0390625, 0.1093750, 0.1250000, -0.0312500, -0.0468750, -0.0156250, -0.0468750, 0.0468750, 0.0546875, 0.0000000, -0.0312500, -0.0312500, 0.0390625, 0.0390625, 0.0000000, -0.0078125, -0.0234375, 0.0703125, -0.0234375, -0.1015625, 0.0781250, -0.0468750, -0.0234375, -0.0390625, 0.0234375, -0.0312500, -0.0312500, 0.1093750, 0.0078125, 0.0468750, -0.0468750, 0.0937500, -0.0937500, 0.1171875, -0.1015625, -0.1093750, -0.0234375, -0.0234375, 0.0859375, -0.0234375, -0.0312500, -0.1328125, -0.1250000, 0.1015625, -0.0078125, -0.0234375, 0.0078125, 0.0000000, 0.1171875, 0.0390625, -0.0156250, 0.0468750, -0.0078125, 0.0312500, 0.0078125, -0.0703125, 0.0390625, 0.0703125, 0.0312500, -0.0234375, 0.0937500, 0.0546875, 0.0468750, 0.0703125, 0.0312500, 0.0546875, -0.0546875, -0.0078125, 0.0156250, -0.0546875, -0.0937500, 0.0000000, 0.0078125, 0.0234375, 0.0468750, -0.0937500, 0.1718750, 0.0625000, -0.0390625, -0.0546875, -0.0312500, 0.0468750, -0.0859375, 0.0546875, -0.0468750, -0.0390625, 0.0312500, 0.0234375, -0.1015625, 0.0937500, -0.0468750, -0.0156250, -0.0312500, 0.1640625, 0.0703125, -0.1406250, 0.0000000, 0.0156250, 0.0000000, 0.1406250, -0.0390625, 0.1328125, -0.0781250, -0.0390625, -0.0781250, 0.0078125, -0.0078125, 0.0625000, -0.2031250, -0.0390625, -0.0937500, 0.0390625, 0.0078125, -0.1796875, 0.0546875, 0.0781250, -0.0312500, -0.0390625, 0.0781250, 0.0390625, -0.0234375, 0.1015625, 0.0468750, -0.0859375, -0.0468750, 0.0625000, -0.0468750, -0.0703125, -0.0859375, 0.0234375, 0.0625000, 0.0078125, -0.0390625, 0.0546875, 0.0156250, -0.0312500, -0.0234375, -0.0468750, 0.0546875, -0.1171875, -0.0390625, 0.1796875, -0.2109375, -0.0546875, 0.0078125, -0.0078125, -0.0703125, -0.0703125, -0.1562500, -0.0078125, -0.0390625, -0.0546875, 0.0234375, -0.0468750, 0.0390625, 0.0859375, 0.0625000, 0.0546875, 0.0625000, 0.0000000, 0.0390625, 0.0937500, 0.1093750, 0.0312500, -0.0312500, 0.0234375, -0.0625000, -0.0546875, 0.0156250, 0.0156250, 0.0781250, -0.0859375, 0.0468750, -0.1250000, 0.0703125, 0.0859375, 0.0390625, 0.0781250, 0.0156250, -0.0781250, -0.0625000, 0.0000000, -0.0703125, 0.0078125, 0.0000000, 0.0625000, -0.1015625, 0.0468750, 0.0390625, 0.0781250, -0.0312500, -0.0390625, 0.0156250, 0.1015625, 0.0625000, -0.0390625, -0.0546875, 0.0078125, 0.0703125, 0.0312500, -0.0859375, 0.0078125, 0.0781250, -0.1093750, -0.0390625, -0.0156250, 0.1015625, -0.0312500, 0.0625000, 0.1015625, 0.1328125, -0.0390625, -0.0390625, 0.0546875, -0.1171875, -0.0312500, 0.0937500, -0.1250000, 0.0703125, 0.0390625, -0.1328125, 0.0937500, -0.0781250, 0.0234375, -0.0859375, -0.0703125, 0.0312500, -0.0781250, -0.0078125, 0.0468750, -0.0234375, -0.1015625, 0.0078125, 0.0625000, -0.1093750, -0.0390625, -0.0781250, -0.0781250, 0.0859375, -0.0625000, -0.0859375, 0.0078125, -0.0312500, 0.0234375, 0.1093750, 0.0468750, 0.0546875, 0.0234375, -0.0078125, -0.0312500, 0.0234375, 0.0390625, 0.0859375, 0.1171875, 0.1093750, -0.0234375, 0.0781250, 0.0156250, 0.0625000, -0.0859375, -0.0546875, 0.0156250, 0.1093750, -0.0781250, 0.0625000, 0.1250000, -0.0312500, 0.0859375, -0.0781250, -0.0781250, -0.0312500, 0.0312500, -0.0546875, 0.1328125, 0.0312500, 0.0625000, 0.0000000, -0.0156250, 0.0546875, 0.0234375, 0.0000000, -0.0078125, 0.1015625, 0.0312500, -0.0468750, -0.0546875, 0.0390625, 0.0234375, -0.0078125, -0.0546875, 0.0390625, 0.1093750, 0.0234375, 0.0312500, 0.0156250, -0.0546875, 0.0078125, 0.1250000, 0.0937500, 0.0234375, -0.0156250, -0.0078125, -0.0859375, 0.1250000, -0.1093750, 0.1015625, 0.1328125, 0.0390625, 0.0546875, 0.0078125, 0.0078125, -0.0078125, -0.0468750, 0.0781250, 0.0000000, -0.0390625, -0.0937500, -0.0078125, 0.1093750, 0.1015625, 0.1015625, -0.0312500, 0.0000000, -0.1093750, 0.0390625, -0.0234375, 0.0000000, 0.0468750, 0.0234375, 0.1406250, 0.0390625, -0.0625000, 0.0781250, 0.0703125, 0.0390625, 0.1406250, -0.0546875, -0.0390625, -0.1406250, -0.0390625, -0.0078125, -0.0078125, -0.0312500, -0.0546875, 0.0078125, 0.0703125, 0.2031250, 0.0156250, 0.1328125, 0.1250000, -0.0078125, -0.1015625, 0.0625000, 0.1328125, -0.0390625, 0.0781250, 0.0390625, 0.0937500, -0.1562500, -0.0156250, -0.0937500, -0.1015625, 0.0000000, 0.0078125, -0.0937500, -0.0468750, 0.0000000, 0.0703125, 0.0859375, 0.0546875, -0.0312500, -0.0781250, 0.0234375, 0.0546875, 0.0703125, 0.1171875, 0.0000000, 0.0156250, -0.0078125, -0.0156250, 0.0390625, -0.0703125, -0.1171875, 0.0703125, 0.0546875, -0.1015625, 0.0625000, 0.0859375, 0.0546875, -0.0468750, 0.0390625, 0.0234375, 0.0546875, -0.1015625, -0.0078125, -0.0234375, -0.0234375, -0.0156250, -0.0468750, -0.0546875, 0.0468750, -0.0625000, -0.0156250, 0.0234375, -0.0390625, -0.1484375, 0.1171875, -0.0390625, 0.0703125, -0.0546875, -0.1484375, 0.0000000, 0.0625000, 0.1093750, 0.0234375, -0.1328125, -0.0234375, -0.0234375, 0.1015625, -0.0625000, 0.0000000, -0.0703125, -0.1250000, 0.0625000, -0.1718750, 0.1171875, -0.0312500, -0.0312500, -0.0312500, 0.0000000, -0.0078125, 0.0468750, 0.0312500, 0.0390625, -0.0078125, 0.0703125, -0.0078125, 0.0546875, -0.0781250, 0.0625000, 0.0781250, -0.0781250, 0.0859375, 0.0234375, 0.0546875, -0.0781250, -0.1015625, 0.0468750, -0.0078125, -0.1015625, -0.0937500, -0.0781250, -0.0468750, 0.0156250, -0.0703125, -0.0546875, -0.0468750, -0.0546875, 0.0703125, 0.0078125, 0.0000000, -0.0781250, 0.0703125, -0.0703125, 0.0390625, 0.0000000, -0.0625000, -0.0859375, 0.1250000, 0.0625000, 0.0000000, 0.0000000, 0.0312500, -0.0781250, -0.0312500, -0.1562500, 0.0156250, 0.0468750, 0.1015625, 0.0156250, -0.0859375, -0.0312500, -0.0468750, 0.0859375, -0.0234375, 0.0625000, -0.1015625, 0.0156250, 0.1093750, 0.0078125, -0.0312500, -0.1562500, -0.1093750, -0.0546875, 0.0703125, -0.0234375, 0.0781250, 0.0234375, 0.1250000, -0.0703125, -0.1015625, -0.0390625, 0.0781250, -0.0390625, 0.0078125, 0.1406250, 0.0078125, 0.0312500, -0.0078125, -0.0703125, -0.1171875, 0.1328125, -0.0390625, -0.0781250, -0.1406250, -0.0156250, -0.1015625, 0.0312500, 0.0781250, -0.1328125, -0.0546875, 0.0390625, -0.0468750, 0.0859375, 0.0390625, 0.0546875, 0.0625000, -0.0625000, 0.0546875, 0.0390625, 0.0937500, 0.0312500, -0.1015625, -0.0312500, 0.0390625, -0.0703125, -0.0078125, 0.0312500, -0.0390625, -0.1484375, 0.0703125, -0.1328125, 0.0625000, -0.0546875, -0.0390625, 0.1093750, 0.0625000, -0.1562500, 0.0156250, 0.1093750, 0.0625000, 0.0625000, 0.0781250, -0.0156250, 0.0312500, -0.0937500, 0.0625000, 0.0000000, 0.0156250, 0.0546875, -0.1093750, 0.0859375, 0.0000000, 0.1328125, 0.0859375, -0.0546875, -0.0546875, 0.0625000, 0.1562500, 0.1328125, -0.0937500, -0.1640625, 0.1640625, 0.0468750, 0.0312500, 0.0156250, 0.0000000, -0.0937500, -0.1250000, -0.0546875, 0.0000000, -0.0703125, 0.1171875, 0.0625000, 0.0000000, -0.1328125, 0.1406250, 0.0234375, 0.0625000, 0.0703125, 0.0312500, -0.0234375, -0.0703125, 0.0156250, -0.0078125, -0.0234375, -0.0703125, -0.0781250, 0.0000000, -0.0546875, 0.0703125, 0.0859375, 0.0312500, 0.0000000, -0.0703125, -0.0703125, -0.1093750, 0.0312500, 0.1015625, -0.1015625, 0.0078125, -0.0390625, -0.0546875, 0.0625000, -0.1796875, -0.0625000, -0.0078125, 0.0234375, 0.0390625, -0.0859375, -0.0390625, -0.0468750, 0.0156250, -0.0234375, -0.0312500, -0.0078125, -0.0078125, 0.0312500, -0.0312500, -0.1250000, -0.1093750, -0.1171875, -0.0468750, 0.0468750, 0.0078125, 0.0546875, -0.0156250, -0.0781250, 0.0468750, -0.0703125, 0.0078125, 0.0000000, 0.0468750, -0.0078125, -0.0468750, 0.0703125, 0.0781250, 0.0234375, -0.0625000, -0.2109375, -0.0468750, -0.0312500, -0.1093750, 0.1093750, 0.0234375, 0.1406250, -0.0078125, -0.0468750, 0.0390625, 0.0312500, -0.0234375, -0.0156250, -0.0234375, -0.1562500, 0.0234375, 0.0000000, -0.0390625, -0.0312500, 0.0234375, 0.0468750, 0.0156250, 0.0546875, -0.0078125, 0.1093750, 0.0625000, 0.0859375, 0.0546875, -0.1015625, -0.0312500, -0.0156250, -0.0078125, 0.0000000, 0.0468750, 0.0546875, 0.1093750, 0.0390625, -0.0390625, -0.0859375, 0.0625000, -0.0078125, 0.1015625, -0.0390625, -0.0234375, -0.1328125, 0.0937500, 0.0156250, -0.0390625, -0.0937500, 0.0078125, 0.0234375, 0.0156250, -0.0078125, -0.0078125, 0.0000000, -0.0468750, -0.1328125, 0.0078125, 0.0078125, -0.0546875, 0.0078125, 0.1640625, 0.0859375, -0.0078125, -0.0234375, -0.0781250, 0.0000000, 0.1093750, 0.0703125, -0.0078125, 0.0546875, 0.0859375, -0.0859375, -0.0546875, -0.0625000, -0.1171875, 0.0234375, 0.1406250, 0.0390625, -0.0546875, -0.0234375, 0.0937500, 0.0390625, -0.0781250, 0.0859375, 0.0156250, -0.0234375, 0.0546875, 0.0312500, -0.1171875, 0.0390625, 0.0625000, -0.0156250, 0.1640625, -0.0156250, 0.0078125, -0.0625000, 0.1250000, -0.1484375, 0.1250000, -0.0156250, -0.0546875, -0.1093750, 0.0625000, -0.0312500, -0.0468750, -0.0390625, -0.0234375, 0.0156250, 0.0156250, -0.0468750, 0.0312500, -0.0078125, 0.0000000, 0.0546875, 0.0625000, 0.0468750, 0.0468750, -0.0625000, 0.0859375, 0.0312500, -0.0468750, -0.0781250, -0.0859375, -0.0234375, 0.0312500, -0.0859375, -0.1171875, -0.0234375, 0.0937500, -0.0703125, 0.1406250, -0.1250000, 0.0156250, 0.0390625, 0.0390625, 0.0000000, 0.0859375, 0.0390625, 0.0859375, -0.0234375, -0.0859375, -0.0937500, 0.0078125, 0.0312500, 0.0546875, -0.0625000, -0.1796875, -0.0703125, 0.0156250, 0.1953125, -0.0468750, 0.0781250, 0.0546875, -0.1250000, 0.0781250, -0.0156250, 0.0625000, -0.1484375, 0.0703125, -0.0859375, -0.0625000, 0.0859375, 0.0156250, 0.0078125, -0.1875000, 0.0625000, 0.0000000, -0.0468750, 0.0468750, -0.1562500, -0.0390625, 0.1171875, -0.1562500, -0.0390625, -0.0078125, 0.0546875, 0.0468750, -0.0312500, -0.0312500, 0.0546875, -0.0390625, 0.1171875, 0.0468750, -0.0703125, -0.0390625, 0.0937500, -0.1093750, 0.0078125, 0.0468750, 0.0390625, 0.0312500, 0.0156250, -0.0859375, 0.1171875, 0.2265625, -0.0781250, -0.0234375, 0.0468750, -0.0468750, 0.0312500, 0.0625000, -0.0625000, -0.0546875, -0.0625000, -0.0468750, -0.1015625, -0.0546875, -0.0156250, -0.0234375, -0.0234375, 0.0156250, -0.1093750, 0.1093750, 0.0625000, -0.0859375, 0.0000000, -0.0078125, 0.0781250, -0.0625000, 0.0781250, -0.0234375, -0.0703125, 0.0781250, -0.1015625, 0.0234375, 0.1015625, 0.0000000, -0.1796875, 0.0781250, -0.0078125, 0.0703125, 0.0859375, -0.0781250, 0.0000000, -0.0234375, 0.0078125, 0.0468750, 0.0312500, 0.0234375, 0.0468750, 0.0078125, 0.0390625, -0.0234375, 0.0234375, 0.0078125, -0.0703125, -0.0937500, -0.0390625, 0.0078125, -0.1015625, 0.0000000, 0.0703125, 0.0703125, 0.0390625, -0.0703125, 0.1328125, 0.0000000, 0.0468750, 0.1093750, 0.0468750, -0.0234375, -0.0546875, 0.0312500, 0.0859375, -0.0625000, 0.1015625, 0.0937500, 0.0078125, 0.0312500, 0.0156250, -0.0390625, -0.0781250, 0.0859375, -0.0156250, -0.0468750, -0.0078125, -0.0859375, -0.0312500, -0.0312500, 0.1796875, 0.0937500, -0.1406250, -0.0546875, -0.2031250, 0.0859375, 0.0234375, 0.0390625, -0.0234375, 0.0859375, -0.0703125, -0.0468750, -0.1328125, 0.0859375, -0.0390625, -0.0234375, -0.0546875, -0.0312500, 0.0625000, -0.0312500, 0.0859375, 0.1328125, 0.0468750, 0.0546875, 0.0781250, 0.0156250, -0.0156250, -0.1718750, 0.0937500, -0.0156250, -0.0781250, 0.1015625, -0.0468750, 0.0468750, -0.0078125, -0.0156250, 0.0859375, 0.0625000, -0.0234375, 0.1093750, -0.1015625, -0.0625000, -0.0468750, 0.0468750, 0.0859375, -0.0781250, -0.0625000, -0.0312500, 0.1796875, 0.0703125, -0.0312500, 0.0234375, -0.0625000, 0.0703125, 0.1562500, -0.0546875, 0.0625000, -0.1328125, 0.0000000, 0.0078125, 0.2031250, -0.1640625, -0.0390625, 0.0937500, 0.0234375, -0.0546875, -0.0156250, -0.0781250, 0.0156250, 0.1093750, -0.1640625, 0.0000000, 0.0156250, -0.0156250, -0.0781250, -0.0937500, -0.0625000, -0.0078125, -0.0234375, 0.0000000, 0.0234375, 0.0000000, -0.0234375, -0.0625000, -0.0234375, -0.0703125, -0.1250000, 0.0156250, -0.0390625, -0.0703125, 0.0234375, -0.0156250, -0.0312500, -0.0625000, -0.0546875, -0.0312500, -0.0546875, -0.0625000, 0.0703125, -0.0859375, -0.0859375, -0.0625000, 0.0078125, -0.0625000, 0.0625000, -0.0546875, 0.0234375, 0.0703125, -0.0390625, 0.1250000, -0.0312500, -0.0937500, -0.1015625, -0.0937500, -0.0546875, 0.0468750, -0.0703125, -0.0156250, 0.0546875, 0.0156250, 0.0234375, 0.1328125, 0.1406250, -0.0312500, 0.0703125, -0.0703125, 0.0390625, -0.0546875, -0.0156250, 0.1015625, 0.0312500, -0.0312500, 0.0937500, 0.0781250, -0.0156250, -0.0625000, 0.0468750, 0.0390625, -0.0781250, 0.1015625, -0.0390625, 0.0703125, -0.0546875, -0.1015625, -0.0781250, -0.0546875, -0.1640625, 0.1015625, -0.1093750, -0.1718750, 0.0156250, 0.0781250, 0.0781250, 0.1250000, 0.0703125, 0.0312500, 0.0156250, 0.0859375, 0.0234375, -0.0781250, -0.1171875, 0.0234375, 0.0546875, 0.0546875, -0.0156250, -0.0234375, 0.0546875, 0.0546875, -0.1640625, 0.0546875, 0.0156250, 0.1093750, -0.0390625, -0.0703125, 0.0312500, -0.1171875, -0.0468750, -0.0234375, 0.1015625, -0.1171875, 0.0468750, 0.0312500, 0.0156250, 0.1562500, 0.0781250, -0.1093750, 0.0078125, 0.0625000, 0.1093750, -0.0781250, 0.0781250, 0.0937500, 0.0234375, 0.0156250, -0.0468750, 0.0078125, 0.1796875, 0.0859375, 0.0625000, -0.0312500, -0.1171875, -0.0859375, -0.0625000, 0.1562500, -0.0625000, -0.0156250, -0.0156250, -0.1093750, 0.0078125, 0.0937500, -0.0781250, 0.0703125, 0.1171875, -0.0859375, -0.0078125, 0.0625000, 0.0390625, -0.0156250, 0.0468750, -0.0781250, -0.0078125, 0.0078125, 0.0859375, 0.0156250, -0.0156250, -0.0312500, 0.0468750, -0.0312500, -0.0234375, -0.0078125, -0.0625000, -0.0703125, 0.0546875, 0.1171875, 0.0468750, 0.0078125, -0.0156250, 0.0625000, 0.0703125, 0.0546875, 0.0468750, -0.0312500, 0.0625000, -0.0468750, -0.0390625, 0.1171875, -0.1250000, 0.0156250, -0.0468750, 0.0078125, 0.1015625, -0.0703125, 0.0078125, 0.0234375, 0.0156250, -0.0234375, 0.0156250, 0.0546875, 0.0546875, 0.0468750, 0.0078125, -0.0390625, 0.0468750, 0.0312500, 0.0937500, 0.0312500, -0.0625000, -0.0312500, -0.0390625, 0.0156250, -0.0468750, 0.0156250, -0.0546875, 0.0625000, -0.0390625, -0.0390625, 0.0625000, 0.0703125, 0.0625000, -0.0546875, -0.0234375, -0.0156250, -0.1093750, 0.0312500, -0.1171875, 0.1328125, 0.1406250, -0.1484375, 0.1484375, -0.0546875, 0.1015625, 0.0546875, -0.0859375, -0.0390625, -0.0859375, 0.1093750, 0.0234375, -0.0625000, -0.0156250, 0.1328125, 0.0000000, 0.0156250, 0.0000000, 0.0234375, -0.0781250, -0.0703125, 0.0156250, -0.1406250, -0.0859375, 0.0000000, 0.0000000, -0.0390625, -0.0546875, 0.0000000, 0.0625000, -0.0468750, 0.0703125, 0.0546875, -0.0234375, -0.0781250, 0.1328125, -0.1328125, 0.0078125, 0.1015625, 0.0390625, -0.1093750, 0.0000000, 0.0781250, 0.0937500, 0.1093750, 0.0859375, 0.0156250, -0.0781250, 0.0390625, -0.0390625, -0.1484375, 0.0390625, 0.0781250, -0.1953125, -0.0546875, 0.0781250, -0.0312500, 0.0312500, 0.0078125, -0.1562500, -0.0546875, -0.1015625, -0.1250000, -0.0234375, -0.0156250, -0.0156250, -0.0156250, 0.0781250, -0.1250000, -0.0781250, -0.0468750, 0.0390625, 0.0703125, -0.0156250, -0.0937500, -0.0468750, 0.0390625, -0.0312500, 0.0937500, -0.0468750, -0.0234375, 0.0312500, 0.0312500, -0.1562500, -0.0078125, 0.0937500, 0.0625000, 0.0234375, -0.1484375, 0.2031250, -0.0703125, -0.0390625, -0.0390625, -0.0234375, 0.0000000, 0.0390625, 0.1250000, -0.0390625, -0.0546875, -0.0156250, 0.0156250, -0.0312500, 0.1250000, 0.0312500, -0.0859375, 0.0312500, 0.0000000, -0.0234375, -0.0859375, 0.0234375, 0.1640625, -0.0546875, 0.0781250, -0.0546875, 0.0625000, 0.0468750, 0.1406250, 0.0390625, -0.0703125, -0.1171875, 0.0781250, -0.0625000, 0.0234375, -0.0468750, -0.0781250, 0.0312500, -0.0703125, 0.0000000, 0.0781250, -0.0156250, -0.0390625, 0.0781250, -0.0234375, 0.0078125, 0.0546875, -0.0078125, 0.0078125, -0.0546875, -0.0390625, 0.0312500, -0.0781250, 0.0078125, 0.0390625, -0.1171875, 0.0546875, -0.1171875, 0.0781250, -0.0703125, -0.1015625, -0.0078125, -0.0156250, 0.0312500, -0.0781250, -0.0234375, -0.0156250, -0.0781250, -0.0546875, 0.0000000, -0.0781250, -0.0078125, 0.0468750, 0.1328125, 0.0078125, -0.0078125, 0.0156250, -0.0312500, 0.1171875, -0.0625000, 0.0390625, 0.0078125, -0.0078125, -0.0390625, -0.1250000, -0.1250000, -0.1406250, 0.1796875, -0.0312500, 0.0859375, -0.0781250, 0.1093750, 0.0468750, 0.1328125, 0.0156250, 0.0859375, -0.0156250, 0.0312500, 0.1093750, 0.0390625, 0.0156250, 0.1171875, 0.0156250, -0.1406250, 0.0625000, -0.0781250, -0.0703125, 0.0234375, 0.1093750, 0.0703125, -0.0312500, -0.1562500, -0.0625000, -0.2031250, 0.1093750, 0.0546875, -0.0156250, 0.0781250, -0.0156250, 0.0312500, -0.0078125, 0.1093750, -0.0390625, 0.0234375, 0.0000000, 0.1250000, 0.0390625, 0.0078125, 0.0546875, 0.0078125, -0.0312500, -0.0156250, 0.0546875, 0.0546875, -0.0703125, 0.0468750, -0.0781250, -0.0234375, -0.0390625, -0.0546875, 0.0312500, 0.0312500, -0.0390625, 0.0390625, -0.0234375, -0.0234375, -0.1328125, -0.0781250, -0.0390625, -0.0468750, 0.0312500, 0.0937500, 0.0703125, -0.1875000, 0.0468750, 0.2109375, 0.0468750, 0.1406250, -0.0703125, 0.0000000, 0.0156250, 0.0703125, 0.0000000, 0.0156250, -0.0468750, 0.0703125, 0.0234375, 0.0312500, 0.1093750, 0.0625000, -0.1093750, 0.0234375, -0.0078125, -0.0703125, 0.1250000, -0.0312500, 0.0156250, -0.0312500, 0.0625000, 0.0000000, -0.0546875, 0.1484375, -0.0390625, -0.0078125, 0.0078125, -0.0234375, -0.0390625, 0.0390625, 0.0625000, -0.0468750, 0.0390625, 0.1484375, 0.1015625, -0.0156250, 0.1015625, -0.0546875, 0.0859375, -0.0781250, -0.0703125, 0.0625000, 0.0000000, 0.1484375, 0.0156250, 0.1406250, 0.0625000, 0.0546875, 0.0546875, 0.0000000, -0.0390625, 0.0312500, 0.0468750, -0.0390625, -0.0468750, 0.0625000, -0.0078125, -0.1562500, 0.0781250, 0.0781250, 0.0390625, -0.0078125, 0.0156250, 0.0781250, 0.0625000, -0.0156250, -0.0156250, -0.0703125, -0.0625000, 0.0156250, 0.0625000, -0.1250000, -0.0234375, -0.0234375, -0.0937500, -0.0859375, -0.0390625, 0.0937500, -0.0390625, 0.1484375, 0.0468750, -0.0625000, 0.0703125, 0.0625000, 0.0000000, 0.0468750, 0.1328125, -0.0703125, -0.0312500, 0.1562500, 0.0937500, -0.0234375, 0.0390625, -0.0937500, 0.0468750, 0.0468750, -0.0703125, -0.0859375, -0.0078125, 0.0156250, -0.1015625, 0.0390625, -0.0156250, -0.0390625, 0.0625000, -0.0390625, -0.0078125, 0.0234375, 0.0312500, 0.0078125, 0.0703125, -0.0234375, -0.1640625, 0.0703125, -0.0078125, 0.0234375, 0.0546875, 0.0859375, -0.0625000, 0.0078125, -0.0703125, 0.0078125, 0.1328125, -0.1796875, -0.0703125, -0.0859375, -0.1250000, -0.0468750, -0.0390625, 0.0468750, -0.0390625, 0.1328125, 0.0000000, -0.0546875, 0.1562500, -0.0390625, -0.0468750, 0.0234375, 0.0703125, 0.0078125, 0.0156250, -0.0390625, -0.0937500, 0.0546875, 0.0781250, -0.0468750, 0.1250000, 0.0312500, 0.0312500, 0.0234375, 0.1015625, -0.0937500, 0.0078125, -0.0390625, 0.0312500, -0.0625000, 0.0390625, 0.0937500, 0.0078125, -0.0156250, 0.0703125, 0.0234375, 0.0234375, -0.0234375, 0.0390625, -0.0312500, -0.0937500, -0.0078125, -0.0468750, 0.0078125, -0.1640625, -0.0468750, -0.0468750, 0.2187500, -0.1171875, -0.0937500, 0.0859375, 0.1562500, -0.0546875, 0.1328125, -0.0468750, -0.1171875, 0.0937500, 0.0390625, -0.0078125, 0.1250000, 0.1015625, 0.0781250, 0.0078125, -0.1406250, -0.1093750, 0.0156250, -0.0390625, -0.0234375, 0.0156250, 0.0000000, -0.1328125, -0.0546875, -0.0703125, -0.0078125, -0.0156250, 0.0312500, 0.0000000, 0.0390625, -0.1406250, -0.0078125, 0.0078125, 0.1718750, -0.1796875, -0.0312500, -0.0078125, 0.0000000, 0.0156250, -0.0859375, -0.0078125, 0.0156250, 0.0468750, 0.0546875, -0.1093750, -0.1875000, 0.0546875, -0.0703125, 0.0078125, -0.0625000, 0.0546875, -0.0703125, 0.1015625, 0.0625000, 0.0156250, -0.0156250, 0.0937500, -0.0078125, -0.0546875, -0.0078125, 0.0625000, 0.0078125, 0.0000000, 0.0625000, -0.0156250, 0.0781250, 0.0312500, 0.1640625, 0.0000000, -0.0156250, -0.0781250, -0.0156250, -0.0781250, 0.0703125, -0.0078125, 0.1484375, -0.0625000, -0.0312500, 0.0859375, 0.0312500, 0.1015625, 0.0312500, -0.0468750, 0.0078125, -0.0078125, 0.0234375, -0.0390625, -0.0312500, 0.0312500, 0.0156250, 0.0390625, -0.0625000, 0.1015625, 0.1250000, 0.0468750, -0.0234375, 0.1406250, -0.1640625, 0.0078125, 0.0234375, 0.1093750, 0.1718750, -0.0390625, -0.0156250, -0.0546875, 0.0156250, 0.0390625, 0.0078125, -0.0312500, -0.0859375, 0.1250000, 0.0703125, -0.0703125, -0.0546875, 0.0156250, 0.0234375, 0.0468750, 0.0156250, 0.0156250, 0.0234375, 0.1015625, -0.0156250, 0.0390625, 0.1562500, 0.0625000, -0.0546875, -0.2421875, 0.0937500, -0.0468750, 0.1328125, -0.0468750, 0.0234375, -0.0156250, -0.0234375, 0.0703125, 0.0000000, -0.0234375, -0.1328125, 0.0312500, 0.0156250, -0.1015625, -0.0468750, 0.0468750, 0.0156250, 0.1953125, 0.0078125, 0.2109375, 0.0000000, 0.1093750, 0.0000000, -0.0937500, 0.0703125, 0.2109375, 0.0390625, 0.1093750, 0.0000000, 0.0390625, -0.1328125, -0.0312500, 0.0234375, 0.0390625, 0.0859375, -0.0156250, 0.0546875, 0.0312500, -0.0156250, -0.1328125, 0.0234375, 0.1484375, 0.0703125, -0.0625000, 0.0312500, 0.0390625, -0.0859375, 0.0000000, -0.1171875, -0.0859375, 0.0546875, 0.0390625, -0.0781250, 0.0703125, 0.0156250, -0.1093750, 0.0234375, -0.0859375, 0.0546875, 0.0390625, 0.0000000, 0.0468750, 0.0078125, -0.0390625, 0.1484375, -0.1171875, 0.0390625, -0.0312500, 0.0625000, 0.0390625, -0.1093750, 0.0703125, 0.0781250, 0.0078125, 0.1718750, -0.0234375, -0.1093750, 0.0859375, -0.0390625, 0.0000000, -0.0156250, -0.0156250, 0.1796875, 0.0312500, -0.0937500, -0.0937500, -0.0312500, -0.0468750, 0.0859375, -0.1015625, 0.0546875, -0.0546875, -0.1250000, 0.0781250, -0.0312500, 0.0156250, 0.0781250, 0.0390625, 0.1171875, 0.0703125, -0.0703125, 0.1015625, 0.0000000, 0.0234375, -0.0234375, 0.1171875, 0.0781250, -0.0546875, -0.0156250, -0.0234375, -0.0312500, 0.0000000, 0.0468750, 0.0078125, -0.0625000, -0.0468750, -0.1015625, -0.0468750, -0.1015625, -0.1171875, -0.0781250, -0.0156250, 0.0000000, -0.0625000, -0.0234375, 0.0703125, -0.1093750, 0.0781250, 0.0000000, 0.0156250, -0.0781250, 0.0000000, -0.0390625, 0.0937500, 0.1562500, -0.0234375, 0.1015625, -0.0156250, -0.1250000, -0.1250000, 0.0937500, 0.1171875, 0.0781250, 0.0312500, 0.0000000, 0.0703125, -0.0625000, 0.0312500, -0.0234375, -0.0156250, 0.0625000, -0.0546875, -0.0390625, 0.0703125, 0.0234375, -0.0156250, 0.0859375, -0.0156250, 0.0312500, 0.0703125, 0.0390625, 0.0546875, 0.1406250, -0.0703125, 0.0781250, 0.1093750, 0.0078125, 0.0000000, 0.0234375, 0.0781250, 0.1250000, 0.0390625, 0.0156250, -0.0234375, 0.0390625, 0.0156250, 0.1015625, 0.0781250, 0.1015625, 0.0078125, -0.0468750, 0.1484375, -0.0078125, -0.0312500, -0.1640625, 0.0156250, -0.0234375, -0.0468750, 0.0859375, 0.0859375, 0.0625000, 0.1250000, 0.0859375, 0.1015625, 0.1093750, 0.0625000, -0.0390625, 0.0156250, -0.0625000, -0.1015625, -0.0312500, -0.0312500, -0.0546875, -0.0078125, 0.0937500, 0.0625000, 0.0312500, 0.0312500, -0.1484375, -0.0078125, -0.0468750, 0.1093750, -0.1406250, -0.0078125, 0.1406250, 0.0781250, 0.0546875, 0.0312500, -0.0390625, 0.0000000, -0.0703125, -0.0390625, 0.0546875, 0.1953125, -0.0546875, 0.0703125, -0.0234375, 0.0156250, 0.0703125, 0.1484375, 0.0703125, 0.0937500, -0.0468750, 0.0937500, 0.0781250, 0.0859375, -0.0937500, 0.0156250, 0.0156250, -0.0937500, 0.1171875, -0.0546875, -0.0625000, -0.1562500, 0.0546875, -0.0703125, 0.1093750, -0.0625000, -0.0546875, 0.0390625, -0.0468750, 0.1328125, 0.0000000, -0.0078125, 0.2500000, 0.0078125, -0.0859375, -0.0312500, 0.0234375, -0.0390625, -0.0703125, -0.0937500, 0.0078125, 0.1015625, 0.1015625, 0.0781250, -0.0078125, 0.0000000, -0.0703125, -0.0703125, -0.0234375, -0.0078125, -0.1796875, -0.0546875, -0.0078125, -0.0703125, 0.0937500, 0.0546875, -0.0468750, -0.0156250, -0.0312500, 0.0546875, 0.0546875, 0.1015625, 0.0468750, 0.0078125, 0.1093750, -0.0312500, -0.0781250, -0.0625000, 0.0468750, 0.1406250, -0.0937500, -0.1250000, 0.0312500, 0.0390625, 0.0468750, -0.0156250, 0.0156250, 0.0078125, 0.0781250, 0.0000000, -0.0546875, 0.0937500, 0.0781250, -0.0078125, 0.0390625, -0.0937500, -0.1171875, -0.1484375, 0.0234375, 0.0078125, 0.1250000, 0.0234375, 0.0234375, -0.0312500, -0.0312500, 0.0078125, 0.0781250, -0.0468750, 0.0000000, 0.0390625, -0.0312500, -0.0234375, -0.0312500, -0.0937500, 0.1015625, 0.0078125, -0.0078125, -0.1562500, -0.0390625, -0.0234375, -0.0390625, -0.0468750, 0.0859375, -0.0390625, 0.0468750, -0.0390625, 0.0156250, 0.0390625, -0.0078125, -0.0546875, 0.0000000, 0.0000000, -0.0859375, -0.0859375, 0.2031250, 0.0156250, -0.0234375, 0.0156250, -0.0156250, -0.0390625, -0.0078125, -0.0078125, 0.0859375, -0.0625000, 0.0234375, 0.1953125, 0.0859375, -0.1953125, 0.0156250, -0.0312500, 0.0703125, -0.1250000, 0.0703125, 0.0156250, 0.0468750, -0.0156250, 0.0312500, 0.0312500, 0.0234375, 0.0468750, 0.0390625, 0.0000000, 0.0312500, 0.0312500, 0.0703125, 0.0000000, 0.0312500, 0.1250000, -0.0703125, 0.1093750, -0.0312500, -0.1484375, -0.1718750, -0.1093750, 0.0468750, -0.1250000, -0.0390625, -0.0156250, 0.0546875, -0.0234375, 0.0078125, -0.0156250, -0.0859375, -0.0156250, 0.0156250, -0.0703125, 0.0390625, 0.0312500, -0.0078125, -0.0156250, -0.0625000, -0.0234375, 0.0546875, -0.1718750, 0.1562500, -0.0312500, 0.0156250, -0.0234375, -0.0468750, -0.0546875, -0.1640625, -0.2031250, 0.0312500, -0.0078125, 0.1015625, 0.0312500, -0.0390625, 0.0000000, -0.0859375, 0.0078125, 0.0312500, -0.0468750, 0.0312500, -0.0078125, 0.0078125, 0.0390625, -0.0078125, -0.1406250, 0.0078125, 0.0859375, -0.0390625, 0.0390625, -0.0546875, 0.0156250, -0.0390625, 0.0312500, -0.0781250, 0.0546875, 0.0312500, -0.0625000, 0.1796875, -0.0078125, -0.0546875, 0.0703125, -0.0390625, -0.0156250, -0.1328125, -0.0468750, 0.0078125, -0.0078125, 0.0468750, 0.0390625, 0.0312500, -0.0234375, -0.0859375, -0.0390625, -0.0078125, -0.0390625, 0.0000000, 0.0234375, -0.0468750, -0.0234375, -0.1171875, -0.0703125, -0.0937500, -0.0937500, -0.1015625, 0.0156250, 0.0156250, 0.0703125, 0.0937500, -0.0703125, -0.1875000, 0.0625000, 0.0000000, -0.0156250, 0.0156250, -0.0390625, 0.0625000, 0.0390625, 0.0625000, 0.0000000, -0.0781250, 0.0390625, 0.0078125, 0.0937500, -0.1250000, 0.0468750, -0.0781250, -0.0312500, 0.0234375, -0.0078125, 0.0312500, 0.0156250, 0.0234375, -0.0390625, 0.0156250, 0.0390625, 0.0078125, 0.0078125, 0.0703125, 0.0390625, 0.0625000, 0.0312500, 0.0234375, -0.0390625, 0.0156250, -0.0234375, 0.0781250, -0.1250000, 0.0156250, 0.0703125, 0.0546875, -0.0390625, -0.0078125, 0.0625000, 0.0078125, -0.0312500, 0.0703125, -0.0468750, 0.0468750, 0.0390625, 0.0781250, 0.1171875, -0.0234375, -0.1953125, -0.0781250, 0.0625000, -0.0234375, 0.0312500, -0.0078125, -0.1250000, 0.1406250, 0.1093750, -0.0078125, 0.0078125, -0.0390625, 0.2265625, 0.0546875, -0.0390625, -0.0859375, -0.0546875, -0.0468750, 0.0703125, -0.0156250, 0.0312500, -0.0312500, 0.0781250, -0.0390625, -0.0312500, 0.0390625, -0.0703125, 0.0625000, -0.0468750, -0.0078125, -0.0234375, 0.0859375, -0.0781250, -0.0156250, 0.0625000, 0.0625000, 0.0156250, 0.0000000, -0.0312500, -0.0781250, 0.1640625, -0.1015625, 0.1484375, -0.1171875, -0.0859375, 0.0703125, 0.0859375, 0.0156250, 0.0312500, 0.0546875, -0.1250000, -0.0781250, 0.0234375, 0.0859375, 0.0546875, 0.1093750, -0.0859375, 0.0078125, -0.1171875, -0.0312500, -0.0468750, -0.0546875, -0.0156250, 0.1640625, 0.0390625, 0.0390625, 0.0156250, 0.0156250, 0.0625000, -0.1015625, -0.0078125, 0.0234375, 0.0000000, -0.1953125, 0.1093750, -0.0937500, -0.0703125, 0.1093750, -0.0625000, -0.0468750, -0.0859375, -0.0312500, -0.0390625, 0.0156250, 0.0546875, -0.0546875, 0.0390625, 0.1093750, -0.0468750, -0.0234375, -0.0078125, -0.0625000, 0.0390625, -0.0078125, 0.0703125, 0.0000000, 0.0703125, 0.0000000, 0.0078125, -0.0312500, 0.0234375, 0.0078125, -0.0625000, 0.0468750, 0.0156250, -0.0078125, -0.0546875, 0.1562500, 0.0000000, -0.1640625, 0.1015625, -0.1093750, -0.0156250, 0.0390625, 0.0625000, 0.0078125, 0.0859375, 0.0625000, 0.0468750, -0.0781250, 0.1328125, 0.0078125, 0.0546875, 0.0859375, -0.1328125, 0.0859375, -0.0781250, -0.0078125, -0.0078125, 0.0000000, 0.0156250, -0.0234375, -0.0468750, -0.0625000, 0.0312500, 0.1718750, -0.0390625, -0.1406250, -0.0703125, 0.0312500, 0.0390625, 0.1093750, 0.0546875, 0.1250000, -0.0937500, 0.0234375, 0.0625000, 0.0156250, 0.0078125, -0.0234375, 0.0781250, -0.1250000, 0.0000000, 0.0468750, -0.0625000, -0.0781250, -0.0625000, -0.0937500, 0.0781250, -0.0468750, 0.0546875, -0.0156250, 0.0625000, 0.0546875, -0.0156250, 0.0000000, -0.0468750, -0.0859375, -0.0312500, -0.0781250, 0.0546875, 0.0156250, -0.0468750, 0.0078125, -0.0468750, -0.0937500, 0.0859375, -0.0625000, 0.2109375, 0.1328125, 0.0156250, 0.0078125, 0.0625000, -0.0859375, -0.0937500, -0.1250000, 0.0781250, -0.0078125, -0.0390625, -0.0937500, -0.1015625, -0.1015625, 0.0390625, 0.0078125, 0.0781250, -0.1093750, 0.0625000, -0.0546875, -0.0156250, 0.1171875, -0.1015625, -0.0234375, -0.0937500, 0.0937500, 0.0000000, -0.0078125, -0.1640625, -0.0078125, -0.0078125, 0.0390625, 0.0468750, 0.0312500, 0.1015625, -0.0234375, -0.0859375, 0.0234375, -0.0234375, -0.1093750, 0.0625000, 0.0546875, -0.0156250, -0.0156250, 0.0546875, 0.0703125, 0.1250000, 0.0312500, -0.1093750, 0.0000000, 0.1015625, -0.0078125, -0.0078125, 0.0312500, -0.0312500, 0.0390625, -0.1250000, 0.0234375, 0.0312500, 0.0078125, 0.0312500, -0.0390625, 0.0546875, -0.0078125, 0.0078125, 0.1015625, -0.0468750, -0.0703125, 0.0781250, -0.0390625, -0.1250000, 0.0546875, 0.0156250, 0.1015625, 0.0546875, -0.0625000, -0.0468750, 0.0312500, 0.0468750, -0.0312500, 0.1328125, -0.0468750, 0.1250000, -0.0390625, 0.0546875, 0.0390625, 0.1406250, 0.0859375, 0.0000000, 0.0078125, 0.1328125, 0.0625000, -0.0312500, 0.0000000, -0.1250000, 0.0937500, -0.0468750, 0.0625000, 0.0625000, 0.1015625, -0.1484375, 0.0312500, -0.0312500, 0.1093750, -0.1484375, 0.1171875, 0.0390625, 0.0312500, 0.0781250, -0.0859375, -0.0546875, 0.0234375, 0.0390625, -0.0078125, -0.0703125, 0.0156250, 0.0937500, -0.1328125, -0.0859375, 0.0546875, -0.1171875, 0.1250000, -0.0546875, 0.0781250, -0.1171875, 0.0312500, -0.0546875, 0.0625000, 0.1562500, -0.0390625, -0.0546875, -0.0859375, -0.0625000, 0.0234375, -0.0078125, 0.0000000, 0.0156250, -0.0078125, -0.0781250, 0.0156250, 0.1171875, -0.0234375, -0.0078125, 0.0078125, 0.1640625, 0.0156250, 0.1328125, -0.0312500, 0.0078125, -0.0546875, -0.0781250, -0.0937500, 0.0156250, 0.0234375, 0.0312500, 0.0312500, 0.0078125, 0.0937500, 0.0390625, 0.0468750, -0.0312500, -0.0078125, 0.0234375, -0.0078125, 0.0000000, 0.0312500, -0.1015625, -0.0781250, 0.0000000, 0.0156250, -0.0234375, -0.1328125, -0.0156250, 0.0859375, -0.1015625, 0.0546875, -0.0625000, 0.0937500, -0.0625000, 0.0546875, -0.0625000, -0.0546875, -0.0234375, 0.1171875, -0.0859375, 0.0234375, 0.0000000, 0.1015625, 0.1093750, 0.0078125, 0.0625000, 0.0156250, -0.0781250, 0.1406250, 0.0234375, -0.0703125, -0.0234375, 0.0937500, 0.1093750, -0.0703125, 0.0625000, 0.0625000, -0.0312500, 0.1015625, -0.0546875, 0.0078125, -0.2343750, -0.1875000, 0.0781250, 0.1484375, -0.0390625, -0.0312500, 0.0234375, -0.1250000, 0.0156250, -0.0312500, -0.0312500, 0.1640625, 0.0312500, 0.0390625, 0.0000000, -0.0234375, 0.0468750, 0.0078125, 0.0078125, -0.0546875, -0.0859375, 0.1406250, 0.0468750, 0.0468750, 0.0546875, -0.0781250, 0.0312500, -0.0390625, -0.0312500, 0.1093750, -0.1015625, -0.0546875, -0.0625000, 0.1015625, 0.0546875, -0.0078125, 0.0156250, 0.1250000, -0.0937500, 0.0781250, -0.0546875, -0.0078125, 0.0156250, 0.0000000, -0.1015625, 0.0390625, -0.0234375, -0.0312500, 0.1406250, 0.0468750, -0.0234375, -0.0468750, 0.1015625, 0.0703125, -0.0234375, -0.0156250, 0.0156250, 0.0625000, -0.0390625, 0.0312500, 0.1406250, 0.0468750, 0.0078125, -0.0937500, 0.0703125, -0.0234375, -0.0390625, -0.0078125, -0.1406250, -0.0468750, 0.0937500, 0.0390625, -0.0078125, -0.0156250, 0.0781250, 0.0468750, 0.1015625, -0.0703125, 0.0625000, 0.0000000, -0.0312500, 0.0234375, -0.1015625, -0.0390625, 0.0546875, -0.0078125, 0.1015625, 0.0156250, -0.0312500, 0.1015625, 0.0312500, 0.0156250, 0.0312500, -0.0468750, 0.0937500, 0.0312500, 0.0859375, 0.0234375, -0.1250000, 0.1328125, 0.0234375, 0.0468750, 0.0390625, 0.0546875, 0.0312500, 0.0859375, 0.0312500, 0.0156250, 0.0546875, -0.0468750, -0.1015625, 0.0390625, 0.0000000, -0.0468750, -0.1093750, -0.1171875, 0.0156250, -0.0312500, -0.1015625, 0.0625000, -0.1406250, -0.0625000, 0.0000000, -0.0546875, -0.0078125, -0.0156250, 0.0312500, -0.0937500, 0.0312500, 0.0156250, 0.0156250, -0.0625000, 0.0078125, -0.0312500, 0.0546875, 0.0390625, 0.1640625, 0.0000000, -0.0781250, 0.0781250, -0.0781250, -0.0468750, -0.0546875, -0.0312500, -0.0234375, 0.0703125, 0.0000000, -0.0078125, -0.1015625, -0.0468750, 0.0312500, -0.0390625, 0.0703125, -0.0546875, 0.0703125, -0.0546875, 0.0156250, -0.0234375, -0.1093750, -0.0078125, 0.0156250, 0.0000000, 0.0468750, -0.0781250, 0.0000000, 0.0000000, 0.0390625, -0.0625000, 0.0703125, 0.1171875, -0.0546875, -0.0859375, 0.0000000, -0.0703125, -0.0078125, 0.0703125, -0.1093750, -0.0312500, -0.0156250, -0.0078125, -0.0312500, -0.0156250, 0.0625000, -0.0546875, -0.0156250, 0.1093750, 0.1171875, 0.0156250, 0.0781250, 0.0000000, 0.0234375, -0.0859375, -0.0546875, 0.0546875, -0.0781250, 0.0000000, -0.0078125, 0.1328125, 0.0390625, 0.0625000, -0.0234375, 0.0156250, 0.0468750, 0.0781250, -0.0625000, 0.0312500, -0.0546875, 0.0546875, 0.0234375, 0.0156250, 0.1015625, 0.0078125, -0.0390625, -0.0234375, 0.0234375, 0.0625000, 0.0937500, 0.0312500, 0.0859375, 0.0468750, 0.0937500, 0.0078125, 0.0312500, 0.0078125, -0.1406250, -0.0234375, 0.0468750, 0.0312500, -0.0078125, -0.0390625, -0.1406250, -0.0312500, -0.0312500, -0.0937500, 0.0234375, -0.0468750, 0.0000000, -0.0468750, -0.1718750, -0.0156250, -0.1484375, -0.0312500, -0.0625000, 0.0234375, -0.1015625, -0.0468750, -0.0312500, -0.0937500, -0.0546875, 0.0000000, -0.0312500, 0.0156250, 0.0156250, 0.0859375, 0.0078125, -0.0234375, 0.1250000, 0.0234375, -0.0546875, 0.0234375, 0.0468750, 0.0625000, -0.1171875, 0.0703125, -0.0390625, 0.0546875, -0.0937500, -0.0703125, -0.0234375, 0.0078125, 0.0859375, -0.1171875, 0.0156250, -0.0312500, 0.1093750, 0.0937500, -0.0156250, -0.0546875, -0.1328125, 0.1875000, -0.0859375, -0.0390625, -0.0078125, 0.0234375, 0.1562500, -0.0625000, -0.0078125, 0.0000000, -0.1484375, 0.0156250, 0.0234375, 0.1093750, 0.0078125, 0.1718750, 0.0859375, 0.1562500, -0.0468750, 0.0546875, 0.0468750, -0.0234375, -0.1171875, 0.0000000, 0.0078125, -0.0234375, 0.1250000, 0.0234375, 0.0234375, -0.0703125, 0.1093750, -0.0390625, -0.0859375, -0.0156250, -0.0859375, 0.0937500, 0.0546875, 0.0546875, 0.0390625, 0.0781250, 0.0625000, 0.0781250, 0.1015625, 0.0859375, -0.1093750, -0.0390625, 0.0625000, 0.0937500, -0.0859375, 0.0234375, 0.0156250, 0.1015625, -0.1171875, 0.0078125, 0.0468750, -0.0625000, -0.0156250, 0.0156250, -0.0312500, 0.1015625, 0.0156250, 0.0625000, 0.0781250, 0.0234375, 0.0156250, -0.0312500, 0.0078125, -0.1015625, 0.0703125, 0.0703125, 0.0234375, 0.0937500, 0.0312500, -0.0703125, 0.0234375, 0.1015625, 0.1328125, -0.1562500, -0.0156250, 0.0390625, 0.0078125, -0.0078125, 0.0546875, 0.0312500, 0.0078125, 0.0078125, 0.0234375, -0.1015625, 0.0312500, -0.1875000, -0.0156250, 0.0703125, 0.1250000, 0.1093750, 0.0859375, -0.0625000, -0.0546875, 0.0000000, 0.0859375, -0.1328125, -0.0781250, -0.1171875, 0.0390625, 0.0546875, 0.1250000, 0.0390625, -0.0390625, 0.0000000, -0.0781250, 0.0468750, -0.0078125, -0.0156250, -0.0078125, 0.0234375, -0.0234375, -0.0156250, -0.0703125, 0.0078125, -0.1093750, -0.1250000, -0.1406250, 0.1250000, 0.0703125, 0.0937500, -0.0390625, 0.0078125, 0.0468750, 0.0234375, -0.0156250, -0.0078125, -0.1015625, 0.0781250, 0.0546875, -0.0078125, 0.0234375, 0.0312500, -0.1171875, 0.0390625, 0.1015625, -0.0156250, -0.0078125, -0.0703125, -0.0312500, -0.0390625, -0.0703125, -0.0390625, -0.1015625, -0.0781250, -0.2109375, 0.0234375, 0.0000000, -0.0703125, -0.0390625, -0.0781250, 0.1640625, -0.0781250, -0.1015625, -0.0234375, -0.0390625, -0.1328125, 0.0703125, 0.0859375, -0.0312500, 0.0781250, -0.0390625, -0.0468750, 0.0312500, -0.1250000, -0.0781250, -0.0156250, 0.0703125, -0.0234375, 0.0234375, 0.0703125, -0.0312500, -0.0468750, -0.0156250, 0.0937500, -0.0156250, -0.0390625, 0.0625000, 0.0156250, -0.0156250, 0.0156250, 0.1250000, 0.0234375, 0.0234375, 0.0312500, 0.0625000, 0.0078125, -0.0078125, -0.0625000, 0.0468750, 0.1093750, -0.1093750, -0.0468750, 0.0781250, -0.0703125, -0.0156250, 0.0078125, 0.0468750, 0.0234375, -0.1796875, -0.1640625, 0.0703125, 0.0546875, 0.0156250, -0.0468750, -0.1171875, 0.0156250, 0.0390625, -0.0468750, 0.0468750, -0.0390625, 0.0937500, 0.0234375, -0.1093750, -0.0156250, -0.0390625, 0.0468750, 0.1093750, 0.0234375, -0.0312500, -0.1093750, 0.1171875, 0.1796875, 0.0937500, -0.0546875, 0.0234375, 0.0078125, 0.0156250, -0.0156250, -0.0312500, -0.0312500, -0.0312500, -0.0156250, 0.1015625, -0.0937500, 0.0156250, -0.0703125, 0.1328125, 0.1406250, -0.0859375, 0.0000000, -0.0156250, -0.0234375, -0.1171875, 0.0390625, 0.0390625, -0.0078125, -0.0390625, 0.0156250, -0.0859375, -0.0234375, -0.1171875, -0.0468750, -0.0156250, -0.0312500, -0.0312500, -0.0468750, -0.0312500, 0.0156250, 0.1093750, 0.0312500, 0.0312500, 0.0625000, 0.0468750, -0.0156250, 0.1171875, 0.0546875, 0.1250000, 0.1484375, 0.0468750, 0.0546875, -0.0234375, 0.1015625, -0.0156250, -0.1640625, -0.0078125, 0.0078125, -0.1250000, 0.0312500, -0.1093750, 0.0234375, 0.0546875, 0.1015625, -0.0781250, 0.0937500, 0.0156250, 0.0859375, -0.1015625, 0.0468750, 0.0312500, -0.1171875, 0.0000000, 0.0312500, 0.0234375, 0.0625000, 0.0312500, -0.0937500, -0.0234375, -0.0625000, 0.0390625, -0.0156250, -0.0390625, -0.0156250, 0.0937500, -0.0703125, -0.0390625, 0.0625000, -0.0390625, -0.0625000, -0.0312500, 0.0781250, -0.0156250, 0.0781250, 0.0390625, -0.1953125, 0.0078125, 0.0234375, 0.0859375, 0.0078125, -0.0703125, -0.0390625, -0.1093750, 0.1171875, -0.1328125, 0.0156250, -0.0234375, -0.0625000, -0.1093750, -0.0390625, 0.0078125, 0.0234375, -0.1406250, 0.0312500, 0.0546875, 0.0312500, -0.0234375, 0.0703125, 0.0234375, 0.0312500, 0.0781250, 0.0234375, -0.0468750, 0.0000000, 0.0625000, 0.0234375, 0.1093750, -0.0703125, -0.1171875, 0.0937500, 0.0390625, 0.0078125, -0.0781250, -0.0703125, -0.0937500, 0.0468750, -0.1406250, -0.0546875, -0.0546875, 0.0078125, 0.0468750, 0.0156250, -0.0468750, -0.0546875, -0.1171875, 0.0312500, 0.1171875, 0.0937500, -0.0625000, 0.0078125, 0.0546875, 0.0937500, -0.0468750, -0.0078125, 0.1875000, 0.0468750, -0.0937500, 0.0781250, -0.0859375, -0.0703125, 0.0390625, 0.1406250, 0.1328125, 0.0156250, -0.0312500, 0.0937500, -0.0546875, 0.1562500, 0.0468750, -0.0390625, 0.1093750, -0.1328125, 0.1171875, -0.0156250, -0.1484375, 0.0859375, -0.0390625, 0.1171875, -0.0546875, -0.0078125, 0.0937500, -0.0937500, -0.0234375, 0.0390625, -0.0234375, 0.0625000, -0.0546875, -0.0546875, 0.0234375, -0.1093750, -0.0234375, -0.0703125, 0.0156250, 0.0234375, -0.1093750, 0.0625000, 0.0937500, -0.0156250, 0.0625000, -0.0234375, -0.0234375, -0.0859375, 0.0937500, -0.0468750, 0.0390625, -0.0234375, -0.0390625, 0.0781250, 0.0156250, -0.0468750, -0.1250000, -0.1171875, -0.0781250, 0.0078125, -0.0937500, -0.0625000, 0.0312500, 0.1171875, -0.0625000, -0.0468750, -0.1171875, -0.1250000, 0.0312500, 0.0937500, 0.0156250, 0.1250000, -0.1015625, -0.0625000, 0.0000000, -0.0078125, 0.0781250, 0.0390625, -0.0703125, 0.0625000, -0.0546875, -0.0703125, 0.0234375, -0.0234375, -0.0234375, 0.0703125, 0.0859375, -0.0312500, -0.0546875, 0.0000000, 0.1250000, 0.0859375, 0.0234375, 0.0078125, 0.1484375, -0.1015625, -0.0156250, 0.0859375, -0.0625000, 0.0468750, -0.0703125, -0.0234375, 0.1171875, -0.1250000, -0.1406250, -0.1250000, -0.0781250, 0.0312500, -0.0937500, -0.1406250, 0.0078125, -0.0703125, -0.0390625, 0.0937500, -0.1250000, -0.1718750, -0.1171875, -0.0312500, 0.0000000, -0.0781250, -0.1093750, 0.0390625, -0.0781250, 0.0078125, -0.0859375, 0.1015625, -0.0546875, 0.0937500, 0.0625000, 0.1328125, -0.0468750, 0.0312500, 0.0078125, 0.0078125, -0.0703125, 0.0312500, 0.0703125, -0.0546875, -0.0546875, -0.1015625, -0.0546875, -0.0078125, -0.0312500, 0.0703125, -0.0390625, -0.0312500, 0.0312500, 0.0156250, -0.0234375, -0.1015625, 0.0156250, 0.0078125, -0.0859375, 0.0156250, 0.0234375, -0.1328125, 0.0078125, -0.0859375, 0.0156250, -0.0781250, -0.0468750, 0.0390625, 0.1250000, -0.0625000, 0.0000000, 0.0078125, -0.0156250, 0.0468750, 0.0625000, 0.0390625, -0.1015625, 0.0000000, 0.0781250, 0.0859375, -0.0703125, 0.0078125, -0.0312500, 0.0312500, -0.0312500, -0.0234375, -0.1093750, -0.0156250, -0.0078125, -0.0703125, -0.1171875, -0.1250000, -0.0156250, 0.0468750, 0.1796875, 0.0468750, -0.0156250, 