//Numpy array shape [64, 192]
//Min -0.153083294630
//Max 0.153048172593
//Number of zeros 0

#ifndef W2_H_
#define W2_H_

#ifndef __SYNTHESIS__
decodergru_weight_t w2[12288];
#else
decodergru_weight_t w2[12288] = {-0.116462349891663, 0.000937804579735, 0.001738145947456, -0.101958796381950, 0.146823212504387, -0.105205595493317, 0.049867108464241, -0.130791470408440, -0.130850374698639, -0.054023027420044, -0.126557067036629, 0.039616778492928, -0.112472027540207, 0.086007535457611, 0.096389189362526, 0.106550827622414, 0.013235360383987, -0.078847788274288, 0.105966851115227, 0.072220042347908, 0.060402750968933, 0.096784770488739, 0.069109335541725, 0.022190913558006, -0.057386487722397, 0.055195197463036, 0.028050437569618, 0.054469347000122, 0.084489345550537, 0.089803919196129, 0.087523341178894, -0.033232890069485, -0.049788050353527, 0.050360217690468, -0.094411127269268, 0.061200544238091, 0.062637597322464, -0.042017951607704, -0.022778421640396, -0.088800676167011, -0.044290781021118, -0.102100230753422, 0.080432489514351, -0.090149357914925, -0.050104245543480, 0.082117408514023, -0.098966360092163, 0.003511577844620, -0.078221626579762, -0.021947845816612, 0.143661633133888, -0.046556681394577, -0.036730453372002, -0.072947271168232, -0.123296909034252, -0.021113529801369, -0.063295289874077, 0.005301848053932, -0.020845428109169, -0.092411309480667, -0.024448841810226, -0.151370674371719, -0.001895681023598, -0.056219100952148, 0.047383040189743, 0.104706212878227, 0.030481979250908, 0.134329065680504, -0.017089188098907, 0.053932100534439, 0.146110430359840, 0.041007652878761, -0.070920594036579, 0.120405897498131, 0.151955440640450, 0.074730306863785, -0.127926349639893, -0.016234874725342, 0.063239768147469, -0.063889808952808, -0.128211304545403, -0.135896503925323, 0.065624952316284, -0.152424901723862, -0.128814205527306, -0.078103184700012, 0.125304743647575, -0.005181461572647, 0.119111165404320, 0.077706977725029, -0.119044594466686, 0.012032672762871, -0.123869888484478, -0.100554481148720, 0.054340392351151, 0.110322609543800, 0.053473949432373, -0.006409257650375, 0.068982943892479, 0.076680332422256, -0.035172365605831, 0.142712846398354, 0.080806463956833, 0.008447214961052, 0.109585955739021, -0.117493480443954, -0.088461406528950, 0.033855944871902, -0.007221579551697, -0.134004503488541, -0.090893894433975, 0.081124424934387, 0.105812564492226, 0.131913259625435, -0.024231493473053, -0.065695621073246, -0.018589466810226, -0.145488843321800, 0.077375143766403, 0.086378157138824, -0.021829411387444, 0.003403350710869, -0.094157189130783, 0.046691700816154, -0.072551243007183, -0.133337825536728, -0.144817233085632, -0.134412690997124, -0.099658951163292, -0.006155833601952, 0.084660053253174, 0.138517066836357, -0.151730373501778, 0.144209370017052, -0.054815150797367, 0.087210834026337, -0.061141736805439, -0.025770127773285, 0.139756754040718, -0.098491191864014, 0.027127996087074, 0.085683375597000, 0.110678032040596, -0.023353591561317, -0.032201573252678, 0.063362777233124, 0.145248487591743, 0.010133713483810, -0.049468666315079, 0.028418034315109, 0.102696910500526, -0.118443980813026, 0.088366106152534, -0.042375467717648, 0.066663682460785, -0.126509368419647, -0.089778147637844, 0.126041904091835, 0.025117173790932, 0.106634214520454, -0.014184758067131, 0.079233005642891, -0.011927694082260, -0.100434653460979, 0.020026624202728, 0.091632649302483, -0.053917244076729, -0.152724131941795, 0.012417346239090, -0.090820342302322, -0.114442497491837, 0.138350144028664, 0.030210882425308, 0.037338942289352, -0.152260586619377, -0.148603945970535, 0.144765302538872, -0.036159187555313, -0.107392325997353, 0.139929369091988, 0.001991927623749, 0.036889657378197, -0.029063902795315, 0.108207806944847, 0.108006253838539, -0.113039426505566, -0.142482742667198, 0.075231239199638, 0.075057312846184, -0.025425523519516, -0.000896662473679, -0.074416071176529, -0.108594313263893, 0.045849636197090, -0.103457495570183, -0.081386633217335, 0.004934653639793, -0.003005579113960, -0.005093902349472, -0.081782042980194, -0.047585144639015, -0.116556808352470, 0.016255751252174, 0.135926976799965, 0.126934632658958, 0.083551570773125, -0.120870843529701, 0.134520962834358, 0.056308448314667, 0.059418380260468, -0.038864068686962, -0.107033602893353, -0.141652405261993, 0.125364646315575, -0.080493181943893, 0.096996828913689, 0.049900427460670, -0.115758880972862, -0.047996103763580, 0.026004776358604, -0.063937768340111, -0.117455117404461, -0.119426682591438, -0.138054862618446, 0.046054139733315, -0.059611685574055, -0.146535694599152, 0.128711834549904, 0.005365028977394, -0.058253586292267, -0.105258598923683, -0.105422407388687, 0.048366621136665, -0.128190904855728, -0.146832808852196, 0.130214616656303, 0.056860983371735, -0.149454444646835, -0.065422780811787, 0.138510212302208, -0.089734785258770, -0.145611956715584, -0.132546111941338, 0.139868333935738, -0.081485621631145, 0.075685814023018, 0.118825659155846, -0.040016859769821, -0.028890050947666, 0.118618533015251, -0.062786951661110, -0.076870098710060, -0.065242722630501, -0.039014339447021, -0.109627783298492, -0.015040948987007, 0.035415023565292, 0.098209485411644, -0.146897450089455, -0.144306987524033, 0.111346825957298, -0.015992179512978, 0.093306735157967, -0.023197919130325, 0.102581188082695, 0.128708735108376, 0.110125496983528, 0.045135244727135, -0.094468727707863, 0.043553039431572, 0.075120493769646, -0.007183834910393, 0.095092847943306, 0.021976292133331, 0.132669553160667, 0.128625884652138, 0.142804011702538, -0.060291066765785, 0.149387970566750, -0.097056448459625, 0.058521896600723, 0.001558676362038, -0.118587240576744, -0.056201905012131, -0.082960419356823, 0.011795088648796, -0.095645129680634, 0.079006895422935, -0.086768373847008, -0.066349960863590, -0.051754787564278, -0.073484040796757, -0.034076333045959, 0.118494942784309, 0.022438883781433, -0.112980112433434, -0.110486239194870, 0.091227576136589, 0.088935837149620, 0.097626253962517, -0.020898178219795, -0.122077286243439, -0.038395769894123, -0.072523646056652, -0.124011069536209, -0.009854987263680, -0.001964226365089, 0.090437710285187, 0.128703877329826, 0.042689412832260, 0.150035634636879, -0.115150675177574, -0.002583563327789, -0.132154092192650, -0.062966167926788, 0.051255390048027, -0.117089457809925, -0.149646356701851, 0.093974590301514, 0.126050606369972, 0.055838033556938, 0.072758704423904, -0.018113762140274, 0.111008211970329, 0.010968104004860, -0.048620000481606, -0.075406178832054, -0.024332478642464, -0.000230759382248, -0.114896304905415, -0.049328289926052, -0.122827515006065, -0.032881133258343, 0.092946767807007, -0.038126766681671, 0.115279987454414, 0.131482467055321, -0.060964897274971, 0.076057896018028, 0.061714753508568, 0.129114434123039, -0.143306776881218, -0.083997823297977, 0.123527154326439, 0.033818066120148, -0.108040206134319, -0.007491528987885, 0.104256615042686, -0.125316143035889, -0.012347012758255, 0.079211980104446, -0.007523864507675, -0.077956527471542, 0.117348387837410, 0.027615100145340, 0.117999002337456, -0.115971788764000, -0.062448553740978, -0.115023329854012, -0.060976974666119, -0.091055989265442, 0.067008092999458, 0.001058503985405, 0.086353480815887, 0.005169197916985, -0.088840641081333, -0.066842496395111, 0.102125540375710, 0.069404587149620, -0.012622147798538, -0.025554403662682, -0.099249020218849, -0.078874327242374, 0.078438326716423, -0.072793856263161, -0.001431360840797, 0.033893316984177, 0.128280624747276, 0.084174007177353, 0.100709512829781, 0.064177319407463, -0.072843790054321, -0.087549887597561, 0.097836777567863, 0.016982614994049, 0.062620401382446, 0.027270793914795, -0.021435782313347, -0.146558433771133, 0.093105658888817, -0.002532973885536, -0.115927577018738, 0.123455181717873, -0.008222624659538, -0.130545780062675, 0.117488399147987, -0.013058438897133, 0.120668277144432, 0.034396812319756, 0.062811300158501, -0.004812195897102, 0.145094767212868, 0.106404051184654, -0.096595555543900, 0.022535100579262, 0.127088442444801, 0.083048671483994, -0.004103362560272, -0.119671121239662, 0.098246619105339, -0.053219579160213, 0.032829880714417, 0.014496728777885, 0.061825856566429, -0.140877872705460, -0.070222817361355, 0.047665849328041, 0.084210142493248, -0.101958751678467, -0.150949671864510, -0.144542500376701, -0.121835619211197, -0.035147324204445, -0.044924318790436, -0.071886166930199, -0.071530185639858, 0.029065653681755, -0.026083186268806, 0.092811971902847, 0.146474525332451, -0.130558371543884, 0.021320700645447, 0.060415208339691, 0.036081761121750, 0.107111647725105, -0.060054071247578, -0.022244855761528, 0.128744944930077, 0.036509811878204, 0.011615693569183, -0.086342200636864, 0.128755077719688, 0.018288731575012, -0.028684079647064, 0.039172574877739, 0.105430081486702, 0.132751539349556, 0.011325582861900, -0.006363272666931, 0.142937675118446, 0.148959681391716, -0.045733600854874, 0.151193305850029, -0.120495006442070, -0.105805225670338, 0.025544181466103, 0.143802627921104, -0.152495458722115, 0.042385682463646, 0.004515409469604, -0.088621899485588, -0.006822004914284, 0.141892686486244, -0.117314666509628, -0.057013489305973, -0.152104362845421, -0.028444491326809, -0.148741155862808, 0.082230374217033, 0.014451801776886, 0.069511175155640, 0.023592337965965, -0.047587886452675, 0.104238525032997, 0.097159460186958, 0.003772482275963, 0.004896804690361, -0.136782035231590, -0.060117252171040, -0.086497433483601, 0.124910250306129, -0.060673475265503, -0.116616927087307, -0.069826096296310, 0.088142320513725, 0.121861472725868, 0.013024747371674, -0.050393112003803, 0.138779327273369, -0.110130727291107, -0.141819715499878, 0.015892833471298, 0.104235872626305, 0.009063884615898, -0.016952171921730, 0.042910739779472, -0.014224544167519, -0.042285896837711, 0.027446359395981, 0.090395584702492, -0.138298943638802, -0.140407279133797, -0.135125905275345, 0.010494768619537, -0.005907386541367, -0.027205169200897, 0.093509346246719, -0.000042274594307, 0.055787265300751, -0.119350612163544, 0.080320462584496, -0.081681743264198, 0.116733536124229, 0.014041900634766, 0.024367198348045, -0.046235002577305, -0.056685537099838, 0.149005547165871, -0.096302203834057, 0.023669824004173, -0.123240225017071, -0.044311881065369, 0.004600524902344, -0.055587202310562, 0.015827968716621, 0.078653648495674, 0.116438224911690, -0.065397560596466, -0.009961977601051, -0.036676138639450, -0.122256398200989, -0.112067937850952, -0.037871487438679, 0.065739125013351, 0.077511072158813, 0.052068501710892, 0.021462172269821, -0.098906166851521, -0.004420474171638, -0.022776156663895, 0.146426573395729, 0.118699625134468, -0.045112036168575, -0.137228980660439, -0.150791153311729, -0.095562309026718, 0.051106467843056, 0.027100518345833, 0.026970505714417, 0.059821859002113, 0.025858342647552, 0.033979684114456, -0.094745218753815, 0.101850226521492, -0.132441818714142, -0.143161877989769, -0.149541050195694, -0.144974470138550, 0.043046817183495, 0.014674261212349, -0.038339711725712, 0.043753355741501, 0.130399003624916, 0.060433194041252, 0.006571322679520, 0.035573139786720, -0.071729473769665, 0.131890967488289, 0.149061366915703, 0.097236350178719, 0.044092625379562, -0.037574917078018, -0.132811978459358, -0.136548981070518, -0.046240478754044, -0.135440021753311, 0.038630321621895, -0.097731553018093, 0.121011331677437, 0.091059923171997, 0.045241430401802, 0.074090823531151, -0.093405440449715, -0.017222464084625, 0.019459962844849, -0.066025614738464, 0.132445767521858, 0.047691583633423, -0.059573650360107, 0.009709715843201, 0.151300087571144, 0.044791936874390, 0.050919920206070, 0.137955412268639, 0.129833921790123, 0.108343914151192, -0.139266416430473, -0.127115339040756, 0.030223920941353, 0.121921136975288, 0.115470960736275, -0.024953201413155, 0.114837005734444, 0.039043620228767, -0.147058233618736, 0.004729449748993, -0.058982528746128, -0.142915502190590, -0.122770905494690, -0.004642546176910, -0.077408291399479, -0.127926483750343, 0.140325799584389, 0.102371439337730, -0.125856310129166, 0.066787227988243, 0.087487876415253, 0.099355921149254, 0.119451239705086, 0.075149580836296, -0.040162056684494, -0.131280869245529, -0.053071975708008, 0.129659041762352, 0.114510789513588, -0.111835762858391, -0.037230469286442, 0.013751655817032, 0.095452189445496, -0.074284963309765, -0.133786603808403, -0.099877953529358, -0.003571033477783, 0.093404382467270, 0.027586266398430, 0.124567702412605, -0.062647558748722, 0.079456433653831, 0.056581392884254, -0.027536585927010, -0.147806376218796, 0.009721443057060, 0.121693745255470, 0.139961943030357, -0.151466220617294, -0.105744749307632, 0.150099948048592, -0.109921209514141, -0.091900452971458, -0.037497974932194, -0.131605938076973, 0.113111391663551, 0.137046650052071, -0.139182001352310, -0.100109070539474, 0.070859059691429, -0.072313152253628, -0.110753640532494, -0.016460657119751, -0.121885441243649, 0.062140062451363, 0.068022876977921, -0.058785207569599, 0.105145260691643, 0.135824039578438, -0.044569790363312, 0.120669141411781, -0.038282766938210, 0.064864620566368, -0.107382655143738, -0.048102207481861, -0.067615568637848, -0.031848579645157, -0.043637059628963, -0.033772468566895, 0.151120230555534, -0.024355515837669, 0.031286105513573, -0.077453516423702, 0.010716214776039, -0.050378255546093, 0.135949388146400, -0.010110273957253, 0.138129755854607, 0.005541577935219, 0.073931127786636, 0.096465170383453, 0.081020057201385, 0.082125291228294, 0.011501073837280, -0.136022210121155, -0.091702073812485, -0.135407581925392, 0.047146484255791, 0.075202137231827, 0.132184728980064, 0.138778254389763, -0.043436892330647, -0.000286266207695, 0.101810798048973, 0.066631406545639, 0.104399964213371, -0.076480381190777, -0.026657849550247, -0.029492124915123, 0.146296754479408, -0.131848409771919, -0.131069153547287, -0.051410771906376, 0.005557775497437, 0.047466740012169, 0.024012416601181, 0.096347495913506, -0.045083090662956, 0.128718808293343, -0.013282075524330, -0.022415280342102, 0.041922464966774, 0.070171505212784, 0.111170992255211, 0.139484778046608, 0.115569487214088, -0.060805678367615, -0.072069726884365, 0.106720551848412, -0.028399087488651, -0.076355956494808, 0.062135681509972, 0.059183716773987, 0.032316774129868, 0.118519529700279, 0.129676029086113, 0.111537232995033, 0.069162592291832, -0.132476717233658, 0.033054292201996, -0.144722372293472, -0.113557584583759, -0.085654497146606, -0.137983769178391, 0.051459938287735, -0.123687639832497, 0.011557102203369, 0.090048983693123, -0.086719281971455, 0.046705350279808, -0.074677087366581, -0.098335340619087, -0.058029070496559, 0.091661706566811, -0.057567894458771, -0.063655726611614, 0.001760914921761, -0.064579516649246, 0.070840880274773, 0.055929869413376, -0.010603398084641, 0.088944122195244, 0.119997844099998, -0.031362757086754, 0.101885303854942, 0.018366739153862, -0.056690752506256, -0.001320138573647, -0.146490767598152, -0.007915630936623, 0.117714241147041, -0.096947565674782, 0.055516168475151, -0.042207710444927, 0.127007439732552, -0.124545693397522, -0.133116245269775, 0.030601844191551, -0.138280287384987, 0.146483466029167, -0.151762321591377, -0.103135704994202, -0.023977637290955, -0.084347501397133, 0.091199651360512, -0.082962863147259, -0.113113418221474, -0.073889777064323, -0.068472191691399, 0.021089002490044, 0.057582706212997, -0.129956156015396, -0.091408804059029, -0.091952145099640, -0.034582555294037, -0.100915506482124, -0.046807073056698, 0.068562418222427, 0.108671978116035, 0.044522747397423, -0.097026661038399, -0.028488658368587, -0.037199988961220, -0.149438410997391, 0.006354540586472, -0.073394834995270, -0.071718305349350, 0.010923206806183, -0.087876856327057, -0.120170220732689, -0.121579647064209, -0.012180745601654, 0.110342398285866, -0.150915578007698, -0.123306833207607, -0.137681394815445, -0.084946319460869, -0.100415453314781, 0.010350704193115, 0.085674434900284, 0.103337213397026, 0.131102517247200, 0.033609598875046, -0.004875376820564, -0.077605210244656, -0.033239059150219, 0.065418943762779, -0.125247374176979, -0.090869836509228, -0.017157450318336, -0.096384622156620, 0.058409109711647, -0.015497997403145, 0.145459905266762, 0.001309990882874, 0.058410570025444, 0.058761700987816, -0.034824952483177, 0.141184583306313, 0.120292350649834, -0.089667774736881, 0.115928962826729, -0.093611188232899, 0.007873862981796, 0.114257261157036, 0.057024255394936, 0.127237722277641, 0.134188786149025, 0.086471989750862, -0.012912288308144, -0.042269982397556, -0.071890987455845, -0.008600875735283, -0.023195758461952, 0.033436492085457, 0.092085883021355, -0.111318290233612, -0.043794050812721, -0.040920712053776, -0.101258680224419, -0.056430034339428, 0.131392940878868, 0.112810179591179, -0.117017000913620, 0.099897995591164, 0.048417642712593, -0.014695182442665, 0.055247247219086, -0.082880444824696, -0.058350346982479, -0.011851847171783, -0.086469039320946, 0.012926012277603, 0.131819829344749, 0.066871076822281, 0.053494900465012, -0.056951180100441, 0.032807081937790, 0.119421705603600, 0.120309129357338, 0.019287645816803, -0.117680400609970, 0.030622676014900, -0.006811559200287, 0.147741958498955, -0.089579515159130, 0.093132019042969, -0.090140014886856, -0.087554194033146, 0.000627845525742, -0.072169445455074, -0.100258067250252, 0.149009570479393, 0.051062896847725, 0.127148464322090, -0.007540106773376, 0.022309601306915, 0.049945980310440, -0.017274111509323, -0.058772653341293, -0.029803432524204, -0.090660512447357, 0.046685487031937, -0.021372422575951, 0.142934903502464, 0.002213954925537, 0.039929732680321, -0.104278564453125, -0.003906071186066, -0.067645132541656, 0.037470310926437, -0.056212604045868, -0.089330077171326, 0.013045996427536, -0.093847528100014, 0.059175655245781, 0.047264382243156, -0.109919384121895, -0.141891479492188, -0.006898581981659, 0.102920487523079, -0.109034761786461, 0.123045727610588, -0.016007915139198, -0.096741855144501, -0.094810329377651, -0.103344887495041, 0.064717307686806, -0.052358433604240, 0.071319609880447, -0.126188024878502, -0.044676586985588, -0.093963488936424, 0.130236700177193, -0.113448232412338, -0.137070208787918, 0.080623894929886, -0.134788930416107, -0.098398670554161, 0.108018979430199, -0.063726432621479, -0.084101632237434, 0.055705353617668, -0.133143901824951, -0.061369061470032, -0.140165746212006, -0.012515902519226, -0.069395504891872, -0.059441231191158, -0.049995183944702, -0.146760538220406, 0.135162219405174, -0.033670924603939, -0.000093370676041, 0.076508671045303, -0.041147708892822, -0.135686188936234, 0.023348480463028, -0.102371826767921, -0.150903388857841, -0.118513256311417, 0.150488361716270, -0.020206823945045, -0.077818118035793, -0.150530904531479, 0.106426849961281, -0.050089284777641, 0.041312903165817, -0.087040811777115, 0.032644510269165, -0.146689146757126, 0.133018091320992, 0.059015631675720, -0.043207965791225, -0.099316179752350, -0.001652911305428, 0.137690678238869, 0.077111035585403, -0.149157986044884, 0.078863039612770, -0.142970100045204, -0.152004674077034, -0.146483972668648, 0.102479055523872, 0.005768030881882, 0.071142360568047, -0.059732139110565, -0.125421732664108, 0.050478309392929, 0.047764033079147, 0.088660508394241, -0.116011053323746, 0.065589219331741, -0.124673403799534, -0.075139544904232, 0.148727640509605, 0.112342461943626, 0.001923561096191, -0.096418969333172, -0.143462702631950, -0.137637019157410, 0.143556848168373, 0.035347998142242, -0.115819171071053, -0.114750705659389, 0.108988419175148, 0.123495295643806, -0.071209050714970, -0.014477267861366, 0.108377024531364, -0.104917943477631, -0.113598167896271, -0.084061264991760, -0.102002486586571, -0.090875789523125, 0.139307275414467, -0.028969332575798, -0.073026731610298, -0.049387313425541, -0.041307218372822, 0.086065053939819, 0.072330191731453, -0.016595169901848, 0.049292817711830, -0.106419086456299, -0.020429521799088, 0.009578034281731, 0.115345939993858, 0.120989218354225, -0.025207802653313, 0.014435410499573, 0.079818546772003, -0.011041685938835, 0.129970565438271, -0.146017536520958, 0.079489320516586, 0.006920665502548, -0.066761828958988, -0.035385049879551, 0.044313117861748, -0.133789017796516, 0.149655774235725, 0.027993053197861, -0.056791491806507, 0.096849963068962, 0.123097255825996, -0.051615104079247, 0.053229004144669, 0.066176548600197, 0.067628562450409, 0.039602801203728, -0.052504099905491, -0.100933760404587, -0.116395145654678, -0.039151288568974, 0.131231442093849, -0.014664918184280, 0.011869728565216, -0.118230856955051, -0.069709986448288, 0.116357639431953, -0.049409866333008, -0.012111797928810, -0.061029613018036, -0.147065460681915, 0.129230484366417, 0.145580932497978, -0.085409328341484, -0.042464271187782, 0.011195287108421, -0.112884551286697, 0.020375683903694, -0.113102607429028, 0.019682347774506, 0.098192378878593, 0.048807799816132, 0.064470708370209, 0.122774615883827, 0.052229329943657, 0.003546878695488, -0.138066038489342, 0.148574516177177, 0.061856523156166, -0.043120622634888, 0.055743724107742, -0.095978558063507, -0.019156709313393, 0.130124464631081, 0.012112975120544, 0.017888039350510, 0.039436534047127, 0.125813975930214, -0.151073709130287, -0.088607370853424, 0.033067762851715, 0.062571525573730, 0.132510855793953, 0.062213927507401, -0.048621356487274, 0.149099364876747, -0.101337775588036, -0.110291108489037, -0.037137575447559, -0.061616897583008, -0.094967320561409, 0.138251408934593, -0.002669885754585, 0.147476270794868, 0.132895156741142, -0.138686761260033, 0.093578889966011, 0.086437508463860, 0.144037052989006, -0.080412223935127, -0.045623183250427, 0.030924677848816, 0.097571596503258, -0.126642078161240, 0.060060486197472, 0.022588253021240, 0.025256305932999, -0.127189293503761, 0.008744329214096, -0.084663338959217, -0.113287009298801, -0.056530483067036, -0.095639541745186, -0.127816587686539, -0.070532485842705, -0.006272345781326, -0.036451220512390, -0.152382522821426, 0.072861492633820, 0.136983856558800, -0.035617336630821, -0.047976396977901, 0.148929283022881, -0.042592458426952, -0.093686893582344, -0.021118134260178, 0.029537126421928, -0.127588927745819, -0.106269761919975, -0.016153991222382, -0.143851175904274, 0.066559180617332, -0.152803778648376, 0.034055307507515, -0.059179998934269, 0.085238024592400, -0.081871137022972, -0.116220787167549, 0.037218496203423, -0.112349241971970, 0.121537700295448, 0.071111783385277, 0.121667012572289, 0.115133360028267, -0.074156776070595, -0.076329566538334, 0.055448025465012, 0.027684703469276, 0.068738684058189, 0.079400077462196, -0.081556253135204, -0.052798368036747, 0.022791191935539, -0.006340458989143, 0.066438362002373, 0.141464725136757, -0.104905754327774, 0.045006811618805, -0.014942318201065, -0.040499500930309, -0.074119329452515, -0.030358709394932, -0.090792313218117, -0.113200284540653, 0.079981163144112, -0.096970930695534, 0.025764897465706, -0.100573495030403, -0.111178427934647, 0.093191504478455, 0.131891980767250, -0.045316368341446, 0.059115797281265, 0.047609716653824, 0.007559418678284, 0.032857298851013, -0.002431795001030, -0.107800588011742, -0.029710613191128, 0.117972567677498, 0.078202858567238, 0.049475416541100, 0.042680785059929, 0.050468564033508, 0.059723198413849, 0.005701631307602, -0.115654811263084, 0.026272431015968, -0.082625016570091, -0.124831415712833, -0.063755810260773, -0.133601069450378, 0.021718442440033, -0.043167009949684, -0.076206043362617, -0.004369586706161, 0.039197281002998, -0.118524312973022, -0.104115992784500, 0.151324316859245, 0.038674563169479, 0.140812233090401, -0.067087188363075, -0.053486652672291, 0.151647821068764, 0.035130172967911, -0.069531612098217, -0.053405769169331, -0.015642762184143, -0.128824979066849, -0.091136395931244, -0.132527276873589, -0.005473136901855, -0.096105873584747, 0.070752218365669, 0.031612828373909, -0.123371951282024, -0.138604268431664, 0.006220519542694, 0.137276098132133, -0.033187076449394, 0.044132158160210, 0.015802711248398, 0.095448687672615, -0.051577143371105, -0.114346720278263, -0.048626899719238, -0.100550286471844, -0.141909986734390, -0.004007399082184, -0.077467352151871, -0.138690516352654, -0.057573914527893, -0.076558418571949, -0.089374311268330, 0.092527896165848, 0.004544019699097, 0.037322878837585, 0.056712836027145, 0.087183967232704, -0.072039104998112, 0.004998639225960, 0.127829566597939, -0.108101129531860, -0.055529206991196, -0.119775801897049, -0.118497237563133, 0.103816106915474, -0.094609029591084, 0.133978053927422, 0.040975466370583, -0.013244330883026, -0.062716506421566, -0.061791226267815, -0.068024702370167, -0.089152134954929, -0.101803302764893, 0.138509944081306, -0.134127810597420, -0.051150567829609, 0.052066504955292, 0.132328405976295, 0.033250555396080, -0.014087527990341, -0.061523824930191, -0.099531017243862, 0.030679181218147, -0.010590583086014, 0.064544916152954, 0.057557016611099, -0.103815525770187, 0.139807805418968, 0.052589654922485, -0.129828035831451, -0.078437820076942, -0.058280520141125, -0.020501017570496, 0.145776435732841, 0.144158050417900, 0.058589279651642, 0.040751978754997, 0.022566124796867, -0.126904115080833, 0.090757161378860, 0.059884458780289, -0.046980194747448, -0.003745511174202, 0.049987673759460, -0.066407375037670, -0.033454075455666, -0.114554770290852, 0.066779315471649, 0.118734791874886, 0.135700538754463, -0.018409371376038, -0.005125880241394, 0.140052512288094, -0.017014801502228, 0.020162448287010, 0.152187719941139, -0.013223350048065, 0.098501935601234, -0.103827491402626, 0.099902734160423, 0.086683183908463, 0.151705697178841, 0.016488105058670, 0.060235992074013, 0.089758664369583, -0.149975374341011, 0.082898035645485, -0.024359747767448, -0.088214628398418, -0.041704699397087, -0.054130151867867, -0.108957931399345, -0.030562311410904, 0.081128180027008, -0.089852906763554, -0.048263542354107, 0.080101460218430, 0.083990380167961, -0.119176357984543, 0.026487424969673, -0.011083766818047, 0.065704703330994, -0.117809608578682, 0.083887264132500, 0.126321688294411, 0.133829608559608, -0.050988689064980, -0.067661046981812, 0.097423925995827, -0.120166644454002, 0.134448036551476, -0.031286254525185, 0.003690898418427, -0.107515335083008, -0.056494750082493, -0.106694951653481, -0.087357454001904, 0.110061809420586, 0.143705621361732, 0.004520073533058, 0.039154469966888, -0.034595809876919, -0.106260821223259, 0.094446927309036, -0.144530743360519, -0.072173319756985, -0.010807827115059, -0.103058978915215, 0.117774739861488, -0.040085151791573, -0.074149839580059, 0.099018082022667, 0.044569969177246, -0.049024790525436, -0.015925452113152, -0.102531664073467, 0.037686616182327, 0.056110799312592, 0.039298787713051, -0.025235250592232, -0.088743224740028, 0.047464847564697, 0.021410897374153, 0.076610937714577, 0.129256382584572, -0.146448761224747, -0.132305428385735, -0.029555380344391, -0.086990006268024, -0.092740178108215, 0.045394986867905, 0.024214148521423, 0.008270844817162, -0.003445446491241, 0.044785693287849, 0.149101421236992, 0.067838251590729, -0.004903182387352, -0.146328926086426, -0.136265873908997, -0.021420642733574, 0.057329654693604, -0.052488811314106, -0.060504555702209, -0.098734110593796, -0.140195176005363, 0.023305594921112, -0.148204192519188, 0.070172563195229, -0.087357454001904, 0.093857601284981, 0.058282524347305, -0.133834451436996, -0.140643134713173, 0.050893962383270, -0.108117662370205, 0.084737613797188, 0.141953751444817, 0.131570532917976, 0.125481203198433, 0.038861885666847, 0.076678618788719, 0.112594529986382, 0.100591853260994, -0.075702086091042, 0.114032670855522, 0.085556641221046, -0.117543891072273, 0.009149551391602, -0.028288342058659, -0.065163299441338, 0.029793024063110, 0.111399337649345, 0.012552902102470, -0.073327273130417, 0.100411102175713, 0.004018753767014, -0.126458406448364, 0.125707790255547, -0.152088731527328, 0.057561501860619, 0.146082833409309, 0.016172558069229, 0.023996323347092, 0.048604264855385, -0.062623031437397, 0.034029066562653, -0.105166614055634, 0.017768025398254, 0.107957676053047, -0.049198858439922, -0.006376817822456, 0.125548556447029, -0.125398412346840, 0.026487752795219, -0.124796554446220, -0.147725090384483, -0.015363901853561, -0.117913156747818, -0.070937380194664, 0.030698969960213, 0.123860880732536, -0.014129251241684, -0.094415947794914, -0.082237713038921, -0.116286054253578, -0.118437595665455, 0.043713524937630, -0.116585567593575, -0.019856348633766, -0.142098724842072, -0.146941184997559, 0.099472507834435, -0.104565277695656, 0.099538996815681, -0.028112344443798, 0.116708263754845, 0.013200536370277, -0.011531263589859, -0.089098848402500, 0.065505847334862, 0.117772802710533, 0.111396685242653, 0.002993926405907, 0.139516547322273, -0.136164411902428, 0.097366109490395, 0.000891193747520, 0.056872710585594, -0.004306912422180, -0.112073555588722, 0.034244790673256, -0.113656029105186, 0.057730287313461, 0.013835668563843, -0.006361916661263, -0.010425016283989, 0.017565339803696, 0.026189953088760, 0.082283481955528, 0.082096204161644, -0.109388746321201, -0.077284850180149, -0.017207235097885, -0.120443359017372, -0.080708608031273, -0.129760473966599, -0.092570453882217, 0.034090161323547, -0.102421030402184, -0.072605334222317, -0.025017738342285, 0.007999211549759, -0.111713513731956, 0.047119691967964, 0.052966818213463, 0.054718747735023, -0.134911179542542, -0.076801583170891, -0.038599662482738, 0.048278987407684, -0.058833502233028, -0.104826912283897, -0.089275799691677, -0.101580142974854, -0.014912575483322, -0.035178899765015, -0.031290709972382, -0.020299613475800, -0.015540122985840, -0.114630982279778, -0.151644632220268, -0.088653944432735, 0.120328441262245, -0.115877836942673, -0.014421135187149, -0.132962286472321, 0.093716636300087, 0.037448957562447, 0.074807688593864, 0.093327939510345, -0.080636084079742, -0.096523135900497, -0.032070934772491, -0.021783232688904, -0.075884148478508, 0.123014673590660, -0.047112286090851, 0.010959818959236, -0.070188909769058, -0.031801640987396, 0.072505906224251, -0.144161254167557, 0.112805321812630, 0.111377403140068, 0.031861796975136, 0.088200762867928, -0.137215763330460, -0.144787773489952, -0.018933847546577, 0.099598869681358, -0.089452750980854, -0.039430588483810, 0.020006045699120, -0.102154657244682, -0.070685237646103, 0.090822830796242, -0.093857966363430, -0.037116073071957, 0.067487165331841, 0.130490854382515, 0.036448299884796, 0.064347371459007, 0.072223424911499, 0.123753443360329, -0.030874498188496, 0.073489844799042, 0.137379899621010, 0.111699506640434, 0.085133135318756, 0.098686352372169, -0.073124878108501, 0.071930959820747, -0.010808303952217, 0.055413424968719, -0.037544950842857, -0.039290755987167, 0.098315879702568, 0.085461780428886, -0.105362772941589, 0.131696239113808, -0.094332359731197, 0.027685686945915, 0.062359094619751, -0.134321764111519, -0.142432451248169, 0.081713452935219, -0.092868000268936, 0.083543837070465, 0.114268496632576, 0.028283238410950, -0.086906678974628, 0.021461591124535, -0.065671928226948, -0.104049123823643, 0.081560418009758, -0.150876790285110, 0.149096652865410, -0.012973606586456, -0.124030813574791, -0.022440746426582, -0.039646275341511, 0.079884573817253, 0.106283590197563, 0.048844143748283, 0.014508739113808, -0.132411092519760, -0.042708240449429, 0.071940407156944, -0.120946332812309, 0.089592978358269, 0.125721648335457, 0.103631600737572, -0.003755882382393, -0.032255485653877, 0.028642833232880, -0.078292474150658, 0.047689720988274, -0.097404658794403, -0.135053560137749, -0.078917391598225, -0.115136072039604, 0.118912532925606, 0.130565926432610, -0.117651671171188, 0.000935897231102, -0.117218926548958, -0.113877072930336, -0.060651250183582, -0.012211114168167, 0.008476018905640, 0.052578851580620, 0.013349667191505, 0.002686560153961, 0.002748534083366, -0.103154540061951, -0.095580518245697, 0.015127301216125, 0.091920420527458, 0.101812198758125, 0.108545079827309, 0.058323696255684, 0.060454547405243, -0.100355267524719, 0.050132721662521, 0.039727851748466, -0.074978433549404, 0.003088533878326, 0.097939893603325, 0.010917291045189, -0.093953192234039, 0.046615883708000, -0.082971401512623, 0.087311312556267, 0.077797889709473, -0.128182247281075, 0.102385416626930, -0.059252738952637, 0.002702802419662, 0.063630074262619, 0.025121182203293, -0.099347382783890, -0.116172790527344, -0.006310418248177, 0.049867510795593, 0.112144246697426, 0.039856433868408, -0.140661790966988, 0.033533424139023, -0.113260984420776, -0.058372609317303, 0.148901835083961, -0.066347077488899, 0.151664897799492, 0.073118776082993, -0.141756653785706, -0.034907847642899, -0.145438715815544, 0.014476105570793, -0.041315682232380, -0.076605431735516, -0.045253582298756, -0.029943630099297, -0.119437158107758, 0.133571609854698, 0.086590468883514, 0.084852918982506, -0.080146938562393, 0.150588855147362, 0.119070217013359, 0.076964929699898, -0.151695698499680, -0.144612208008766, -0.021778523921967, -0.003026053309441, 0.094994068145752, -0.125301569700241, 0.153048172593117, -0.137881010770798, 0.021839842200279, -0.052136361598969, -0.134937047958374, 0.106350854039192, -0.125779658555984, -0.092888623476028, 0.102628752589226, -0.114547401666641, 0.123749479651451, -0.053295716643333, -0.139816403388977, -0.014894947409630, -0.056197308003902, 0.063977509737015, -0.043366082012653, 0.091526702046394, 0.034997195005417, 0.062523275613785, -0.087183162570000, -0.061922989785671, -0.132245749235153, -0.149505138397217, 0.140645518898964, 0.078142747282982, 0.134082958102226, -0.122396260499954, -0.011932507157326, 0.046795129776001, -0.136716261506081, 0.021063238382339, -0.147645786404610, -0.070825397968292, -0.121042326092720, -0.030161425471306, 0.151230946183205, 0.077222108840942, 0.132692292332649, 0.044119417667389, 0.034874454140663, -0.131809309124947, -0.115354642271996, 0.002692401409149, -0.013365373015404, 0.102435335516930, -0.148336842656136, 0.022064760327339, 0.064845010638237, -0.105626925826073, -0.021936833858490, -0.041811279952526, 0.090344786643982, 0.018138542771339, 0.029002219438553, -0.061375230550766, -0.106338307261467, 0.047721624374390, -0.074444510042667, 0.077580466866493, 0.023844763636589, 0.133483931422234, -0.027969911694527, -0.145367830991745, -0.114635944366455, 0.004676625132561, 0.121704265475273, 0.026655867695808, -0.014622256159782, -0.084759332239628, 0.075284630060196, -0.053628310561180, -0.023126110434532, 0.078497931361198, 0.139097765088081, 0.043934643268585, 0.044089406728745, 0.115901634097099, 0.054060980677605, 0.016839355230331, -0.049009315669537, -0.058427654206753, -0.082291916012764, -0.139489397406578, -0.062239229679108, 0.067059084773064, 0.032637894153595, 0.100490465760231, 0.147139802575111, 0.121870562434196, 0.027665615081787, 0.017751350998878, 0.085313692688942, 0.075267329812050, 0.090032309293747, -0.063413590192795, 0.068895742297173, -0.087045922875404, 0.050953865051270, -0.139319851994514, 0.029014661908150, 0.077486693859100, -0.084707461297512, 0.119143918156624, 0.082547605037689, 0.034072607755661, 0.067429557442665, 0.149215176701546, 0.148283526301384, -0.077670402824879, -0.082063205540180, -0.020190224051476, -0.107244059443474, 0.032092064619064, -0.052085369825363, 0.050999745726585, -0.052217431366444, -0.028773471713066, 0.071271866559982, -0.084029980003834, 0.010706469416618, -0.095409631729126, 0.033162191510201, -0.038457714021206, 0.066521435976028, 0.112826243042946, 0.090081796050072, -0.089522905647755, -0.019810870289803, 0.075346678495407, -0.107954397797585, -0.143606334924698, 0.007505953311920, 0.060876414179802, 0.025134682655334, 0.065243631601334, -0.047666981816292, 0.034452617168427, -0.055582061409950, 0.126301720738411, -0.028950676321983, -0.016969397664070, 0.059425532817841, 0.096555292606354, 0.100176975131035, 0.120231583714485, -0.039747156202793, 0.102361604571342, 0.097882881760597, -0.054404743015766, 0.040074601769447, -0.152459397912025, -0.145201146602631, 0.007075309753418, -0.063125051558018, 0.074638038873672, -0.015291884541512, -0.131697773933411, -0.067353278398514, -0.014977142214775, 0.004191502928734, 0.042503327131271, -0.030172415077686, 0.084516122937202, -0.081617683172226, 0.014355912804604, 0.024989381432533, 0.085870400071144, -0.066301234066486, -0.148289799690247, -0.008977085351944, 0.041101098060608, -0.059058487415314, -0.034469805657864, -0.122535072267056, 0.020230472087860, -0.083810545504093, 0.125292256474495, 0.135925725102425, -0.107046380639076, 0.027713283896446, -0.069595120847225, 0.012165963649750, -0.136097505688667, -0.131182134151459, -0.032234057784081, 0.077301412820816, -0.046585001051426, 0.092284470796585, 0.042638778686523, 0.018141493201256, -0.096224755048752, -0.145540446043015, -0.134821459650993, -0.026751354336739, -0.063226193189621, -0.099045932292938, 0.091986671090126, -0.050587914884090, 0.026862323284149, 0.086429804563522, 0.136780962347984, -0.092361636459827, 0.141243115067482, -0.088839583098888, -0.093925088644028, -0.052748873829842, -0.006309762597084, -0.078130342066288, -0.125904813408852, -0.054992802441120, -0.152025923132896, -0.036538966000080, 0.048411369323730, -0.080292649567127, 0.137990251183510, -0.144361630082130, 0.108756765723228, 0.017796859145164, 0.020045161247253, -0.044649578630924, 0.039681062102318, -0.133492305874825, -0.076916672289371, -0.084720127284527, 0.029718384146690, 0.061915948987007, -0.011625662446022, -0.034352168440819, 0.052697300910950, 0.091661453247070, -0.085794657468796, -0.094460040330887, 0.058671176433563, -0.104794129729271, -0.028412446379662, 0.077939480543137, -0.109865657985210, -0.067121796309948, -0.096589386463165, 0.139707073569298, 0.097445234656334, -0.082726083695889, -0.087233498692513, 0.082134306430817, -0.120705321431160, 0.044811129570007, -0.117421463131905, -0.050712890923023, -0.003337398171425, 0.138435855507851, 0.122084006667137, 0.054002225399017, -0.097749330103397, -0.026125818490982, -0.030907601118088, 0.063693687319756, 0.012018501758575, -0.032580807805061, -0.098303109407425, 0.089200168848038, 0.030426129698753, -0.144490778446198, 0.005439445376396, 0.019356772303581, 0.065344274044037, -0.139729857444763, -0.018512412905693, -0.138495832681656, 0.128964588046074, 0.093701347708702, 0.054962620139122, 0.143713757395744, -0.095663309097290, -0.014456585049629, -0.045016914606094, -0.133705675601959, 0.120272859930992, 0.103908553719521, -0.075064063072205, -0.007519006729126, -0.028735764324665, -0.055586040019989, 0.064741060137749, -0.078866474330425, 0.093418464064598, -0.119007982313633, 0.150752976536751, 0.074837833642960, 0.085724651813507, 0.021405279636383, -0.103690035641193, 0.073326066136360, 0.029170185327530, 0.108035579323769, 0.063827320933342, 0.068090394139290, -0.071800433099270, 0.048246562480927, -0.132934510707855, -0.030459746718407, 0.140203788876534, -0.095597863197327, -0.090538412332535, 0.063679382205009, -0.001710042357445, -0.084698997437954, 0.014560416340828, 0.070734739303589, -0.117057591676712, -0.044023670256138, -0.111156307160854, -0.035189807415009, 0.044918581843376, 0.133128181099892, 0.099536135792732, -0.094247609376907, 0.026256516575813, -0.133607208728790, 0.058771297335625, 0.098304852843285, -0.075982734560966, -0.098034761846066, -0.026130557060242, -0.133069664239883, 0.081477299332619, -0.142181009054184, 0.001445919275284, 0.065720513463020, -0.013099357485771, -0.033399656414986, -0.031984180212021, -0.004647105932236, 0.138990476727486, -0.007298514246941, -0.004209503531456, 0.074002131819725, 0.072604939341545, -0.061970770359039, 0.147068604826927, -0.126658499240875, 0.002422556281090, -0.016271188855171, 0.018398419022560, 0.089710518717766, -0.057199642062187, -0.104672804474831, -0.143092989921570, 0.134444043040276, 0.111690059304237, -0.060749143362045, 0.071053966879845, -0.095670275390148, -0.035748153924942, -0.022032678127289, -0.087145604193211, -0.036947332322598, -0.070975266396999, 0.007951110601425, -0.055932424962521, 0.106876000761986, 0.140001103281975, 0.094713643193245, 0.043370351195335, -0.031393714249134, -0.023909300565720, -0.075740560889244, 0.043384000658989, -0.075487285852432, -0.009445831179619, 0.099633321166039, -0.071485430002213, -0.039492823183537, -0.026624292135239, -0.026574626564980, -0.034200981259346, 0.030484706163406, 0.029235422611237, -0.043630018830299, 0.007357463240623, -0.111124806106091, 0.050479874014854, 0.047038048505783, 0.029085367918015, -0.146219089627266, -0.107023745775223, -0.147226393222809, 0.104563519358635, 0.127272382378578, -0.077245101332664, 0.145177409052849, 0.129420146346092, -0.024931743741035, -0.139274954795837, 0.010076299309731, -0.145148292183876, -0.078008025884628, 0.028968095779419, -0.113582111895084, -0.081881247460842, -0.084439076483250, -0.056968741118908, -0.149029254913330, -0.021042287349701, 0.117368534207344, 0.078431069850922, 0.091694518923759, 0.125290408730507, 0.086936607956886, 0.151482865214348, 0.126599624752998, -0.018231540918350, -0.057545915246010, 0.103580936789513, -0.068222492933273, 0.062067821621895, -0.022134438157082, -0.138395234942436, -0.054524682462215, -0.135837182402611, -0.067990206182003, 0.041629180312157, -0.058489888906479, 0.107400581240654, 0.111353740096092, -0.021620839834213, 0.128434672951698, 0.152456298470497, 0.134377554059029, 0.021898940205574, 0.132018044590950, -0.027758941054344, -0.026727885007858, -0.120872125029564, -0.060333915054798, -0.007759958505630, -0.110409587621689, -0.035674609243870, -0.134119749069214, 0.029364228248596, 0.150802686810493, 0.090657442808151, -0.072202809154987, -0.034616246819496, 0.048245370388031, 0.100282296538353, -0.004453510046005, 0.131890192627907, 0.143925592303276, -0.120346844196320, -0.084989793598652, 0.102068796753883, -0.049857765436172, -0.018166869878769, -0.095557376742363, -0.042823798954487, 0.068967506289482, -0.093600526452065, -0.036390118300915, -0.016063019633293, -0.043121755123138, 0.021002635359764, -0.031305052340031, 0.109296724200249, 0.108997657895088, 0.143489614129066, 0.112794414162636, -0.113886117935181, -0.104062594473362, -0.122745826840401, 0.026821255683899, 0.069627746939659, -0.037872359156609, -0.143615499138832, -0.082664877176285, -0.106716305017471, 0.091454029083252, 0.063860356807709, -0.122944317758083, 0.078733548521996, -0.040913268923759, 0.001169398427010, -0.108668997883797, -0.044392146170139, 0.078031539916992, 0.065740838646889, 0.123153135180473, 0.035598680377007, 0.032434776425362, -0.052126802504063, -0.036742053925991, -0.145417034626007, -0.120784893631935, -0.110446125268936, 0.056096896529198, -0.062759906053543, 0.033538728952408, 0.072016581892967, 0.094707801938057, 0.018356159329414, 0.017002463340759, -0.151713475584984, 0.019256874918938, -0.092340946197510, -0.088434755802155, -0.089144028723240, 0.050908818840981, -0.113988615572453, -0.119658343493938, 0.086568325757980, 0.125797256827354, 0.057054519653320, 0.106358692049980, -0.095922052860260, 0.042017102241516, -0.107456490397453, -0.094000205397606, -0.049349494278431, -0.088872507214546, 0.088268905878067, -0.119059048593044, 0.090436100959778, -0.079708866775036, -0.087401799857616, -0.127072677016258, -0.092370763421059, -0.039979957044125, 0.148685351014137, -0.114452496170998, 0.094787329435349, -0.010013118386269, 0.123491600155830, 0.062687456607819, 0.016026601195335, 0.050716608762741, -0.030519969761372, -0.044999614357948, -0.001149281859398, 0.124097809195518, 0.092199400067329, 0.025582656264305, -0.125420168042183, 0.088971421122551, -0.074491009116173, 0.092459097504616, 0.049210757017136, -0.129525929689407, 0.117568537592888, -0.004386737942696, -0.105560779571533, 0.084609240293503, 0.147035494446754, -0.137754514813423, 0.010202258825302, 0.088511526584625, -0.046434842050076, -0.000080704689026, 0.080779850482941, -0.043912746012211, 0.124107882380486, -0.060523279011250, 0.116243228316307, 0.147878989577293, 0.010225549340248, 0.049171373248100, -0.114505901932716, -0.089641384780407, -0.025641307234764, -0.074917115271091, 0.061766326427460, 0.076556086540222, 0.000342041254044, -0.058950774371624, 0.095513463020325, -0.101001650094986, 0.007296547293663, -0.137748375535011, 0.048338800668716, 0.081728234887123, 0.112548366189003, 0.021747142076492, -0.120171934366226, -0.061216674745083, 0.114518776535988, 0.109550103545189, -0.005637347698212, -0.025565937161446, 0.075832948088646, 0.102222904562950, -0.106380611658096, -0.027037411928177, -0.106003932654858, -0.046358227729797, -0.147642567753792, 0.095250412821770, -0.068248882889748, 0.088413655757904, 0.040454611182213, -0.096571795642376, -0.033391259610653, 0.131847605109215, 0.115792557597160, 0.006942242383957, -0.079475991427898, -0.016224682331085, 0.082430243492126, 0.035108998417854, 0.140752926468849, 0.096759766340256, -0.114358067512512, -0.027767449617386, 0.149192348122597, -0.056377835571766, 0.041278824210167, -0.046101227402687, 0.140215232968330, 0.052422523498535, -0.071420319378376, 0.095023825764656, 0.054545491933823, 0.068323343992233, -0.127831950783730, 0.038546964526176, 0.011098518967628, -0.097288697957993, -0.102876961231232, 0.093650504946709, 0.149968460202217, 0.059158965945244, 0.019990995526314, 0.140777304768562, -0.115364715456963, 0.100142732262611, -0.108427181839943, -0.151458010077477, 0.147829130291939, 0.124370679259300, 0.130578890442848, 0.048880577087402, -0.118188291788101, 0.061633765697479, -0.093537129461765, 0.025034964084625, -0.038143448531628, -0.100040555000305, 0.070350095629692, -0.011928200721741, -0.110669285058975, -0.055454269051552, 0.107303366065025, -0.000659555196762, -0.028725147247314, 0.151199415326118, 0.129449352622032, 0.044619500637054, -0.075953498482704, -0.139506161212921, -0.045650564134121, -0.111127942800522, 0.103405669331551, -0.094236873090267, 0.087126001715660, -0.040434457361698, -0.066669262945652, -0.018460363149643, 0.027876108884811, 0.079219073057175, -0.026377514004707, 0.076071649789810, -0.043805658817291, 0.016276732087135, 0.104577347636223, 0.055340141057968, -0.010546892881393, -0.070179566740990, 0.073135614395142, 0.152087613940239, 0.081456422805786, 0.001332774758339, 0.107864424586296, 0.094319477677345, 0.147049471735954, 0.093067631125450, 0.053582534193993, 0.047534301877022, -0.051431618630886, 0.141677334904671, -0.003409489989281, 0.086048334836960, -0.003999009728432, 0.068901613354683, 0.147251263260841, -0.075705230236053, -0.112980991601944, -0.090440116822720, 0.033921763300896, -0.107246108353138, -0.131512925028801, 0.099438562989235, -0.013794422149658, -0.044321954250336, -0.041401863098145, -0.031048089265823, -0.147776961326599, 0.119165346026421, 0.131753787398338, 0.138860657811165, 0.103006795048714, 0.036241784691811, -0.125576972961426, 0.082568109035492, 0.000154316425323, -0.115684121847153, -0.002736821770668, -0.152033880352974, -0.068356707692146, -0.083921834826469, -0.108780100941658, -0.073101259768009, -0.136602193117142, -0.096580594778061, -0.001776397228241, 0.078289702534676, 0.026835963129997, 0.096733197569847, 0.092173874378204, 0.032664909958839, 0.118199035525322, -0.100661680102348, 0.105664983391762, 0.056532710790634, -0.081415869295597, 0.023226752877235, 0.091145485639572, 0.042354777455330, -0.053537935018539, -0.072391405701637, -0.018483802676201, 0.058762609958649, 0.061279386281967, -0.053977839648724, -0.138356402516365, 0.097399547696114, -0.059760570526123, -0.044361844658852, 0.064465343952179, 0.090240970253944, -0.021731153130531, 0.152054294943810, 0.110759541392326, -0.052375040948391, -0.088392600417137, -0.121117442846298, 0.135058358311653, -0.151126444339752, -0.130885526537895, 0.097286298871040, 0.074308142066002, 0.061823308467865, 0.047304570674896, -0.099014937877655, -0.117574512958527, -0.086514405906200, 0.016790956258774, -0.080365903675556, 0.016076415777206, -0.027958199381828, -0.107730686664581, 0.114509269595146, 0.130378946661949, 0.108640864491463, -0.072775021195412, -0.151730298995972, 0.034336611628532, 0.130502358078957, -0.135660201311111, -0.094383716583252, 0.019569635391235, -0.125424832105637, -0.128721505403519, -0.120456457138062, 0.057216286659241, 0.012558460235596, 0.134702876210213, -0.112328544259071, 0.021612271666527, 0.055629834532738, -0.001164361834526, -0.088694788515568, -0.142667293548584, 0.024326354265213, 0.147689834237099, 0.019699394702911, -0.015104636549950, 0.071017786860466, -0.006773203611374, -0.041227057576180, -0.109480507671833, 0.148709222674370, 0.014809757471085, 0.124294713139534, 0.013486906886101, 0.045716524124146, 0.037186920642853, 0.068662256002426, 0.060166820883751, 0.100505724549294, -0.083762943744659, 0.139683440327644, -0.044615231454372, -0.100624814629555, -0.018766641616821, 0.055107414722443, 0.118818655610085, 0.118317797780037, -0.098402395844460, 0.080064639449120, -0.147480577230453, -0.030920341610909, -0.121018417179585, -0.027108699083328, -0.109234318137169, -0.136166676878929, 0.030122891068459, 0.146668568253517, -0.142844244837761, -0.110201820731163, 0.124659851193428, 0.046489953994751, 0.002976670861244, 0.149526372551918, 0.136684730648994, 0.010292559862137, 0.122459068894386, 0.077385485172272, -0.060621537268162, -0.021107658743858, -0.090332262217999, -0.039067961275578, -0.128740370273590, 0.100775614380836, 0.022024616599083, 0.089258238673210, -0.021678924560547, 0.134931102395058, 0.087974742054939, -0.123389035463333, 0.074491634964943, 0.062613099813461, -0.080678202211857, -0.041004739701748, -0.090696856379509, 0.130162522196770, 0.151886269450188, 0.039566412568092, -0.038914039731026, -0.030029512941837, -0.079152710735798, -0.139964267611504, 0.025682151317596, 0.036323502659798, 0.117060407996178, 0.147262409329414, -0.125292882323265, -0.044141314923763, -0.036804474890232, 0.134946241974831, 0.046787291765213, 0.009593069553375, -0.032985419034958, -0.099721148610115, -0.130035251379013, -0.014187574386597, 0.007068455219269, 0.007317528128624, 0.143235161900520, -0.066647909581661, 0.055092558264732, -0.025065332651138, 0.034264788031578, 0.085005819797516, 0.002314150333405, -0.059637233614922, 0.025042563676834, -0.139876455068588, 0.124153509736061, -0.023116618394852, 0.149200305342674, 0.005135327577591, -0.064122274518013, -0.080025322735310, 0.070634424686432, 0.038169249892235, 0.140289708971977, 0.125120177865028, 0.033621728420258, 0.002149865031242, -0.014149352908134, -0.057080067694187, 0.110610410571098, 0.052607879042625, 0.073225840926170, 0.087116912007332, -0.132164821028709, -0.038522645831108, -0.003868475556374, 0.142263427376747, 0.103575572371483, 0.095135182142258, -0.016489744186401, 0.048581019043922, 0.028940603137016, 0.048415824770927, 0.087018549442291, 0.007489636540413, -0.111907482147217, -0.071744658052921, -0.100992918014526, 0.121652677655220, -0.145043060183525, -0.126704275608063, 0.079354301095009, -0.080221325159073, -0.111992821097374, -0.129408434033394, -0.137407898902893, 0.049647480249405, -0.085937961935997, -0.019011706113815, -0.095169417560101, -0.130063831806183, 0.025246933102608, -0.146389633417130, 0.109274998307228, -0.032991513609886, 0.141623541712761, 0.055033758282661, 0.089504033327103, -0.094925045967102, 0.023049756884575, 0.068971768021584, -0.067013531923294, -0.133859157562256, -0.138206198811531, -0.113140821456909, -0.125613510608673, 0.116483286023140, -0.112610951066017, -0.061315476894379, -0.057190477848053, -0.109528869390488, 0.046397358179092, -0.100341029465199, -0.047857366502285, -0.145203337073326, 0.037729650735855, -0.093210563063622, -0.126037269830704, 0.143659725785255, -0.035633146762848, -0.036186270415783, -0.147702753543854, -0.068082004785538, -0.061432354152203, -0.091960832476616, 0.100744351744652, 0.123924866318703, 0.132223889231682, 0.092482671141624, -0.117161728441715, 0.105165824294090, 0.062422901391983, -0.109132364392281, -0.109608367085457, 0.120975479483604, -0.118486389517784, -0.137988030910492, -0.151230618357658, 0.114007458090782, -0.141881301999092, -0.027051642537117, -0.064301162958145, 0.109718099236488, 0.086122795939445, 0.085759103298187, 0.149704679846764, 0.028419241309166, 0.005009517073631, -0.002361193299294, 0.118754848837852, -0.152603134512901, -0.044677756726742, 0.045700535178185, -0.053004845976830, 0.149568364024162, -0.024753481149673, -0.028192967176437, -0.142275720834732, -0.090264372527599, -0.083126343786716, 0.045774668455124, -0.032943584024906, -0.113793231546879, -0.074011906981468, 0.132544681429863, 0.032127588987350, 0.030445396900177, -0.146452620625496, 0.035380154848099, -0.100577116012573, 0.088334128260612, -0.023107171058655, -0.103042118251324, 0.076307594776154, 0.111294671893120, 0.093765065073967, -0.099776074290276, 0.068908303976059, -0.081042148172855, -0.134972453117371, -0.057770468294621, -0.072049580514431, -0.041116610169411, 0.128379836678505, -0.050696283578873, 0.018965274095535, 0.125334128737450, -0.044383674860001, 0.125194445252419, 0.115546986460686, -0.114416256546974, -0.082877196371555, -0.064955726265907, 0.149452701210976, -0.031549930572510, 0.121237829327583, -0.023499041795731, -0.092308714985847, 0.012405514717102, -0.141461983323097, -0.100177980959415, 0.139702484011650, 0.084358930587769, -0.045425832271576, 0.045332968235016, -0.067500591278076, -0.076076909899712, 0.003519609570503, -0.138353079557419, 0.149620845913887, 0.078360989689827, 0.135659679770470, 0.102016463875771, -0.061284780502319, 0.018809229135513, -0.050842791795731, -0.151264593005180, -0.090756133198738, -0.104920312762260, 0.135830000042915, 0.147800549864769, -0.042613632977009, -0.135091602802277, 0.062362268567085, -0.016922935843468, -0.106425762176514, 0.152127966284752, 0.100956544280052, 0.150168940424919, -0.000224009156227, 0.078429862856865, 0.096295848488808, -0.100723519921303, -0.087368331849575, 0.020255222916603, -0.097901239991188, 0.118654415011406, 0.094230815768242, 0.068345457315445, 0.131821915507317, 0.070235446095467, -0.028807818889618, -0.102775737643242, 0.028808429837227, -0.044529095292091, 0.086964741349220, 0.087972298264503, 0.135636076331139, 0.001260429620743, 0.097718492150307, -0.103522829711437, 0.061172366142273, -0.000615030527115, 0.121878370642662, 0.058235257863998, 0.026463732123375, 0.016112491488457, 0.087003841996193, 0.062892034649849, 0.029647365212440, -0.109375491738319, 0.096143171191216, -0.098606094717979, 0.124238803982735, -0.120275348424911, 0.076286390423775, -0.064007736742496, -0.052246883511543, -0.109533689916134, 0.127865359187126, -0.147573873400688, -0.114475272595882, -0.022228941321373, -0.058304429054260, 0.043297976255417, -0.146992102265358, -0.129837781190872, -0.078442670404911, 0.150766745209694, 0.085865944623947, -0.139511451125145, 0.127244636416435, -0.014244005084038, -0.061147980391979, -0.084893867373466, 0.108888939023018, 0.110962137579918, 0.008649393916130, -0.003988817334175, 0.087250113487244, -0.126576930284500, -0.141936197876930, 0.149805381894112, 0.035717889666557, 0.091399520635605, 0.134670302271843, 0.143640086054802, -0.122752107679844, -0.031870625913143, -0.147390022873878, -0.106308713555336, 0.130248740315437, 0.087271064519882, -0.084956690669060, -0.016886621713638, 0.053692623972893, 0.018438205122948, -0.082137078046799, -0.038001462817192, -0.101491659879684, 0.097708150744438, 0.069720938801765, -0.044188946485519, 0.095491677522659, -0.147701367735863, 0.030908912420273, -0.123166203498840, 0.057111352682114, 0.019325315952301, 0.032229721546173, -0.138608098030090, 0.075443819165230, -0.103523485362530, -0.000595137476921, 0.128470554947853, -0.030241437256336, -0.088960140943527, -0.082808353006840, 0.065624877810478, 0.012340366840363, 0.124749764800072, 0.116546377539635, -0.145656406879425, -0.043944865465164, -0.037999160587788, 0.104647204279900, 0.041211038827896, -0.031193509697914, -0.084630921483040, 0.094671234488487, 0.000264450907707, -0.089381173253059, -0.065822713077068, -0.142041832208633, -0.119092226028442, 0.056678056716919, -0.001456975936890, 0.137422546744347, -0.015768617391586, -0.066714994609356, -0.056060537695885, -0.068084739148617, -0.127647548913956, 0.040179401636124, -0.076998613774776, 0.036362126469612, 0.033731475472450, 0.021231830120087, 0.016558915376663, 0.004456564784050, -0.107435032725334, -0.034591682255268, -0.021182402968407, 0.092845186591148, -0.035788744688034, -0.104866698384285, 0.111399427056313, 0.086100637912750, 0.136115416884422, 0.050927400588989, -0.033064149320126, -0.125643327832222, 0.086719393730164, -0.082769632339478, 0.115933015942574, 0.099411472678185, -0.132155403494835, -0.091800265014172, -0.075052380561829, -0.046702317893505, 0.110751762986183, -0.085865505039692, 0.108990207314491, 0.123041525483131, -0.077719271183014, -0.113033920526505, 0.081902384757996, -0.047269858419895, 0.065305069088936, 0.057239279150963, 0.077529832720757, 0.144401863217354, 0.117564663290977, 0.119878157973289, 0.126979455351830, 0.076239556074142, 0.068399921059608, 0.064647838473320, -0.071261540055275, 0.136839434504509, -0.129678979516029, 0.031242534518242, -0.078839100897312, 0.135310783982277, 0.002557173371315, -0.004645749926567, -0.029888555407524, 0.073146298527718, -0.028793692588806, 0.059950232505798, 0.012756764888763, 0.021960735321045, -0.063143961131573, 0.082023054361343, 0.014960750937462, -0.078241407871246, 0.029047444462776, 0.122500076889992, 0.144946381449699, -0.020374402403831, -0.067140191793442, 0.061603799462318, -0.015345647931099, 0.045369729399681, 0.082956075668335, -0.097213141620159, 0.104607060551643, 0.052335545420647, -0.106695353984833, 0.078960508108139, 0.045704320073128, 0.149731829762459, 0.042475849390030, 0.097688958048820, -0.024342775344849, 0.002013057470322, -0.149263545870781, -0.077265903353691, 0.113613799214363, -0.081088282167912, -0.002070188522339, -0.018018200993538, 0.068635642528534, -0.016148880124092, -0.028800480067730, -0.133495956659317, 0.136138483881950, -0.098775684833527, -0.103676751255989, -0.033069364726543, -0.037500277161598, 0.001408547163010, 0.147856429219246, -0.037364237010479, 0.002733722329140, 0.025295257568359, -0.012349858880043, -0.017769306898117, 0.049753084778786, 0.073940694332123, 0.022754803299904, 0.121474221348763, -0.107942640781403, -0.117689117789268, 0.025003284215927, -0.115066722035408, -0.008307889103889, 0.090209186077118, -0.134713202714920, 0.037293240427971, 0.043216869235039, 0.147589311003685, -0.126103192567825, 0.148573920130730, -0.078592285513878, 0.136880889534950, 0.127099916338921, 0.005728200078011, -0.074806809425354, -0.145218193531036, -0.051222249865532, 0.127338066697121, -0.054771900177002, 0.053581520915031, 0.074437603354454, 0.051587179303169, 0.145067796111107, -0.150295227766037, 0.084412977099419, -0.091603413224220, 0.093596145510674, 0.117739722132683, -0.023519992828369, -0.102200791239738, 0.054768949747086, 0.116158559918404, 0.004987210035324, -0.135495901107788, -0.084928542375565, -0.018644362688065, -0.067266114056110, 0.100143924355507, 0.026588022708893, -0.117567829787731, 0.047045096755028, -0.122348703444004, 0.060974821448326, 0.028223112225533, 0.087765604257584, 0.146584585309029, -0.125767201185226, 0.098968341946602, 0.123179629445076, 0.071508288383484, 0.116077050566673, 0.100069358944893, -0.083280451595783, -0.015562906861305, -0.143816754221916, -0.029286004602909, -0.049083814024925, 0.107806012034416, -0.099202223122120, 0.043999552726746, -0.096674323081970, 0.029807344079018, 0.113551840186119, 0.033101201057434, 0.081983640789986, 0.051703721284866, -0.056894317269325, -0.064293168485165, -0.140500709414482, 0.101210102438927, -0.145957171916962, 0.019119113683701, 0.057302609086037, -0.111972525715828, 0.019199013710022, 0.110409662127495, 0.153041616082191, 0.127152606844902, 0.095557197928429, 0.078228712081909, 0.118925884366035, -0.086087137460709, -0.144530043005943, 0.121001467108727, 0.068793028593063, 0.082998082041740, 0.019052758812904, -0.006936758756638, -0.004415720701218, -0.048714943230152, 0.068248808383942, -0.151788592338562, -0.084387905895710, 0.113111868500710, -0.121201395988464, -0.038765117526054, 0.072346806526184, -0.084713414311409, 0.050814911723137, -0.062326937913895, -0.088483266532421, 0.086660817265511, 0.085538029670715, -0.123815760016441, 0.103796109557152, 0.086534738540649, 0.132989242672920, -0.012075230479240, -0.136721551418304, -0.087411694228649, -0.126425817608833, -0.146304324269295, 0.148448064923286, -0.045593693852425, -0.081807263195515, -0.036981716752052, -0.132318168878555, 0.095163330435753, -0.088269963860512, -0.132849499583244, -0.027031719684601, -0.075675331056118, -0.008041620254517, -0.151915505528450, -0.058856934309006, -0.025405630469322, 0.002882272005081, 0.097422286868095, -0.044918917119503, -0.101383693516254, -0.099889993667603, 0.023354351520538, -0.093174278736115, -0.108777403831482, -0.054674185812473, 0.065886884927750, -0.084929093718529, 0.109441086649895, -0.062345623970032, -0.001004010438919, -0.092047110199928, 0.119428709149361, 0.143736526370049, -0.055170223116875, 0.046480581164360, -0.111779473721981, -0.039577759802341, -0.026448518037796, -0.037582807242870, 0.031980022788048, 0.100697025656700, 0.009901523590088, 0.038723438978195, 0.079325243830681, -0.020586028695107, 0.135460361838341, -0.125370115041733, -0.071792908012867, 0.114858224987984, 0.028358310461044, -0.021606355905533, 0.010584086179733, -0.016884505748749, 0.017780184745789, -0.133399367332458, -0.018756851553917, -0.050704091787338, 0.054555639624596, 0.134485349059105, 0.145935311913490, 0.072373002767563, -0.061590731143951, -0.043675787746906, 0.147829100489616, -0.100857511162758, -0.089779540896416, 0.072529479861259, -0.144390001893044, -0.125000849366188, -0.127669125795364, 0.120427414774895, 0.041188374161720, 0.021626725792885, -0.007958337664604, -0.093212313950062, -0.104200236499310, 0.023182287812233, -0.037671647965908, -0.035959891974926, 0.110502794384956, 0.026949107646942, -0.070552490651608, -0.108714185655117, -0.127911448478699, 0.097390130162239, -0.090031534433365, 0.044922456145287, 0.134801313281059, -0.026758655905724, -0.011549189686775, -0.065354965627193, -0.033236607909203, 0.046095609664917, -0.116785079240799, 0.151116624474525, -0.123285226523876, 0.082146570086479, 0.023303985595703, 0.149762585759163, 0.016097262501717, -0.063491001725197, 0.143530830740929, -0.037207432091236, 0.104700312018394, -0.073860719799995, 0.143241122364998, -0.031526863574982, 0.068315818905830, 0.027436539530754, -0.071481309831142, 0.136076077818871, -0.087136812508106, 0.071725606918335, -0.143526434898376, -0.135833904147148, 0.145977661013603, 0.025214001536369, -0.075056433677673, -0.096403054893017, 0.036260873079300, -0.025977373123169, 0.131489142775536, 0.090315401554108, -0.064370147883892, -0.076874986290932, -0.076937839388847, 0.000888124108315, -0.074711687862873, 0.016059011220932, -0.117914840579033, -0.027665063738823, 0.074325263500214, -0.029072336852551, 0.027976736426353, 0.029093727469444, -0.008585885167122, 0.147354766726494, 0.102043434977531, 0.067190632224083, -0.034580513834953, 0.116119310259819, 0.084079369902611, 0.041459426283836, -0.150853380560875, 0.012500450015068, -0.084039583802223, 0.097087934613228, 0.067034810781479, 0.138809874653816, 0.011121153831482, 0.036621317267418, -0.085662931203842, -0.081345170736313, -0.061619743704796, -0.033736988902092, -0.048803597688675, 0.084984213113785, 0.005407258868217, -0.149522006511688, -0.078478768467903, 0.053023174405098, 0.102779760956764, 0.023062646389008, -0.025775268673897, -0.095492593944073, -0.117730036377907, -0.009505212306976, -0.040775768458843, -0.093432843685150, 0.061466440558434, -0.039602510631084, 0.134769871830940, 0.048691689968109, -0.035053446888924, -0.046130098402500, 0.063095703721046, -0.017459377646446, -0.086015045642853, -0.088046066462994, 0.091629922389984, -0.112166233360767, -0.133212164044380, -0.068373091518879, 0.063862726092339, -0.026137501001358, 0.114341601729393, 0.009618028998375, -0.145610854029655, -0.129674479365349, 0.062657952308655, -0.143189653754234, 0.063721254467964, -0.136454194784164, -0.106688641011715, -0.150777801871300, 0.143428102135658, -0.091735512018204, 0.010011434555054, -0.023041114211082, -0.055191248655319, -0.128439202904701, -0.147798135876656, 0.041989222168922, 0.054970830678940, 0.123156979680061, -0.106503039598465, -0.133954972028732, 0.092158257961273, 0.092229872941971, -0.056067697703838, -0.112500719726086, 0.098063662648201, 0.101706579327583, -0.099890395998955, -0.046782650053501, -0.104313753545284, 0.031126305460930, 0.024850353598595, -0.020976647734642, 0.138429656624794, -0.052080042660236, 0.148342236876488, -0.057044513523579, -0.021811917424202, -0.002203807234764, -0.013459280133247, -0.063131697475910, -0.017718240618706, 0.073473602533340, -0.079938672482967, -0.042581222951412, 0.000650063157082, -0.063157320022583, 0.133365616202354, -0.152846038341522, -0.035918213427067, 0.040549546480179, -0.100902438163757, 0.017825737595558, 0.006415143609047, 0.050264850258827, -0.126616671681404, -0.146484300494194, 0.093766465783119, 0.025029644370079, 0.071479737758636, -0.112404763698578, 0.114080861210823, 0.115313395857811, 0.146280124783516, 0.061200797557831, 0.100112125277519, 0.008782431483269, -0.075083479285240, -0.062645293772221, -0.032827697694302, -0.075201265513897, -0.079829134047031, 0.145854577422142, -0.091703534126282, 0.074938029050827, -0.060877002775669, -0.053912863135338, -0.020749077200890, -0.055658638477325, -0.042889460921288, -0.025826334953308, 0.019375130534172, 0.055217280983925, 0.131709411740303, -0.109441012144089, -0.118108652532101, 0.100873962044716, -0.122982092201710, 0.121284291148186, 0.063982337713242, -0.016513004899025, 0.063385635614395, -0.002680391073227, 0.100613042712212, -0.050242327153683, -0.056686773896217, -0.033403456211090, -0.127208560705185, -0.032551795244217, 0.104547634720802, 0.053181439638138, -0.137216061353683, 0.131867066025734, -0.102364495396614, 0.109403297305107, -0.029676452279091, -0.037696756422520, -0.066604658961296, 0.010505542159081, 0.110013887286186, 0.135292574763298, -0.093664661049843, -0.095177009701729, -0.106033898890018, -0.036966823041439, 0.130303904414177, -0.042614579200745, 0.135993883013725, 0.146053269505501, -0.032622709870338, -0.079402334988117, -0.120589315891266, 0.093889281153679, -0.093954399228096, -0.011399433016777, -0.004555881023407, 0.040871992707253, 0.060673594474792, -0.058019399642944, -0.085230514407158, -0.117261044681072, 0.008934825658798, 0.148348227143288, 0.016291365027428, -0.145858079195023, -0.088923715054989, 0.023937404155731, 0.074554696679115, -0.068542420864105, 0.149309054017067, -0.097351253032684, -0.042596623301506, 0.085573658347130, 0.063592255115509, 0.029472380876541, 0.138851240277290, 0.016809239983559, 0.020441159605980, -0.136222511529922, 0.057309985160828, 0.062836080789566, -0.001043573021889, 0.104270085692406, -0.030747219920158, -0.130500525236130, 0.067851573228836, 0.128714963793755, -0.091747671365738, -0.016965210437775, -0.111506491899490, -0.041010759770870, -0.072293691337109, -0.101166665554047, -0.111652016639709, 0.139782384037971, 0.071734443306923, 0.140129491686821, -0.146484091877937, 0.104150637984276, 0.075687780976295, -0.146273478865623, -0.075968541204929, -0.079439237713814, 0.064960390329361, 0.053925052285194, -0.067865446209908, -0.077870860695839, -0.021343812346458, 0.057851240038872, -0.112614050507545, -0.094102695584297, 0.024102240800858, -0.097455978393555, -0.107613369822502, 0.104704156517982, 0.114561513066292, -0.001757711172104, 0.026144862174988, -0.088732928037643, 0.040284186601639, 0.014519944787025, -0.107301592826843, 0.151397690176964, 0.061190724372864, -0.061782427132130, -0.092547640204430, 0.082088828086853, -0.102649673819542, 0.003875821828842, 0.122666731476784, 0.036567434668541, 0.006454005837440, 0.024203523993492, -0.016650095582008, 0.019907310605049, -0.126917585730553, -0.130261123180389, 0.067026346921921, -0.130102708935738, -0.021632015705109, 0.128872647881508, 0.134004697203636, -0.105647325515747, 0.135956570506096, 0.071113795042038, -0.056004218757153, -0.094554319977760, 0.010514408349991, -0.086662016808987, -0.005133718252182, -0.115823335945606, 0.057578042149544, 0.023465305566788, -0.005304649472237, 0.057058900594711, -0.060168899595737, -0.045496240258217, -0.043578185141087, -0.004746928811073, -0.043434008955956, -0.132787227630615, -0.067546255886555, 0.062617659568787, -0.022614493966103, -0.092667326331139, -0.103224188089371, 0.017458066344261, -0.004774376749992, -0.050973467528820, -0.127022311091423, -0.100143745541573, 0.110593631863594, 0.006451308727264, -0.096758529543877, 0.035964056849480, 0.078927546739578, -0.045819342136383, 0.080828398466110, -0.112364351749420, -0.121609829366207, 0.117399051785469, 0.003769531846046, 0.039042964577675, 0.040444716811180, 0.111315533518791, -0.080334953963757, -0.120610892772675, 0.057732805609703, 0.031852811574936, 0.058855473995209, 0.117529287934303, -0.135687246918678, 0.021034136414528, 0.138216570019722, 0.022541895508766, -0.080885306000710, 0.141173079609871, 0.134585872292519, 0.037095487117767, 0.092234581708908, 0.095474749803543, -0.063290946185589, 0.147771015763283, -0.073016144335270, -0.017383307218552, 0.099339798092842, -0.018595308065414, -0.140801802277565, 0.105149522423744, -0.097435720264912, -0.152825206518173, -0.092010468244553, -0.107639871537685, 0.020473822951317, 0.136471912264824, 0.025317341089249, -0.068581253290176, 0.015398278832436, -0.121950268745422, -0.022985950112343, 0.042317509651184, -0.101710662245750, 0.010159909725189, 0.149297371506691, 0.004171133041382, -0.119321741163731, 0.094399586319923, 0.021400526165962, -0.096360564231873, 0.044983223080635, -0.144384369254112, -0.059455394744873, 0.097224459052086, -0.024982735514641, 0.050548791885376, 0.078358650207520, -0.123773276805878, 0.121483877301216, -0.054438322782516, 0.060500681400299, 0.142138943076134, -0.144000902771950, 0.090522676706314, -0.105882935225964, -0.147850260138512, 0.054990425705910, 0.118302091956139, -0.103591561317444, -0.124422937631607, -0.052556701004505, 0.051837936043739, 0.012805819511414, -0.152537107467651, 0.087259456515312, 0.089861765503883, 0.086877301335335, 0.099290117621422, 0.048451662063599, 0.144759520888329, -0.129003822803497, 0.140424206852913, -0.090748295187950, -0.068980969488621, 0.039858162403107, -0.006507292389870, 0.140239164233208, -0.108534097671509, -0.066629700362682, 0.093043684959412, -0.077507100999355, 0.027614444494247, 0.020101413130760, -0.044637531042099, -0.098103053867817, -0.020026192069054, 0.000549659132957, -0.023188307881355, 0.084881529211998, -0.148198977112770, 0.072227925062180, 0.121106937527657, -0.013817161321640, -0.147421926259995, 0.086648806929588, 0.002827301621437, -0.088236853480339, 0.040490999817848, -0.120287239551544, -0.086026147007942, -0.099333807826042, -0.114311456680298, 0.147161230444908, -0.131951004266739, -0.056064188480377, 0.054212391376495, -0.092257797718048, -0.034852363169193, -0.017884716391563, 0.129370763897896, 0.134679809212685, -0.062011465430260, 0.031622171401978, 0.089688330888748, 0.009338885545731, -0.095924206078053, 0.018599539995193, 0.048395931720734, -0.144925594329834, 0.031024768948555, 0.029010787606239, 0.034073859453201, 0.054481431841850, -0.076632112264633, 0.079791322350502, -0.113398730754852, 0.144342109560966, -0.123381368815899, -0.030246399343014, -0.091607183218002, -0.028594985604286, -0.040956117212772, -0.057767838239670, 0.008119478821754, 0.106739714741707, 0.011318802833557, 0.090541228652000, -0.080753505229950, 0.063032701611519, 0.050760447978973, 0.007336035370827, -0.130484059453011, 0.069751456379890, -0.067347690463066, -0.151283904910088, -0.090105228126049, 0.115544542670250, -0.023498237133026, 0.115075275301933, 0.030246138572693, 0.015508264303207, -0.056136973202229, -0.122925080358982, 0.010119006037712, 0.090361028909683, 0.123741433024406, 0.124250099062920, -0.087520614266396, -0.032821200788021, 0.096411302685738, 0.146626517176628, 0.086420312523842, 0.100126519799232, -0.065490342676640, 0.112208530306816, -0.149260997772217, 0.056525960564613, -0.126930400729179, 0.044903442263603, 0.066260904073715, 0.094228655099869, 0.116841122508049, -0.075563751161098, -0.059407062828541, 0.137303188443184, 0.125571176409721, -0.130152240395546, 0.042752072215080, 0.014790117740631, 0.145656153559685, -0.079714342951775, -0.031918659806252, 0.043184861540794, -0.055324479937553, 0.045802578330040, -0.043207526206970, -0.011793479323387, -0.100339569151402, 0.070181757211685, -0.086794547736645, -0.115032047033310, 0.048961684107780, 0.049891561269760, 0.138240918517113, -0.086886197328568, -0.004791975021362, -0.087499842047691, 0.021593138575554, 0.136952355504036, 0.142386689782143, -0.031394079327583, 0.127723619341850, -0.011227726936340, 0.146429851651192, 0.073972553014755, -0.016259655356407, -0.093037404119968, -0.054859794676304, -0.128926888108253, -0.029075324535370, 0.010226964950562, 0.063208416104317, -0.047543540596962, -0.044807806611061, -0.110305011272430, -0.061323039233685, -0.095299437642097, 0.072275698184967, 0.025034934282303, 0.046097248792648, 0.144700124859810, -0.093197241425514, 0.049947008490562, 0.066731855273247, -0.007166489958763, 0.012347698211670, -0.052556477487087, 0.117839679121971, 0.133562490344048, -0.014759749174118, 0.135067299008369, 0.117348834872246, -0.055667944252491, -0.078201919794083, -0.143667846918106, 0.123461589217186, -0.045017279684544, 0.092598602175713, 0.078329816460609, -0.001940712332726, -0.107877925038338, 0.089759647846222, -0.109342977404594, -0.037769243121147, 0.114844009280205, -0.060643181204796, 0.046184226870537, -0.126462727785110, 0.140992239117622, 0.051772817969322, 0.026088729500771, 0.109023824334145, -0.010132655501366, 0.000688761472702, 0.015129014849663, 0.057364359498024, 0.064149320125580, -0.001811251044273, 0.126415148377419, -0.028252542018890, -0.039870709180832, 0.103092744946480, -0.104683317244053, 0.107773348689079, 0.074854448437691, -0.047006763517857, -0.128914117813110, -0.062071658670902, -0.119304731488228, 0.137875333428383, 0.001568958163261, 0.107326045632362, 0.126123741269112, 0.063341468572617, 0.056469529867172, 0.150257870554924, 0.118229076266289, -0.065136760473251, 0.023509696125984, -0.024106472730637, 0.119226649403572, 0.066395431756973, 0.002730652689934, -0.099927626550198, 0.112296596169472, -0.109725311398506, -0.068570233881474, 0.125955775380135, 0.033482626080513, -0.017639651894569, -0.087355777621269, -0.122970998287201, 0.056494086980820, -0.097585439682007, 0.123354062438011, -0.140974491834641, 0.064107716083527, -0.141084387898445, -0.149005264043808, -0.129244074225426, 0.080094158649445, -0.146813973784447, 0.091515377163887, 0.041601300239563, 0.041226476430893, 0.015521690249443, 0.097956225275993, 0.117695644497871, -0.069223769009113, -0.078961014747620, -0.049166925251484, -0.033987201750278, -0.010228276252747, -0.105839937925339, -0.018803104758263, -0.086487323045731, 0.020532488822937, -0.122613400220871, 0.035912618041039, -0.067130446434021, -0.104557722806931, -0.021666795015335, 0.084984138607979, -0.152477860450745, -0.017457813024521, -0.024934485554695, 0.149653270840645, 0.003723651170731, 0.020968616008759, 0.052818983793259, 0.060871303081512, -0.013994514942169, -0.134149596095085, -0.095456272363663, 0.097257629036903, -0.045433238148689, 0.099769219756126, -0.006279617547989, -0.103178702294827, -0.007634788751602, 0.026106983423233, -0.120869636535645, 0.016528144478798, 0.088666900992393, 0.094409048557281, 0.065170958638191, -0.146036341786385, -0.109739691019058, 0.116823092103004, 0.020465612411499, 0.052503153681755, -0.087602041661739, 0.110489800572395, -0.150554671883583, -0.018864199519157, -0.007659465074539, -0.089379496872425, 0.107263699173927, 0.124056503176689, 0.009447500109673, -0.054221764206886, 0.135596826672554, -0.123124659061432, -0.045335963368416, 0.130544468760490, 0.063566893339157, -0.075151555240154, 0.024173378944397, 0.092708140611649, 0.043157309293747, 0.005986154079437, -0.001279801130295, 0.115329667925835, -0.012059718370438, 0.008505910634995, -0.086907841265202, -0.128063365817070, -0.006440460681915, -0.096770577132702, 0.015992984175682, -0.101811841130257, 0.101564660668373, -0.125392496585846, 0.045032605528831, -0.011754825711250, -0.136858895421028, 0.111282363533974, -0.093462996184826, -0.065035149455070, -0.106543734669685, 0.049160137772560, 0.108244314789772, -0.006493717432022, 0.092134356498718, 0.151404604315758, 0.041189640760422, 0.051088035106659, -0.127701461315155, -0.114965513348579, -0.092117048799992, -0.002249583601952, 0.069049447774887, -0.016795292496681, -0.029332689940929, 0.131308391690254, 0.031281799077988, -0.136447831988335, -0.062798410654068, -0.063313029706478, 0.049526304006577, 0.050370767712593, 0.025068983435631, -0.061070822179317, -0.110393419861794, 0.106144472956657, -0.090633749961853, -0.053806029260159, -0.130288496613503, -0.085936501622200, 0.089191004633904, -0.003267496824265, 0.071222230792046, 0.130320385098457, -0.002696529030800, -0.104358829557896, -0.116099350154400, -0.119708530604839, 0.080334410071373, 0.151920214295387, 0.071929454803467, 0.021019071340561, -0.022742345929146, 0.068744450807571, -0.009161010384560, 0.098561540246010, -0.065065219998360, 0.136027202010155, -0.105216622352600, 0.112977519631386, -0.004290536046028, -0.132068172097206, 0.028791829943657, 0.075343549251556, 0.079110920429230, -0.123791307210922, 0.144743397831917, -0.091705180704594, 0.118674620985985, 0.030379414558411, 0.003853693604469, -0.109825804829597, -0.061584599316120, 0.055086314678192, -0.108868584036827, -0.116431213915348, -0.057923078536987, -0.015661746263504, -0.133597239851952, -0.127780929207802, -0.143336996436119, -0.091690801084042, -0.077603206038475, 0.081479012966156, -0.082605339586735, -0.053149208426476, -0.096490472555161, 0.098935082554817, 0.013770341873169, -0.047676838934422, -0.105439305305481, 0.046146497130394, 0.020309388637543, -0.028389781713486, -0.051373869180679, 0.135496631264687, -0.040662512183189, -0.037024930119514, -0.092615574598312, -0.044714912772179, -0.029366925358772, 0.083169341087341, -0.036488346755505, 0.134873792529106, 0.143050983548164, 0.148352429270744, 0.039141908288002, 0.111754074692726, -0.069077037274837, 0.014585822820663, -0.066139757633209, -0.030044406652451, 0.063200578093529, -0.057836316525936, 0.149863645434380, 0.119874998927116, 0.023958399891853, 0.149079486727715, -0.114539518952370, 0.145035222172737, 0.095994025468826, -0.080795370042324, -0.124757826328278, -0.085693955421448, -0.088272914290428, -0.122725531458855, 0.016619980335236, -0.073038704693317, -0.094449236989021, 0.143815055489540, 0.094207420945168, 0.022631317377090, 0.116579279303551, -0.146938517689705, -0.078248165547848, -0.022598430514336, -0.030468687415123, 0.088524803519249, 0.114990249276161, 0.124757036566734, 0.001379519701004, -0.108394876122475, 0.066354006528854, -0.062530867755413, -0.007182985544205, -0.073323696851730, 0.001097679138184, -0.137305513024330, 0.075758844614029, 0.015946552157402, -0.152615770697594, 0.013562694191933, -0.107907205820084, 0.099120214581490, -0.010359570384026, 0.127581015229225, 0.126167789101601, 0.022686585783958, -0.039456181228161, -0.016992032527924, 0.098663583397865, -0.133909866213799, -0.060578502714634, 0.018949836492538, 0.137803241610527, 0.035474628210068, -0.064120888710022, -0.060515761375427, -0.090053141117096, 0.139724090695381, -0.101043768227100, 0.093589901924133, -0.125055238604546, 0.146538898348808, -0.088865280151367, 0.076140999794006, -0.106661006808281, 0.144531592726707, 0.017157226800919, -0.075774282217026, 0.124083802103996, 0.041004449129105, -0.041716784238815, -0.141670033335686, -0.099408850073814, -0.061039939522743, -0.038228020071983, 0.119340136647224, -0.103038728237152, 0.035113707184792, -0.099235363304615, 0.098509147763252, 0.090040370821953, 0.120207414031029, -0.110313042998314, 0.138270244002342, 0.026452526450157, 0.123323366045952, 0.094511568546295, -0.051944769918919, -0.084860980510712, -0.114416614174843, 0.128604725003242, -0.152443781495094, -0.048303693532944, -0.054661191999912, -0.129933595657349, 0.079007297754288, 0.077909737825394, -0.000568374991417, -0.116981744766235, 0.042968273162842, -0.104033544659615, 0.137335315346718, -0.111295878887177, 0.032401561737061, -0.033179782330990, 0.070825695991516, -0.044125147163868, -0.015322655439377, -0.113520860671997, 0.100875005125999, -0.041321560740471, -0.075630404055119, 0.138979211449623, -0.057549491524696, 0.091215819120407, -0.059731408953667, 0.105848029255867, 0.039522722363472, -0.046032242476940, -0.021980524063110, 0.140458509325981, 0.098703041672707, -0.027290940284729, 0.143052563071251, 0.030490145087242, -0.145334154367447, -0.027487099170685, 0.149401709437370, -0.016194835305214, -0.095638848841190, 0.040416032075882, 0.110658124089241, -0.025800123810768, 0.048925697803497, 0.063166230916977, -0.121441416442394, -0.010045200586319, 0.069401666522026, 0.077433660626411, 0.150235220789909, 0.100049003958702, 0.147901490330696, -0.115232251584530, -0.112076804041862, 0.021797612309456, 0.018457293510437, -0.127381026744843, -0.080161288380623, 0.120919898152351, -0.053515486419201, 0.026991680264473, 0.068029657006264, -0.018202736973763, 0.000303283333778, -0.037714421749115, 0.017658159136772, -0.001933023333549, -0.039327189326286, -0.090622544288635, 0.001558274030685, -0.036350153386593, -0.027718573808670, -0.067665025591850, -0.061376690864563, -0.036822758615017, 0.145974472165108, -0.115512281656265, 0.066642001271248, 0.077662736177444, 0.150999024510384, -0.039612472057343, 0.141929015517235, 0.151877209544182, 0.015244647860527, 0.014366090297699, -0.108593441545963, 0.112961694598198, -0.057471238076687, 0.031680420041084, 0.081967830657959, 0.101069137454033, -0.005259618163109, -0.065266959369183, 0.025140851736069, -0.007010817527771, -0.148278445005417, 0.014110818505287, -0.027771428227425, -0.057544417679310, 0.008469194173813, -0.121467694640160, -0.071197085082531, -0.061678327620029, -0.014051824808121, 0.145464047789574, 0.128692016005516, -0.040518850088120, 0.102700397372246, 0.147982433438301, -0.076845787465572, 0.044823691248894, 0.110012903809547, 0.114784166216850, -0.094902932643890, 0.114551112055779, -0.076585501432419, -0.005145370960236, 0.053972065448761, -0.016666635870934, -0.096693336963654, -0.000104501843452, 0.146073415875435, 0.133557066321373, -0.079720474779606, 0.135087713599205, -0.151795417070389, -0.085456416010857, 0.021568387746811, 0.132922098040581, 0.001549288630486, 0.105036929249763, -0.112145796418190, -0.057269170880318, 0.109721109271049, -0.150987669825554, -0.035139881074429, 0.152346566319466, 0.005066961050034, 0.104963138699532, 0.038207873702049, -0.081010796129704, -0.100956387817860, 0.004558950662613, -0.074789032340050, 0.105570718646049, 0.017362296581268, 0.014787822961807, 0.083191648125648, -0.119322210550308, 0.147707089781761, 0.078216731548309, -0.085133969783783, 0.078470230102539, -0.076168783009052, -0.120415508747101, -0.073473162949085, 0.125320747494698, 0.149941369891167, -0.100119508802891, 0.085872143507004, -0.081138618290424, -0.084456160664558, 0.125911697745323, 0.025935351848602, -0.106529384851456, -0.024481296539307, -0.022681578993797, 0.130111441016197, -0.088497683405876, 0.068613812327385, 0.061724618077278, -0.079374633729458, 0.055695861577988, 0.073087945580482, -0.078972838819027, -0.004420250654221, -0.001266345381737, 0.063884288072586, -0.049435928463936, 0.134715929627419, 0.060037285089493, -0.130996495485306, 0.119044080376625, -0.019329980015755, -0.148022323846817, 0.137276932597160, 0.113112196326256, -0.053873114287853, -0.082227893173695, 0.119534894824028, -0.137254863977432, -0.053240314126015, -0.129394680261612, 0.127457365393639, 0.095767810940742, -0.016988933086395, 0.151664569973946, 0.047115027904510, -0.117905274033546, -0.043364770710468, 0.106457695364952, 0.147939935326576, -0.008827298879623, -0.091220453381538, 0.088743731379509, 0.094510048627853, 0.063144803047180, -0.135099336504936, 0.116663679480553, 0.007985442876816, 0.132865145802498, 0.122484520077705, -0.024560034275055, 0.061760962009430, 0.071307390928268, -0.151255473494530, -0.069721885025501, -0.106273889541626, -0.060030236840248, -0.102195933461189, 0.058134555816650, 0.149954393506050, -0.069259323179722, 0.037751033902168, -0.005620524287224, 0.074403703212738, -0.135872259736061, 0.122522041201591, -0.117814972996712, -0.136056914925575, 0.016827672719955, -0.132409632205963, -0.121190659701824, -0.105913445353508, 0.125297293066978, 0.049392163753510, -0.065028794109821, -0.146287858486176, -0.005017474293709, 0.116761162877083, 0.009029939770699, -0.092020839452744, 0.119611725211143, 0.104042872786522, -0.039688505232334, 0.021041288971901, -0.035664208233356, -0.124209083616734, -0.046264499425888, 0.032008156180382, 0.072473347187042, 0.092994377017021, 0.006801560521126, -0.019871130585670, -0.115973606705666, 0.066569730639458, -0.141832023859024, -0.049055233597755, -0.087379716336727, -0.036468304693699, -0.009888067841530, 0.106329098343849, -0.076900102198124, -0.060708478093147, 0.018898591399193, -0.105954989790916, -0.107734888792038, 0.121637210249901, 0.041097491979599, 0.040849834680557, -0.082462482154369, -0.115429311990738, 0.000284075737000, 0.114000812172890, -0.054998017847538, -0.145875379443169, -0.031836457550526, -0.094898805022240, -0.043655566871166, -0.117559254169464, 0.004553437232971, 0.005232170224190, 0.121293678879738, -0.053891949355602, 0.037628576159477, -0.075363837182522, -0.019038230180740, -0.095552161335945, -0.123228617012501, 0.038903310894966, -0.064065009355545, -0.132005572319031, -0.073604270815849, -0.137118279933929, 0.040838986635208, 0.108974948525429, -0.037987373769283, 0.034336686134338, -0.007233768701553, 0.144993141293526, 0.125191524624825, -0.141964226961136, -0.147141277790070, 0.060119763016701, -0.030243150889874, 0.083318516612053, -0.055643267929554, 0.053330436348915, -0.101369425654411, 0.017405614256859, 0.088923245668411, -0.117936812341213, 0.117871031165123, -0.146674871444702, 0.116557940840721, 0.118390694260597, -0.043836824595928, -0.009032309055328, 0.014337033033371, -0.025253787636757, -0.063001386821270, 0.003667950630188, -0.016567200422287, 0.077164471149445, -0.094834461808205, 0.007126018404961, -0.131200671195984, 0.096751272678375, 0.060093820095062, -0.104073107242584, -0.142884537577629, -0.089002154767513, -0.119958564639091, -0.077789314091206, 0.015610650181770, 0.013713583350182, 0.032693967223167, 0.140356585383415, -0.000119313597679, 0.029051780700684, -0.122373454272747, 0.140108481049538, -0.146489277482033, -0.030412480235100, -0.050034530460835, 0.132428511977196, 0.149261757731438, -0.098000958561897, -0.098252303898335, -0.026953563094139, 0.018135771155357, 0.046401992440224, -0.083415322005749, -0.129472970962524, -0.092488735914230, -0.097931064665318, -0.066522859036922, 0.066040948033333, -0.035208538174629, 0.095403671264648, 0.086507365107536, -0.025695800781250, 0.015548735857010, 0.063111916184425, -0.063197106122971, 0.085478276014328, 0.085105285048485, 0.055132269859314, -0.042627356946468, 0.022213429212570, 0.139017805457115, -0.097050756216049, 0.011950582265854, -0.100268065929413, 0.066821694374084, 0.096855580806732, 0.064647406339645, -0.100232839584351, -0.021157979965210, -0.073198974132538, 0.037934258580208, 0.062990218400955, 0.029513105750084, 0.001173481345177, -0.140783011913300, 0.125117763876915, 0.127782419323921, -0.145173832774162, 0.129383072257042, 0.138583973050117, -0.069205664098263, 0.086062163114548, -0.052854508161545, 0.127357318997383, 0.074832245707512, -0.013277798891068, -0.060385711491108, 0.040747225284576, -0.095449596643448, -0.049760632216930, 0.041574656963348, -0.018308088183403, 0.138102933764458, -0.117720142006874, 0.089881628751755, -0.080913662910461, -0.081656046211720, -0.039099574089050, -0.026478767395020, 0.130140945315361, 0.052450925111771, 0.052844315767288, 0.148575916886330, 0.142731145024300, 0.120672270655632, -0.135951802134514, 0.126728698611259, 0.098269537091255, -0.083545073866844, 0.056967139244080, -0.078965686261654, -0.012364059686661, -0.056665346026421, 0.085317015647888, -0.036468125879765, -0.067150339484215, 0.129911676049232, -0.027370944619179, -0.039132311940193, -0.102020114660263, 0.086854040622711, 0.139284864068031, -0.137695640325546, -0.091097123920918, 0.057041630148888, 0.111215606331825, -0.077729128301144, 0.080818325281143, 0.017674624919891, -0.030804708600044, 0.142146185040474, 0.117226347327232, 0.124196782708168, -0.109186500310898, 0.003310754895210, 0.030878007411957, 0.016823917627335, -0.143491730093956, 0.116036459803581, 0.034778058528900, 0.078313127160072, -0.114017054438591, -0.049938134849072, -0.016885012388229, 0.053269982337952, -0.141615644097328, -0.087557181715965, -0.095164641737938, 0.152801290154457, 0.047567814588547, -0.021601870656013, -0.068297646939754, -0.074554808437824, -0.140854358673096, -0.149257555603981, 0.034414872527122, -0.071915149688721, 0.112167432904243, -0.111151784658432, -0.055364154279232, 0.150360003113747, -0.030144602060318, -0.040566913783550, 0.037122830748558, 0.140152677893639, -0.103677809238434, 0.001849547028542, 0.088998362421989, 0.058269023895264, 0.119052365422249, 0.062245726585388, -0.045957051217556, 0.120593830943108, 0.139095559716225, -0.098306611180305, -0.137186020612717, 0.140864178538322, 0.055158913135529, -0.119758173823357, -0.086636498570442, -0.141999930143356, -0.068349733948708, -0.023098081350327, -0.111111342906952, 0.151769116520882, -0.118806719779968, 0.018391340970993, -0.053860120475292, 0.040448516607285, 0.048018738627434, 0.127419427037239, -0.112796992063522, -0.146251365542412, 0.001450777053833, -0.075142830610275, 0.086343228816986, 0.000319600105286, -0.138572618365288, 0.016935124993324, -0.150500938296318, -0.100911676883698, 0.130671158432961, 0.075183600187302, -0.096993848681450, 0.091241449117661, 0.032525405287743, -0.112566418945789, 0.097311809659004, 0.024615585803986, 0.073290839791298, -0.003021702170372, 0.019245043396950, 0.076244994997978, 0.148862257599831, 0.006060495972633, -0.062126114964485, 0.107532128691673, 0.021594852209091, 0.122263595461845, -0.048807434737682, 0.124087408185005, -0.040633313357830, -0.020988985896111, -0.076035812497139, -0.143223524093628, -0.039399385452271, 0.038092792034149, 0.145640298724174, 0.051073834300041, 0.107238963246346, 0.088830962777138, -0.010265722870827, 0.055506244301796, 0.027912214398384, -0.120966732501984, 0.050053581595421, 0.090858042240143, 0.124144509434700, -0.053340323269367, 0.084159478545189, -0.024737641215324, 0.044672384858131, 0.096619069576263, 0.116488441824913, -0.092081204056740, -0.051022008061409, 0.022452354431152, 0.110122665762901, -0.109583690762520, 0.086631134152412, -0.063002415001392, 0.059934899210930, -0.001609519124031, -0.102726794779301, 0.130269393324852, -0.006113171577454, 0.082731306552887, -0.134652823209763, 0.131010457873344, 0.002909064292908, -0.060588069260120, -0.007842913269997, -0.140453085303307, -0.131011739373207, -0.131738096475601, 0.071353778243065, 0.043799445033073, 0.016796201467514, 0.080825880169868, 0.042112261056900, 0.110552325844765, 0.052485778927803, 0.070583075284958, -0.114305585622787, -0.118279621005058, 0.138400778174400, 0.151069566607475, 0.129229351878166, -0.030869968235493, -0.059076741337776, 0.135228112339973, 0.030759736895561, 0.066583380103111, 0.108755931258202, -0.140934512019157, 0.032279789447784, -0.025481328368187, 0.067309737205505, 0.134823098778725, 0.092852011322975, -0.011382713913918, -0.129457890987396, -0.061887256801128, -0.030591472983360, -0.072107546031475, -0.135136634111404, 0.095987096428871, -0.027951955795288, -0.068656697869301, 0.003351703286171, -0.120482012629509, 0.130353704094887, -0.113371796905994, -0.038030587136745, -0.098935261368752, 0.111662939190865, -0.077045731246471, -0.012998387217522, -0.047173060476780, -0.060187332332134, 0.001714274287224, 0.115146681666374, 0.033924087882042, -0.019072577357292, -0.137724608182907, -0.054079197347164, 0.126314863562584, -0.148487433791161, -0.024465158581734, 0.098133102059364, -0.061486557126045, -0.059320777654648, 0.040970101952553, 0.121510669589043, -0.152410998940468, 0.119459792971611, 0.114502176642418, -0.096054509282112, -0.130522683262825, -0.041864685714245, 0.129161790013313, -0.089304447174072, 0.081210017204285, -0.088649928569794, -0.139785349369049, 0.051353871822357, -0.092946626245975, 0.044206276535988, 0.064219251275063, -0.063155673444271, 0.053813725709915, 0.026308536529541, -0.146715238690376, 0.150559380650520, 0.000543996691704, -0.043165221810341, -0.078668281435966, 0.025094687938690, -0.128162175416946, 0.031033933162689, 0.127109512686729, 0.064524844288826, -0.131057664752007, -0.054815441370010, 0.104225739836693, -0.141092896461487, -0.142423689365387, -0.030329838395119, -0.103182569146156, -0.112377017736435, 0.027377232909203, -0.047875948250294, -0.095246613025665, -0.152084574103355, 0.076654046773911, -0.070398055016994, 0.006001144647598, 0.014739200472832, 0.044133648276329, 0.102694615721703, -0.084489628672600, -0.015421792864799, -0.141651451587677, 0.057507485151291, 0.125256374478340, 0.015937909483910, -0.136624529957771, -0.010292783379555, -0.111743152141571, -0.060664825141430, -0.004791423678398, 0.031141355633736, -0.029514975845814, -0.133694365620613, 0.080928891897202, 0.029601886868477, 0.144972369074821, -0.048067353665829, -0.113977879285812, -0.070784740149975, 0.125857844948769, 0.131555899977684, 0.105128899216652, -0.117490381002426, 0.068117961287498, 0.117876365780830, 0.127882257103920, -0.026824101805687, -0.041780948638916, 0.152072861790657, 0.023885577917099, -0.135808855295181, 0.103062525391579, -0.148237630724907, -0.053582280874252, 0.133676812052727, 0.139362826943398, 0.039830595254898, 0.101415112614632, -0.103213526308537, -0.092110224068165, 0.046155616641045, -0.063007555902004, -0.090798221528530, 0.036331325769424, 0.037091180682182, 0.108083531260490, -0.127721071243286, 0.061093673110008, -0.086370632052422, -0.122691549360752, -0.042941443622112, 0.076017305254936, -0.125337153673172, 0.137487903237343, -0.137965261936188, -0.089515276253223, 0.066637575626373, -0.025339454412460, -0.132887378334999, -0.095166645944118, -0.133318528532982, -0.022095456719398, 0.036301210522652, -0.151340961456299, 0.137963667511940, 0.001345217227936, -0.132989466190338, -0.120989978313446, -0.031873255968094, -0.075019352138042, 0.105746820569038, -0.152779728174210, -0.083653114736080, -0.119071528315544, 0.008563801646233, 0.096779629588127, -0.120919898152351, 0.060779944062233, -0.034190252423286, 0.131978139281273, -0.007176637649536, 0.034499257802963, 0.063206955790520, 0.081673815846443, 0.143056049942970, 0.017896801233292, 0.014134749770164, 0.011658936738968, -0.133556619286537, -0.082340426743031, 0.054763317108154, -0.024592876434326, 0.112765684723854, -0.006162852048874, 0.046891197562218, 0.126906886696815, 0.016176804900169, -0.037490054965019, 0.147232308983803, 0.111200347542763, -0.092593595385551, -0.151835903525352, 0.071579381823540, -0.074401251971722, 0.022522032260895, -0.128185778856277, -0.021862074732780, 0.097384288907051, 0.126775994896889, 0.042911991477013, -0.140503153204918, 0.117068573832512, -0.133499205112457, -0.004812449216843, 0.095262095332146, 0.109635129570961, -0.137383118271828, 0.147083237767220, 0.048380196094513, 0.042099565267563, 0.044943511486053, -0.113831222057343, -0.135573223233223, -0.093635901808739, 0.003955975174904, -0.027197793126106, -0.130032658576965, 0.062407016754150, 0.145333603024483, -0.018311992287636, -0.015366241335869, -0.046704977750778, -0.032191060483456, 0.128784313797951, -0.001158922910690, 0.145849630236626, 0.110433742403984, -0.013354420661926, -0.150454223155975, -0.029709771275520, -0.041573449969292, -0.089854836463928, 0.018057659268379, 0.026120856404305, 0.068763762712479, 0.120894685387611, -0.144376561045647, -0.052595570683479, 0.030940860509872, -0.097213178873062, -0.019667461514473, -0.111126527190208, -0.090725257992744, -0.028460115194321, 0.126099839806557, -0.083984687924385, -0.095117188990116, -0.066264331340790, -0.072242446243763, 0.019702568650246, -0.110049724578857, -0.015487343072891, 0.043480396270752, -0.047509044408798, 0.140841141343117, 0.043698310852051, -0.113349094986916, -0.004407078027725, 0.062026977539062, 0.091157019138336, 0.047666579484940, 0.037558749318123, -0.045559637248516, -0.096360422670841, 0.109421893954277, -0.096835985779762, 0.054232791066170, -0.075375005602837, -0.084344580769539, -0.116578996181488, -0.137205585837364, 0.067451506853104, 0.003176793456078, -0.070745572447777, -0.129285827279091, -0.009216606616974, 0.136635109782219, 0.143665358424187, -0.141174256801605, 0.068946957588196, -0.083217851817608, 0.080126211047173, -0.047377280890942, -0.069206029176712, -0.095453865826130, -0.134470507502556, 0.014991998672485, 0.080348938703537, 0.056342065334320, -0.067460186779499, -0.127175822854042, 0.089376941323280, -0.122439190745354, -0.017981410026550, 0.087946534156799, -0.127718687057495, -0.097924202680588, 0.018024802207947, -0.053933814167976, -0.022585108876228, 0.031726628541946, 0.058008596301079, -0.019541576504707, -0.085731223225594, 0.075536370277405, -0.011641830205917, 0.013181000947952, -0.077377632260323, 0.105331733822823, 0.073118999600410, -0.120132341980934, 0.115065380930901, -0.148870289325714, 0.117042109370232, -0.082844272255898, 0.041861832141876, 0.102399095892906, -0.074919670820236, -0.115189030766487, 0.145090982317924, 0.068104088306427, -0.130648091435432, -0.103629231452942, 0.052399709820747, -0.063615836203098, 0.070250734686852, -0.128180235624313, 0.045357093214989, 0.049748256802559, 0.112795397639275, 0.075730443000793, -0.146811753511429, -0.112210251390934, 0.058378085494041, 0.130184456706047, -0.143684878945351, 0.119397416710854, -0.058642312884331, 0.030281513929367, -0.080353312194347, -0.105123981833458, -0.072182402014732, 0.086043342947960, 0.015636637806892, 0.017939463257790, 0.038714528083801, -0.021617010235786, 0.134723171591759, -0.085868097841740, -0.011936560273170, -0.088516078889370, 0.012570545077324, -0.042479276657104, 0.121612533926964, -0.030927456915379, 0.084890738129616, 0.116352841258049, 0.140568122267723, 0.010257080197334, -0.152351975440979, -0.092007696628571, 0.116777643561363, 0.114705637097359, 0.125953242182732, -0.099088519811630, 0.109005197882652, -0.041424743831158, -0.066129609942436, 0.054639399051666, 0.063900426030159, -0.079163260757923, -0.084261544048786, -0.081710867583752, 0.107134267687798, -0.115737304091454, -0.135088637471199, -0.071194931864738, 0.002795040607452, 0.080847159028053, 0.000386431813240, 0.125881806015968, -0.111751660704613, 