//Numpy array shape [64, 192]
//Min -0.153052195907
//Max 0.153079643846
//Number of zeros 0

#ifndef W3_H_
#define W3_H_

#ifndef __SYNTHESIS__
decodergru_weight_t w3[12288];
#else
decodergru_weight_t w3[12288] = {0.112278446555138, -0.086175248026848, 0.120328888297081, -0.021348670125008, -0.094540297985077, 0.034474045038223, -0.115622773766518, 0.034209713339806, -0.116371788084507, -0.061154991388321, -0.081116132438183, 0.104769781231880, -0.133327066898346, 0.041623964905739, -0.076873600482941, 0.024389386177063, -0.129460155963898, -0.124589309096336, 0.028918266296387, -0.119281150400639, -0.125169217586517, 0.128005549311638, 0.125554993748665, -0.000888153910637, -0.034284166991711, -0.047123454511166, -0.077886082231998, 0.111131474375725, -0.071779884397984, -0.064500890672207, -0.030766054987907, -0.062884002923965, 0.019020751118660, -0.099452212452888, 0.001102417707443, -0.062751293182373, 0.102968946099281, 0.013833001255989, 0.083954617381096, 0.124336257576942, -0.044574022293091, -0.146113067865372, 0.067269295454025, 0.047394946217537, -0.136536568403244, -0.097041219472885, -0.053213119506836, -0.071273691952229, -0.035754613578320, -0.116576850414276, -0.030735507607460, 0.035632297396660, 0.061371400952339, -0.134939357638359, 0.102870509028435, -0.092869646847248, 0.047603800892830, -0.118262171745300, -0.148785978555679, 0.098689571022987, -0.022604346275330, -0.008966535329819, 0.134914889931679, -0.074850752949715, 0.032405823469162, 0.059675335884094, -0.087634451687336, -0.003851354122162, -0.059646070003510, -0.011499986052513, 0.059952020645142, 0.003343567252159, 0.102220430970192, -0.101114213466644, -0.073145173490047, -0.038048438727856, 0.045061483979225, 0.074684351682663, 0.041150301694870, 0.049159988760948, -0.151490613818169, -0.088294416666031, 0.107716843485832, -0.135305225849152, 0.143976196646690, -0.069923005998135, 0.055368855595589, 0.012584701180458, -0.085255257785320, -0.005249142646790, -0.099864184856415, 0.065264701843262, -0.134184315800667, -0.070715606212616, 0.145910814404488, 0.126906916499138, 0.041878074407578, -0.033177264034748, -0.038346275687218, -0.020160794258118, 0.054882675409317, 0.004095539450645, -0.055692434310913, -0.083121091127396, -0.041300356388092, 0.008770018815994, -0.004277497529984, 0.051534771919250, -0.116900749504566, 0.034526377916336, -0.109141051769257, -0.009985953569412, 0.110349789261818, -0.023251280188560, 0.113559082150459, 0.151842370629311, 0.098609134554863, 0.111587122082710, -0.119698718190193, -0.092639401555061, -0.100027158856392, -0.003388643264771, -0.142937183380127, -0.027804642915726, -0.026998132467270, -0.136258140206337, 0.082730680704117, -0.141491800546646, -0.055286586284637, 0.019580841064453, 0.057078570127487, -0.101441726088524, -0.075327232480049, -0.083044476807117, -0.127484470605850, 0.034773409366608, -0.000349566340446, -0.089893378317356, 0.053896799683571, 0.130719169974327, 0.131714269518852, -0.007269352674484, 0.006185337901115, 0.143060937523842, -0.110362276434898, -0.060301721096039, -0.116838231682777, 0.055418059229851, -0.013183593750000, 0.126092657446861, 0.037674084305763, -0.061134696006775, -0.055252939462662, -0.104316964745522, 0.138308003544807, 0.035954341292381, 0.115837380290031, -0.082962349057198, -0.088179625570774, 0.135178133845329, 0.116197034716606, -0.120154708623886, -0.080775365233421, -0.038597911596298, 0.045592486858368, 0.073914080858231, 0.041533559560776, 0.105913624167442, 0.114973947405815, -0.006077766418457, -0.058389365673065, 0.037221044301987, -0.079248301684856, 0.029408022761345, 0.059053093194962, -0.128646567463875, -0.119160883128643, 0.104274526238441, 0.071493536233902, 0.033192992210388, -0.123830646276474, -0.108671262860298, 0.124782785773277, -0.061382092535496, 0.121953502297401, -0.050142206251621, -0.076797969639301, -0.072930328547955, -0.051667369902134, -0.036367602646351, 0.034225180745125, 0.128479018807411, -0.007247820496559, -0.137027502059937, 0.054501175880432, -0.028947502374649, 0.047220140695572, -0.148900657892227, 0.003922358155251, -0.138909518718719, -0.034437976777554, 0.151813969016075, -0.016931623220444, 0.088883936405182, 0.120623305439949, 0.004504829645157, 0.117610976099968, -0.039639011025429, 0.077679783105850, 0.117701485753059, 0.093570381402969, -0.033915586769581, 0.015350982546806, 0.050426185131073, -0.142350584268570, 0.114948436617851, -0.060396112501621, 0.102712199091911, -0.078662805259228, 0.032546237111092, -0.017379954457283, 0.074379682540894, 0.033094555139542, -0.038664996623993, -0.142988711595535, 0.110555514693260, -0.143507197499275, 0.073816746473312, 0.025816619396210, -0.006030574440956, 0.066397041082382, -0.010322704911232, -0.015512496232986, 0.147056952118874, -0.150514811277390, 0.096239358186722, -0.110367059707642, -0.125265330076218, 0.045783564448357, -0.023528963327408, -0.143797159194946, 0.135631009936333, -0.145076423883438, 0.025498852133751, 0.117238149046898, -0.047469116747379, -0.045565299689770, 0.063126549124718, 0.035480022430420, 0.032817363739014, -0.028606772422791, -0.064713723957539, -0.070168651640415, 0.134105786681175, -0.142529547214508, 0.131057247519493, 0.118294730782509, -0.001820698380470, -0.058169052004814, -0.104924798011780, 0.096809148788452, -0.094664916396141, -0.032369732856750, 0.073071479797363, -0.116146072745323, 0.060056254267693, -0.012318029999733, 0.014511585235596, -0.027730107307434, 0.017408907413483, -0.106588333845139, 0.051151663064957, 0.089863926172256, 0.103850796818733, -0.122791014611721, 0.087207257747650, 0.022531241178513, -0.069521136581898, -0.047014355659485, -0.147682934999466, 0.032851353287697, -0.052204690873623, 0.098241135478020, 0.089939817786217, 0.015473842620850, -0.141192644834518, 0.068575128912926, 0.100353077054024, 0.007368892431259, -0.066934950649738, 0.023129656910896, -0.076461255550385, -0.010505616664886, -0.031479343771935, 0.097799494862556, -0.049211673438549, -0.117362990975380, -0.108177192509174, 0.012458622455597, -0.014049604535103, -0.128618866205215, 0.108166739344597, -0.035401292145252, 0.074145719408989, 0.107269868254662, 0.031031489372253, 0.038358792662621, -0.059997275471687, 0.124527141451836, -0.060883350670338, -0.096487879753113, -0.120703056454659, -0.132496535778046, 0.110549941658974, 0.072712674736977, 0.019696921110153, 0.137169256806374, -0.117193043231964, 0.017908483743668, 0.147404327988625, 0.118828251957893, 0.142631307244301, -0.051493957638741, -0.013034969568253, -0.097927048802376, 0.035360708832741, 0.122387871146202, 0.041828185319901, -0.080219686031342, -0.113252848386765, -0.046881459653378, 0.145758733153343, 0.066567212343216, -0.087565138936043, 0.113883540034294, 0.120796069502831, 0.052402883768082, -0.137969136238098, -0.070019327104092, -0.042874209582806, 0.034983947873116, 0.009628802537918, -0.113128960132599, -0.023341357707977, 0.142514541745186, 0.139819249510765, -0.026621639728546, 0.033760502934456, -0.064671382308006, 0.143860295414925, -0.128175124526024, 0.000110998749733, -0.049690775573254, -0.082181431353092, 0.029918402433395, 0.104062095284462, 0.032606586813927, 0.112989321351051, -0.146334692835808, -0.096558727324009, 0.027158513665199, -0.123988479375839, 0.100050583481789, -0.014071434736252, 0.072290003299713, -0.137801408767700, -0.093020468950272, -0.125389099121094, 0.048131123185158, 0.011361062526703, -0.056714445352554, 0.073476478457451, 0.039299592375755, 0.069966256618500, -0.014957100152969, -0.075510129332542, -0.112665742635727, -0.009053885936737, 0.115435764193535, -0.085744105279446, -0.061124362051487, 0.002557024359703, -0.030581980943680, 0.002795621752739, -0.096135541796684, -0.002749130129814, -0.024748191237450, -0.042686410248280, 0.136028006672859, -0.018682181835175, -0.138111948966980, -0.056532233953476, -0.049984633922577, 0.097752168774605, -0.151761472225189, 0.061496049165726, 0.014201074838638, -0.115450263023376, -0.115720301866531, -0.095355063676834, -0.125785559415817, -0.048634491860867, 0.004941761493683, 0.143264099955559, -0.011598601937294, 0.028734818100929, -0.001747563481331, 0.088557288050652, 0.152899965643883, 0.087400704622269, 0.029333531856537, -0.018466308712959, 0.038365036249161, -0.103168159723282, -0.035401254892349, 0.104873314499855, -0.074895612895489, -0.147545292973518, -0.026718363165855, 0.147962167859077, -0.007126525044441, 0.024531260132790, -0.108201101422310, 0.129058286547661, -0.040237866342068, 0.075103923678398, -0.088913135230541, -0.128653824329376, 0.106155857443810, 0.012806773185730, -0.117070332169533, 0.131664946675301, -0.052967183291912, 0.116019412875175, -0.007081776857376, -0.088564954698086, 0.128425702452660, 0.123769983649254, 0.063245072960854, 0.084816157817841, -0.001196846365929, -0.054690867662430, -0.077437855303288, 0.051105737686157, -0.024801000952721, -0.035053409636021, 0.146516755223274, -0.117645576596260, 0.029584437608719, 0.109778121113777, 0.035857468843460, -0.075690478086472, 0.038094177842140, -0.094663783907890, -0.003474161028862, -0.138419941067696, -0.036599375307560, -0.014323100447655, -0.045172259211540, -0.099282890558243, -0.122291214764118, -0.051583528518677, 0.082090914249420, -0.052594661712646, -0.028926990926266, -0.077383399009705, 0.123862966895103, -0.020130395889282, 0.078684955835342, -0.044741526246071, -0.042464636266232, 0.090126186609268, 0.041007369756699, 0.039770439267159, -0.065714195370674, 0.092815771698952, -0.135945960879326, -0.109138242900372, -0.049443669617176, -0.138079360127449, -0.029452085494995, -0.137295484542847, 0.049118891358376, 0.055864825844765, 0.096535518765450, -0.065408401191235, 0.112317010760307, 0.080779343843460, -0.115976125001907, -0.070979282259941, 0.092261552810669, 0.130764350295067, 0.036544412374496, -0.019229680299759, 0.135533586144447, 0.149040177464485, 0.086963549256325, -0.085927702486515, 0.104697510600090, -0.045760393142700, -0.149490460753441, -0.122564457356930, -0.065841987729073, 0.004728674888611, -0.019644066691399, 0.126984491944313, 0.136289313435555, -0.092500887811184, -0.022680088877678, -0.035334460437298, 0.085294529795647, -0.046376220881939, 0.097252383828163, -0.047565110027790, 0.051278308033943, 0.001419380307198, 0.048499003052711, -0.081788614392281, 0.110582754015923, -0.009399250149727, -0.129822865128517, -0.075439251959324, -0.099940150976181, 0.051113769412041, 0.007793456315994, -0.140457928180695, -0.027772739529610, -0.064390480518341, -0.069421567022800, 0.082418426871300, -0.108455538749695, -0.026313900947571, -0.148071736097336, -0.044247090816498, -0.026368319988251, 0.120062246918678, 0.134135320782661, -0.128249913454056, 0.098898872733116, -0.041802085936069, -0.082375720143318, -0.076099790632725, 0.138302490115166, -0.039853736758232, 0.031920850276947, 0.022943869233131, 0.018492341041565, 0.079814165830612, -0.121403753757477, -0.051134027540684, 0.124158427119255, 0.092267617583275, 0.084586828947067, 0.111561462283134, -0.104968018829823, 0.064381316304207, -0.062789686024189, -0.139024168252945, 0.140922412276268, 0.108768269419670, 0.115334168076515, 0.017912641167641, -0.071800500154495, -0.044068492949009, -0.132195994257927, -0.119786716997623, 0.135474070906639, -0.021742239594460, 0.069599568843842, 0.108888432383537, 0.122015193104744, -0.142044812440872, -0.083699032664299, 0.052207216620445, 0.044162258505821, 0.098321989178658, 0.021618977189064, -0.009826451539993, 0.149403646588326, -0.145626008510590, -0.081598557531834, -0.137907594442368, -0.031925268471241, -0.054154604673386, 0.106183663010597, -0.149672642350197, -0.045499630272388, -0.134485691785812, 0.036160647869110, 0.122188493609428, -0.012022450566292, -0.028184868395329, 0.047307640314102, -0.108109772205353, 0.007702469825745, -0.115150421857834, 0.007405027747154, -0.073680557310581, -0.009722679853439, 0.031719580292702, 0.120862707495689, -0.102385371923447, -0.034411117434502, -0.103046357631683, 0.151257380843163, 0.125106707215309, 0.152568355202675, -0.030629582703114, 0.071989178657532, 0.106741026043892, -0.046864412724972, -0.052000731229782, -0.081560961902142, -0.104502275586128, -0.053938671946526, 0.102720841765404, -0.135151311755180, -0.077335655689240, -0.143813371658325, -0.123113930225372, -0.053575821220875, -0.003094494342804, 0.099717959761620, 0.047809183597565, 0.034121304750443, -0.062269814312458, -0.133379772305489, -0.087149001657963, -0.062958389520645, -0.059404037892818, 0.118469610810280, 0.112640365958214, -0.066989623010159, 0.148874238133430, -0.136027604341507, -0.002613410353661, -0.113804034888744, 0.015796899795532, 0.080351814627647, 0.058049470186234, -0.114430487155914, 0.128943517804146, -0.043896175920963, 0.114795699715614, 0.147410169243813, 0.044618666172028, -0.063248753547668, 0.031939178705215, 0.075803041458130, 0.000860854983330, 0.040352255105972, -0.068178325891495, -0.054081827402115, -0.070512115955353, -0.138772651553154, 0.056255191564560, 0.004471346735954, 0.078473076224327, -0.107130289077759, 0.123458668589592, 0.143893346190453, 0.076169833540916, -0.088279746472836, 0.152346804738045, 0.131129309535027, 0.115258231759071, 0.100042536854744, 0.112398162484169, 0.100871816277504, 0.110205426812172, -0.076175056397915, -0.015908703207970, -0.069357685744762, -0.071179233491421, 0.064907252788544, 0.002949729561806, -0.029553659260273, -0.090589188039303, -0.123282708227634, 0.128355398774147, -0.102273389697075, -0.114253535866737, -0.024360477924347, 0.082287609577179, -0.152485460042953, -0.083195768296719, 0.121413722634315, -0.055052436888218, 0.055724442005157, 0.141766980290413, 0.120690569281578, -0.021292999386787, -0.018771931529045, -0.074249781668186, -0.006529524922371, 0.110197588801384, 0.054153323173523, -0.141974076628685, -0.032251611351967, -0.114054575562477, -0.038450084626675, 0.097753599286079, -0.144270420074463, 0.115529522299767, 0.026396796107292, 0.042883992195129, -0.122061267495155, 0.044451639056206, -0.080642253160477, 0.065111905336380, -0.030604466795921, 0.029588997364044, 0.037927985191345, -0.094056271016598, -0.078240171074867, 0.000233605504036, 0.027036905288696, -0.007856205105782, -0.108529567718506, 0.132689014077187, 0.083593845367432, -0.097346402704716, 0.141492381691933, -0.148358672857285, 0.067172124981880, -0.028035476803780, -0.109533689916134, 0.130913957953453, -0.046122252941132, 0.059953212738037, 0.034248575568199, 0.133237227797508, -0.141598194837570, 0.072110459208488, -0.050314158201218, -0.014150485396385, -0.014444708824158, -0.089327447116375, -0.075992450118065, 0.146865591406822, -0.067611299455166, 0.000542506575584, 0.105321332812309, 0.042608484625816, 0.094766601920128, -0.008656218647957, -0.079839281737804, -0.120713964104652, 0.007173240184784, -0.014960393309593, 0.143309101462364, -0.010190173983574, 0.054342254996300, 0.060507103800774, 0.149492576718330, -0.007196903228760, 0.001644626259804, -0.142337188124657, -0.082172811031342, -0.013305693864822, -0.144182711839676, -0.050337120890617, -0.068867340683937, 0.015544831752777, 0.123157903552055, 0.076761946082115, -0.104263782501221, -0.116033941507339, 0.138546988368034, 0.013349965214729, -0.097127914428711, 0.074100598692894, -0.115284375846386, 0.041335508227348, -0.128734976053238, 0.017467483878136, 0.000295475125313, -0.083315417170525, 0.097124949097633, -0.129821538925171, -0.056110695004463, -0.098928764462471, 0.134751245379448, 0.008501961827278, 0.137081161141396, -0.151284486055374, 0.013195127248764, -0.071031846106052, 0.118389949202538, 0.149638429284096, 0.074052527546883, 0.018765464425087, 0.136140182614326, -0.022054910659790, 0.103525742888451, -0.094933994114399, 0.072852149605751, 0.098397508263588, -0.006237268447876, 0.049461483955383, 0.043803170323372, 0.117931798100471, 0.035825312137604, 0.006850942969322, -0.001072302460670, 0.093255311250687, -0.148585706949234, -0.052772454917431, -0.011337369680405, -0.011549413204193, 0.137477025389671, 0.073147475719452, 0.152259841561317, 0.108316227793694, -0.092476755380630, 0.025715440511703, -0.107147306203842, -0.133999988436699, -0.121125727891922, 0.045843392610550, -0.134917497634888, 0.011866733431816, -0.113177254796028, -0.076758220791817, 0.066344335675240, -0.011128559708595, -0.030199170112610, 0.010217949748039, -0.143910452723503, 0.131105378270149, 0.036632731556892, -0.086540393531322, -0.145025134086609, 0.089720770716667, 0.014087229967117, 0.021833270788193, 0.006109267473221, -0.030932568013668, -0.108490034937859, 0.045325264334679, 0.110628888010979, 0.086491450667381, 0.062123700976372, 0.095136791467667, -0.050339125096798, 0.092878296971321, 0.020157471299171, 0.064858883619308, -0.078253671526909, -0.139210835099220, 0.060285180807114, 0.116196468472481, 0.085982561111450, 0.148645147681236, -0.105327069759369, -0.084609314799309, -0.006828531622887, 0.006147414445877, -0.146941721439362, 0.089372381567955, -0.047152765095234, 0.090005397796631, 0.027535423636436, -0.117128148674965, -0.115180201828480, 0.014077380299568, -0.056087769567966, -0.010657638311386, 0.063049137592316, -0.061990074813366, -0.022552549839020, 0.136528834700584, 0.081383347511292, 0.145526871085167, 0.111509129405022, 0.023749902844429, 0.078915342688560, -0.059296652674675, 0.065434306859970, -0.004054889082909, -0.042997322976589, 0.048465237021446, -0.047515615820885, -0.019278079271317, -0.038381613790989, -0.030794560909271, 0.081221759319305, -0.061050087213516, -0.017905890941620, 0.120337262749672, 0.091966122388840, 0.122823938727379, 0.067988023161888, -0.067603886127472, 0.072008594870567, 0.085084736347198, 0.089257284998894, -0.085183575749397, -0.064830563962460, 0.050738811492920, 0.127097889780998, 0.031844019889832, -0.011350661516190, 0.108899757266045, 0.151510193943977, 0.057700574398041, 0.051508411765099, -0.145558848977089, 0.110331133008003, -0.048235766589642, 0.141557738184929, 0.012652441859245, -0.083952568471432, 0.007423534989357, -0.141977220773697, 0.021097183227539, -0.002381563186646, 0.105040624737740, -0.060320705175400, -0.069017723202705, -0.116572760045528, 0.075317263603210, -0.145172119140625, -0.084115281701088, 0.047460421919823, 0.002656713128090, 0.109663382172585, -0.117622472345829, 0.054025903344154, -0.152324125170708, -0.119573771953583, -0.125457167625427, -0.124472394585609, -0.102780632674694, 0.049446806311607, 0.101433083415031, 0.060917004942894, 0.057151675224304, 0.017366230487823, -0.057876393198967, 0.150565341114998, -0.025000587105751, -0.047436445951462, 0.137036994099617, -0.026409745216370, 0.118622496724129, -0.149134188890457, -0.005286365747452, 0.047060281038284, -0.129770591855049, -0.057245776057243, -0.055455148220062, 0.082090839743614, 0.122628465294838, -0.078566588461399, 0.029065400362015, -0.003321707248688, 0.113171771168709, -0.074210323393345, -0.030763387680054, 0.082675561308861, 0.022721990942955, -0.072730891406536, -0.026750370860100, -0.142572760581970, 0.049377411603928, 0.108849808573723, -0.019414484500885, 0.113736137747765, -0.016250669956207, 0.109869375824928, -0.058657713234425, -0.057222120463848, 0.123464003205299, -0.100998543202877, -0.016247287392616, 0.088906273245811, 0.012163311243057, -0.128566950559616, 0.139078482985497, -0.025491625070572, 0.075236454606056, -0.049781844019890, 0.128257617354393, -0.144224107265472, 0.146402999758720, 0.066738322377205, -0.113489508628845, 0.113827124238014, -0.064078986644745, -0.089829139411449, -0.007830247282982, -0.109468057751656, -0.127941459417343, 0.060509219765663, -0.030484780669212, 0.051740258932114, -0.016161397099495, 0.089011579751968, -0.010434508323669, 0.102802142500877, -0.083247341215611, -0.114657953381538, -0.120464310050011, -0.019705131649971, 0.093752875924110, -0.097464367747307, -0.088776513934135, 0.073273733258247, -0.050150386989117, -0.052555970847607, -0.094730287790298, -0.014045953750610, -0.108072876930237, -0.061233758926392, 0.063743069767952, -0.086575038731098, 0.006714358925819, -0.032841533422470, 0.138555154204369, -0.074792355298996, 0.069461748003960, -0.151521518826485, 0.141363576054573, -0.015983998775482, 0.007006987929344, 0.067837044596672, -0.057470180094242, -0.032636396586895, -0.030443280935287, 0.097137466073036, 0.074364498257637, -0.046972855925560, -0.014599725604057, 0.127727940678596, 0.114006891846657, 0.142000690102577, -0.087963394820690, 0.085306689143181, -0.105502419173717, -0.057119451463223, -0.054410584270954, -0.121095322072506, -0.090329155325890, -0.030525445938110, 0.026420146226883, -0.082957789301872, 0.028073325753212, 0.123436048626900, -0.142507091164589, 0.099138781428337, 0.013970509171486, 0.014775812625885, -0.144677832722664, 0.137753412127495, -0.130041092634201, -0.030658490955830, -0.009681180119514, -0.083079479634762, -0.096950121223927, -0.113521337509155, -0.139660626649857, -0.038463696837425, 0.016439706087112, -0.011756435036659, -0.130706816911697, -0.128658577799797, -0.048810347914696, 0.123045250773430, 0.040408432483673, -0.100781664252281, 0.059977814555168, -0.064844578504562, -0.093884065747261, -0.076458737254143, -0.152463346719742, 0.086211562156677, 0.146821931004524, -0.073299169540405, -0.047476232051849, -0.041424453258514, 0.061876162886620, -0.012791663408279, -0.038925796747208, -0.013231232762337, -0.135656908154488, -0.016975164413452, 0.021848097443581, 0.072257488965988, -0.050000295042992, 0.112316027283669, -0.118932865560055, -0.106444194912910, 0.149471595883369, 0.097323194146156, -0.029964983463287, 0.146795079112053, -0.124720565974712, -0.147575780749321, 0.027242943644524, -0.031280122697353, -0.065723612904549, 0.141209438443184, -0.110576823353767, 0.102561727166176, -0.146848037838936, -0.000929400324821, -0.139941424131393, 0.024594336748123, -0.147519484162331, 0.059606060385704, 0.072908401489258, -0.068259105086327, -0.118051238358021, 0.049970433115959, 0.024701654911041, 0.129503414034843, -0.046353481709957, 0.144945070147514, -0.036460094153881, -0.132520049810410, 0.021969318389893, 0.031560048460960, 0.059980005025864, 0.040564909577370, -0.069350719451904, 0.019366219639778, 0.134900882840157, 0.044686913490295, 0.088094875216484, -0.068759046494961, 0.081403866410255, 0.045516207814217, 0.081497639417648, 0.053156256675720, -0.074161484837532, -0.091221258044243, 0.100285097956657, -0.031936474144459, 0.058455288410187, -0.087070561945438, 0.143204346299171, -0.112551271915436, -0.009972274303436, -0.100597150623798, 0.055827081203461, -0.045833319425583, -0.066923193633556, 0.032452881336212, 0.060469582676888, 0.121274515986443, 0.133593961596489, 0.079902067780495, 0.035454809665680, 0.043451756238937, 0.136007592082024, -0.097606904804707, -0.118055149912834, 0.024270623922348, 0.091837525367737, 0.150617972016335, -0.060546822845936, 0.019161641597748, -0.065869614481926, 0.131138518452644, 0.017260193824768, -0.002978309988976, 0.143626913428307, 0.053614884614944, -0.075162030756474, 0.092449307441711, -0.003084450960159, -0.056259721517563, -0.096071958541870, 0.066130414605141, -0.104562684893608, -0.087473049759865, 0.037252515554428, -0.050962768495083, 0.101377829909325, -0.017198652029037, -0.067178077995777, -0.148150101304054, 0.097261890769005, 0.002226620912552, 0.017765611410141, 0.022116079926491, 0.047345966100693, -0.067213296890259, -0.053335137665272, -0.061886779963970, -0.041163697838783, -0.143339812755585, -0.068781532347202, -0.138386875391006, -0.018613949418068, 0.134349361062050, 0.084731593728065, 0.025833263993263, -0.113726727664471, 0.126340910792351, -0.111043810844421, -0.029381416738033, 0.118693009018898, -0.071664065122604, 0.097118869423866, -0.132076129317284, -0.011321753263474, 0.047458454966545, 0.039994344115257, -0.076995037496090, -0.007795691490173, -0.042156465351582, 0.071127802133560, -0.118087515234947, 0.149070575833321, -0.123620405793190, -0.138527512550354, -0.143210455775261, -0.061077825725079, 0.122424080967903, -0.068964511156082, 0.020748957991600, 0.151386901736259, -0.085923723876476, 0.084931105375290, 0.000839024782181, 0.113883867859840, -0.126821815967560, -0.129068076610565, -0.132209464907646, 0.034255445003510, 0.088393479585648, -0.002965494990349, -0.076831839978695, 0.124292984604836, 0.018730759620667, 0.062725126743317, 0.009679466485977, 0.061917036771774, 0.141351684927940, 0.120924368500710, -0.121068790555000, 0.103406146168709, 0.009944632649422, 0.003673866391182, -0.101070776581764, 0.036717087030411, -0.072890289127827, 0.108903810381889, 0.002832055091858, 0.042052224278450, -0.136961281299591, 0.125033691525459, 0.070061489939690, 0.006448790431023, 0.091237902641296, -0.020972788333893, -0.006434336304665, 0.127014920115471, -0.063544549047947, -0.015669956803322, 0.133042648434639, 0.115331336855888, -0.125244781374931, 0.129044190049171, 0.086513638496399, -0.089862391352654, -0.055133029818535, -0.130629703402519, -0.128587290644646, -0.111592814326286, 0.135315313935280, 0.106954976916313, -0.089009240269661, -0.088735081255436, -0.109297782182693, 0.036798089742661, 0.103767916560173, 0.082412078976631, -0.058960340917110, 0.132563576102257, -0.097383484244347, 0.074264749884605, 0.085237741470337, -0.115768224000931, -0.038914151489735, 0.028555601835251, -0.012230932712555, 0.054975062608719, -0.149929448962212, 0.061544194817543, -0.070368126034737, -0.028424270451069, -0.150333628058434, 0.037635728716850, -0.012610688805580, 0.011309862136841, -0.061549521982670, -0.017135471105576, 0.003623455762863, 0.000873044133186, 0.094918519258499, -0.027567461133003, 0.019213393330574, -0.052183084189892, -0.066383354365826, 0.012370333075523, -0.009283393621445, 0.148070290684700, 0.003280684351921, 0.068383350968361, 0.061994716525078, -0.146179497241974, 0.099494442343712, -0.024189874529839, 0.106818810105324, 0.053935602307320, 0.010702997446060, -0.018270015716553, 0.009601384401321, -0.053884647786617, 0.026141330599785, 0.037812978029251, 0.099111154675484, -0.060158200562000, -0.033784292638302, -0.090814679861069, 0.126031979918480, -0.041468799114227, 0.041878670454025, -0.059851713478565, 0.071430355310440, -0.013696163892746, 0.042860850691795, 0.006443381309509, 0.084176391363144, -0.031603842973709, 0.115427628159523, 0.005289107561111, -0.084669135510921, -0.104411721229553, -0.085491560399532, 0.088934883475304, -0.008040815591812, -0.137244269251823, 0.034401983022690, 0.065063104033470, 0.083964243531227, -0.115570604801178, 0.100115522742271, 0.051044896245003, 0.059859558939934, -0.069871500134468, -0.002044379711151, 0.138970151543617, 0.127057388424873, -0.110245227813721, 0.144295290112495, -0.062608353793621, -0.018753781914711, -0.139713615179062, -0.088664926588535, -0.151958137750626, -0.128946781158447, -0.003542572259903, -0.070825949311256, -0.088015772402287, -0.092418208718300, -0.045694105327129, 0.006192445755005, 0.001558452844620, 0.001681968569756, -0.101848341524601, -0.103592574596405, 0.048246026039124, -0.022431120276451, -0.081773392856121, -0.076561048626900, -0.061383552849293, 0.054529607295990, 0.137984976172447, 0.059185028076172, 0.055347099900246, -0.080905124545097, 0.140762850642204, -0.151606976985931, -0.039690256118774, -0.099311068654060, 0.079379633069038, 0.049655586481094, 0.030582159757614, 0.076073616743088, 0.111075922846794, 0.142534032464027, -0.062338359653950, 0.136678382754326, -0.071923695504665, 0.079162165522575, 0.103204831480980, -0.066958673298359, -0.034145139157772, -0.002690330147743, 0.142250791192055, -0.033369764685631, -0.020559862256050, -0.102128043770790, -0.134577155113220, -0.043237090110779, 0.020308330655098, 0.136372610926628, 0.114113971590996, -0.023642525076866, 0.009261175990105, 0.142503604292870, 0.117096915841103, 0.071966215968132, 0.129046365618706, -0.150262087583542, -0.148641362786293, -0.057492040097713, -0.106656953692436, -0.100075781345367, -0.083689689636230, 0.057822704315186, -0.023436039686203, -0.072975516319275, -0.055995859205723, 0.073319792747498, 0.076917290687561, -0.001723319292068, 0.038908019661903, 0.045998305082321, -0.041542164981365, -0.024647697806358, -0.030357070267200, -0.071221649646759, 0.054565533995628, -0.108383417129517, 0.057414412498474, 0.097287550568581, -0.051340036094189, 0.148563072085381, 0.097215518355370, 0.118353560566902, 0.103088453412056, 0.052057042717934, 0.066261738538742, 0.069142341613770, 0.002201080322266, 0.016646414995193, -0.118012800812721, -0.037465162575245, 0.091934442520142, 0.037323907017708, -0.145495444536209, -0.067037627100945, 0.048561021685600, 0.054019555449486, -0.048284240067005, 0.034411072731018, -0.009142294526100, -0.041163623332977, -0.031564243137836, -0.016761422157288, 0.063752204179764, 0.043926104903221, 0.105118080973625, 0.063075050711632, 0.066828697919846, -0.143616408109665, -0.104781612753868, -0.001525998115540, -0.088669054210186, 0.036540761590004, -0.025814935564995, -0.115493811666965, -0.135656654834747, -0.016417771577835, 0.119862750172615, 0.101692661643028, -0.054659187793732, -0.130064383149147, -0.137539193034172, 0.140760168433189, -0.120719663798809, -0.086411148309708, -0.056010901927948, -0.023847326636314, 0.081425294280052, -0.005392402410507, 0.151552364230156, 0.094777911901474, 0.073985084891319, -0.054865926504135, 0.117172852158546, 0.114958658814430, 0.024258792400360, -0.022635594010353, 0.002082809805870, -0.107324071228504, 0.005949392914772, 0.148004397749901, -0.024264082312584, 0.121910676360130, 0.106910511851311, -0.121645748615265, 0.110976353287697, 0.004745766520500, -0.130852714180946, -0.138214334845543, 0.033923476934433, -0.110069215297699, -0.072243466973305, -0.125821158289909, 0.031443968415260, -0.153052195906639, 0.046062692999840, 0.152157321572304, 0.061025381088257, 0.138147100806236, -0.114242807030678, -0.012922465801239, -0.114846736192703, 0.108167663216591, -0.009739622473717, 0.049249708652496, -0.134751051664352, -0.060902297496796, 0.108175083994865, 0.029218807816505, 0.144889727234840, 0.001870229840279, 0.090748071670532, -0.090285427868366, -0.057277783751488, 0.128100201487541, -0.073613248765469, 0.019673049449921, -0.055309034883976, 0.100242212414742, -0.064913637936115, -0.042664401233196, -0.064946047961712, 0.131975427269936, -0.031196936964989, 0.123758301138878, 0.037067636847496, 0.141123726963997, 0.029807597398758, 0.124667868018150, -0.030762076377869, 0.065842896699905, 0.131648853421211, 0.026096656918526, 0.142780944705009, -0.008034184575081, 0.062181740999222, -0.106492191553116, 0.092450112104416, 0.098182395100594, 0.101069286465645, -0.043320275843143, -0.028309226036072, 0.039702549576759, 0.036353439092636, 0.066475406289101, 0.020181417465210, 0.146855697035789, 0.091388717293739, -0.044792406260967, -0.064875967800617, 0.092279687523842, 0.037839516997337, -0.121644288301468, -0.017437994480133, -0.147075608372688, -0.072380565106869, 0.097017511725426, -0.150441810488701, 0.068567305803299, 0.048107385635376, 0.137761905789375, 0.109328761696815, -0.089583240449429, -0.054296739399433, -0.123597197234631, 0.111137554049492, 0.137086108326912, 0.041821941733360, -0.145695865154266, 0.113619849085808, -0.103027850389481, 0.061608180403709, -0.075298577547073, -0.102761760354042, 0.022466376423836, 0.022716149687767, 0.056267380714417, 0.053542569279671, 0.094842925667763, -0.123998001217842, -0.132448062300682, 0.103382125496864, 0.139452144503593, -0.047335483133793, 0.029129415750504, 0.018253043293953, -0.144355028867722, -0.122096017003059, -0.135485693812370, 0.088414132595062, -0.071314610540867, 0.041541874408722, -0.040710911154747, -0.023521959781647, -0.142955213785172, 0.006424009799957, -0.064322367310524, -0.055764667689800, -0.131450399756432, -0.137730017304420, -0.139558747410774, -0.071068748831749, 0.061680048704147, -0.116638608276844, -0.053395733237267, 0.128700688481331, 0.057428017258644, -0.109368309378624, -0.040397740900517, 0.044865190982819, -0.089137099683285, -0.100966535508633, 0.019361630082130, -0.100087895989418, -0.091919437050819, 0.010946974158287, 0.035938322544098, -0.063375227153301, -0.004948303103447, -0.001552864909172, -0.028132230043411, 0.112694308161736, 0.130781784653664, -0.126084432005882, -0.020689547061920, -0.145811676979065, -0.084051445126534, 0.048826485872269, 0.137016072869301, 0.063257947564125, -0.041620932519436, -0.091691270470619, -0.025824069976807, 0.058769583702087, -0.037072531878948, 0.126109644770622, 0.084009572863579, -0.152831628918648, 0.007259503006935, -0.083218872547150, 0.069195002317429, -0.055692322552204, 0.005126714706421, -0.142189145088196, -0.000260755419731, -0.001270577311516, -0.031219609081745, 0.126605257391930, 0.016184285283089, 0.047718554735184, 0.066510200500488, -0.128852754831314, 0.133633926510811, -0.060953252017498, -0.032765537500381, -0.001494064927101, 0.137340381741524, 0.029987573623657, 0.050591930747032, -0.084154598414898, -0.007365062832832, 0.012051865458488, -0.095265418291092, 0.086663216352463, -0.134032025933266, -0.142484471201897, -0.079495847225189, -0.033106669783592, 0.117745026946068, 0.010767534375191, 0.082274973392487, -0.115587577223778, 0.000087484717369, -0.073210798203945, -0.132986292243004, -0.078984186053276, 0.110076889395714, 0.097822889685631, 0.134548440575600, 0.114121958613396, 0.088925138115883, -0.051963239908218, 0.121483311057091, -0.139636933803558, 0.071830794215202, -0.059544965624809, -0.039038509130478, 0.064868673682213, 0.022581607103348, -0.083350822329521, 0.048804908990860, -0.150223359465599, 0.088172361254692, 0.083359539508820, -0.072693154215813, -0.100555576384068, -0.113919340074062, -0.147311300039291, -0.061274603009224, -0.035091444849968, 0.016477882862091, 0.117754563689232, 0.082715466618538, -0.027069821953773, -0.072344392538071, -0.095941767096519, -0.126022458076477, -0.135879993438721, -0.101066797971725, 0.122097954154015, 0.040613532066345, -0.070326365530491, 0.010224595665932, -0.050895102322102, -0.025479108095169, 0.145794585347176, -0.042934648692608, -0.049997627735138, 0.142621621489525, 0.130736783146858, -0.034103341400623, 0.101791515946388, -0.119809523224831, -0.124730527400970, 0.039153367280960, 0.149514004588127, -0.029219903051853, 0.036888673901558, -0.039389275014400, 0.082306876778603, -0.046183243393898, 0.023509770631790, 0.096363708376884, 0.149657651782036, 0.129155173897743, 0.056025028228760, 0.145851477980614, -0.092163003981113, 0.132508769631386, -0.108974874019623, 0.052255317568779, -0.133224904537201, -0.059611320495605, -0.029510483145714, -0.022370591759682, -0.124767027795315, 0.097417965531349, -0.039203703403473, -0.148270040750504, -0.004096016287804, -0.103361643850803, 0.115973308682442, 0.130022123456001, -0.046030744910240, 0.119290634989738, 0.114275172352791, 0.074745163321495, 0.056913003325462, -0.128586634993553, -0.112452648580074, 0.106756523251534, -0.057272970676422, -0.078865818679333, 0.060434952378273, -0.078552134335041, 0.046151667833328, -0.035983689129353, 0.056622564792633, -0.117496877908707, 0.114257141947746, 0.117810383439064, 0.047615990042686, 0.133349433541298, -0.069033168256283, 0.031214639544487, 0.098345026373863, 0.109068021178246, 0.081106752157211, -0.016201838850975, 0.103826656937599, 0.005457922816277, 0.070988014340401, -0.022363111376762, 0.102499976754189, 0.149641200900078, -0.086686216294765, -0.108811639249325, -0.121670164167881, -0.141441002488136, 0.049300000071526, -0.064652658998966, 0.103422537446022, -0.015783220529556, -0.088529840111732, -0.112229883670807, 0.121298834681511, -0.049144364893436, 0.018423855304718, 0.094384595751762, 0.135775491595268, 0.056848287582397, 0.113181456923485, 0.138830944895744, 0.117300674319267, -0.051008358597755, 0.122119590640068, 0.120125934481621, 0.120725288987160, -0.140115737915039, 0.020045056939125, 0.053096681833267, 0.074107751250267, 0.104706719517708, 0.087841883301735, -0.030545480549335, 0.035824045538902, 0.132832363247871, 0.099733456969261, -0.102964594960213, -0.067204542458057, 0.123178675770760, -0.088900431990623, -0.009164407849312, 0.126474753022194, 0.020673960447311, -0.050692081451416, -0.018216729164124, -0.007831454277039, 0.046397641301155, 0.145486250519753, 0.104631647467613, -0.126785382628441, -0.145617321133614, 0.020667016506195, 0.033516898751259, -0.090306818485260, 0.064910098910332, 0.002833187580109, -0.026762560009956, 0.003905817866325, 0.010936424136162, -0.143727451562881, 0.069389298558235, -0.015086576342583, -0.136888429522514, 0.088573455810547, -0.126844614744186, 0.126016691327095, 0.051054060459137, 0.074666723608971, 0.051976233720779, -0.126191735267639, -0.074005812406540, 0.026061430573463, 0.107497677206993, 0.047189265489578, -0.082615852355957, -0.047559380531311, 0.112024053931236, -0.058122329413891, -0.135794624686241, -0.020042866468430, 0.109552010893822, -0.092007949948311, 0.151257410645485, 0.083576247096062, 0.020355090498924, 0.144854381680489, -0.078821912407875, -0.030752114951611, -0.020016804337502, 0.126553341746330, -0.078449204564095, -0.149457946419716, -0.031851902604103, -0.127490565180779, 0.126447603106499, 0.021896094083786, -0.035298578441143, 0.050268828868866, 0.055876940488815, -0.141477391123772, -0.049326650798321, 0.142712339758873, -0.063073992729187, -0.037366464734077, -0.101212397217751, 0.060335040092468, 0.147717967629433, -0.133222416043282, -0.078751318156719, -0.031748495995998, -0.021080061793327, 0.056361302733421, -0.027736097574234, -0.064339123666286, -0.057690531015396, 0.057957097887993, 0.020930692553520, -0.049328580498695, -0.050086729228497, 0.047228828072548, 0.091137573122978, -0.136325925588608, -0.047889448702335, 0.047681257128716, -0.003584250807762, 0.111376836895943, -0.103724308311939, 0.040644228458405, 0.108962759375572, -0.058966249227524, -0.041956916451454, 0.130866363644600, 0.046004682779312, -0.040537245571613, 0.115273758769035, 0.010735452175140, 0.084654137492180, 0.012829288840294, 0.095924466848373, -0.109755136072636, -0.044395133852959, -0.062019862234592, 0.090425297617912, -0.094132810831070, -0.020488604903221, -0.136663481593132, 0.132369294762611, 0.129467383027077, -0.109504781663418, 0.028478473424911, 0.036787495017052, -0.091112963855267, 0.132236704230309, 0.098994120955467, 0.000211775302887, 0.038649082183838, -0.098902374505997, 0.044960230588913, 0.115609839558601, -0.149273693561554, 0.088449358940125, -0.107857778668404, 0.139638140797615, -0.097119845449924, 0.066599518060684, -0.050227217376232, 0.034366577863693, 0.060224920511246, -0.115929082036018, 0.092614114284515, 0.090919226408005, -0.059697136282921, 0.080089122056961, 0.057309612631798, -0.006808102130890, 0.121316596865654, -0.122149705886841, 0.107516780495644, 0.137933626770973, 0.074410751461983, 0.033668696880341, -0.144741088151932, 0.125010982155800, -0.078073546290398, -0.043855153024197, 0.049571633338928, 0.140878126025200, -0.109443716704845, 0.097514078021049, 0.049047127366066, 0.005972966551781, 0.004504382610321, 0.018285155296326, 0.011814296245575, 0.013931661844254, 0.067519500851631, -0.134881019592285, 0.116441145539284, -0.101189255714417, -0.138478606939316, 0.031735286116600, -0.003661558032036, -0.040551334619522, 0.018658772110939, 0.036412790417671, 0.004391968250275, -0.050804175436497, 0.061722859740257, 0.053477630019188, 0.066915854811668, -0.088389575481415, 0.129565641283989, 0.031695321202278, -0.075174584984779, 0.120212927460670, 0.042295202612877, -0.081088393926620, -0.000511184334755, -0.047017678618431, -0.017337068915367, 0.134695783257484, 0.009382605552673, -0.120341628789902, 0.044622495770454, 0.083125144243240, 0.060299381613731, -0.068771459162235, -0.003746062517166, -0.056206651031971, 0.045879676938057, 0.035401761531830, 0.007481783628464, -0.072394110262394, 0.129930272698402, 0.001933276653290, 0.045621171593666, 0.097356960177422, -0.019523695111275, 0.116984948515892, -0.046476781368256, -0.020973548293114, -0.010140895843506, -0.077005654573441, 0.094766020774841, 0.073826521635056, -0.133082732558250, 0.000335186719894, -0.020221754908562, 0.078369811177254, -0.130536735057831, -0.055959507822990, 0.143157884478569, 0.052494287490845, -0.063381835818291, -0.152794942259789, -0.001730799674988, 0.083783239126205, -0.139983281493187, 0.145265564322472, -0.149762764573097, 0.141827866435051, 0.082733124494553, -0.132762193679810, 0.028767228126526, -0.018619433045387, 0.116442039608955, 0.021620109677315, -0.078120298683643, 0.038054466247559, 0.096804082393646, -0.151991203427315, 0.072903469204903, 0.132412299513817, 0.056772693991661, 0.016914755105972, -0.142371207475662, -0.000845849514008, -0.052304007112980, 0.107895448803902, 0.087605908513069, 0.033253908157349, -0.013569444417953, -0.030085943639278, -0.108466491103172, 0.078168451786041, -0.064185969531536, -0.053757265210152, -0.066560275852680, -0.028594255447388, -0.115877032279968, 0.003187313675880, 0.091545194387436, 0.032427296042442, -0.124084621667862, -0.123680815100670, 0.007844090461731, 0.113341584801674, -0.080372400581837, 0.141122564673424, 0.024795815348625, -0.037270583212376, 0.137320294976234, 0.084290847182274, 0.150614336133003, -0.018762692809105, -0.001802206039429, -0.121314033865929, -0.074203312397003, 0.010762646794319, -0.107782483100891, 0.063844069838524, -0.020999133586884, 0.132471695542336, -0.078575238585472, -0.022133380174637, -0.096552960574627, 0.145690247416496, -0.043808467686176, 0.133131995797157, -0.075775049626827, -0.073186270892620, -0.092049963772297, -0.098134994506836, -0.078568600118160, -0.031450182199478, -0.049085639417171, 0.107295379042625, -0.144954472780228, -0.129067748785019, -0.112191744148731, 0.020549014210701, -0.131462633609772, 0.044558912515640, -0.117829501628876, -0.121513903141022, 0.138313248753548, -0.082423567771912, 0.080017328262329, -0.122198984026909, -0.143911883234978, 0.063575178384781, -0.108186937868595, 0.035245954990387, -0.109967932105064, -0.071893468499184, 0.120778605341911, 0.152043953537941, 0.001832351088524, 0.062664851546288, 0.067776456475258, 0.054254323244095, 0.018061921000481, 0.081051483750343, -0.106918990612030, 0.106558039784431, 0.069269135594368, -0.031956396996975, -0.145887494087219, 0.099879994988441, 0.035781085491180, -0.080530524253845, -0.102335110306740, -0.093457370996475, 0.109208658337593, 0.069990530610085, 0.117749527096748, 0.013380289077759, 0.092373862862587, 0.070762947201729, 0.067609876394272, -0.052375622093678, -0.135539710521698, 0.073376655578613, -0.041781790554523, -0.119983926415443, 0.032074362039566, 0.076055005192757, 0.060743153095245, -0.137405604124069, -0.124850064516068, 0.139740243554115, 0.077504798769951, 0.123926714062691, 0.067428037524223, -0.152416467666626, 0.057733714580536, -0.040667697787285, 0.136115834116936, 0.035185575485229, 0.150341764092445, -0.105392515659332, 0.130161836743355, 0.138076081871986, -0.132126748561859, 0.004495367407799, 0.111744657158852, -0.112256020307541, -0.107948444783688, 0.143140032887459, -0.077767126262188, 0.101919040083885, -0.129920929670334, 0.139781996607780, -0.084850616753101, 0.086138963699341, -0.105813510715961, -0.067321263253689, -0.078475520014763, 0.137074753642082, -0.066399633884430, 0.127883806824684, 0.121935859322548, 0.017493247985840, -0.028080880641937, 0.118029639124870, 0.006695792078972, -0.016570299863815, -0.146792516112328, 0.080609619617462, 0.093060001730919, -0.146516829729080, 0.141303494572639, -0.068827815353870, -0.141028180718422, 0.121040210127831, 0.137769326567650, 0.073703631758690, 0.099390879273415, -0.078223489224911, 0.035499155521393, 0.141536846756935, -0.071308515965939, 0.113043978810310, -0.041027329862118, -0.065061464905739, 0.083256766200066, -0.141243427991867, 0.072364106774330, -0.141975939273834, -0.062318801879883, 0.113442018628120, -0.138184294104576, 0.010880500078201, -0.086496740579605, -0.145063459873199, 0.117801234126091, 0.102241501212120, -0.120138689875603, -0.149485021829605, -0.107496574521065, 0.141547694802284, 0.092123657464981, 0.074985399842262, 0.051223158836365, 0.018981009721756, 0.131314173340797, -0.003695175051689, 0.069475844502449, 0.117243275046349, 0.018615156412125, 0.125820711255074, -0.039578676223755, 0.004075512290001, 0.091342553496361, 0.046476200222969, 0.076447427272797, -0.096652463078499, -0.018188804388046, -0.110708445310593, 0.017270267009735, 0.022638440132141, -0.068229719996452, -0.115211740136147, 0.149451091885567, -0.085934452712536, 0.104182854294777, -0.031254358589649, -0.148502662777901, 0.076133593916893, -0.032880954444408, 0.107424840331078, 0.129547640681267, -0.109727472066879, -0.130180776119232, -0.059269860386848, -0.007108137011528, 0.036634996533394, 0.005621701478958, 0.037933900952339, 0.068996295332909, -0.142444238066673, -0.102042891085148, -0.100022926926613, 0.059134587645531, -0.067335061728954, 0.075777679681778, -0.105010323226452, -0.132202640175819, 0.085205659270287, -0.112254999577999, 0.006556063890457, -0.032705493271351, 0.021470248699188, -0.027993053197861, 0.083586573600769, 0.073390752077103, 0.105040028691292, 0.043499886989594, -0.133087918162346, 0.149222657084465, -0.009291246533394, -0.041094601154327, -0.032752618193626, 0.112827256321907, 0.127099350094795, -0.123358041048050, 0.058643594384193, -0.042441859841347, -0.103299885988235, -0.037722237408161, 0.037783414125443, 0.152945205569267, 0.037091225385666, -0.101489141583443, -0.123571753501892, 0.100489810109138, 0.043406531214714, 0.038919225335121, 0.091723099350929, 0.028552100062370, -0.039586775004864, 0.022587329149246, 0.042401820421219, -0.051387488842010, -0.023014858365059, -0.019862920045853, 0.008705958724022, -0.015810415148735, 0.064312145113945, -0.009939923882484, -0.050906814634800, 0.099427685141563, 0.046378374099731, -0.142880126833916, 0.060885548591614, -0.130022302269936, -0.149243146181107, -0.020192772150040, 0.005654186010361, -0.147937238216400, -0.102445743978024, -0.111577115952969, -0.151615217328072, 0.069671556353569, 0.112125143408775, 0.109044209122658, 0.021491780877113, 0.013714596629143, -0.062768444418907, -0.152080163359642, 0.115788742899895, -0.117223925888538, -0.036613464355469, 0.149033203721046, 0.088550433516502, -0.053233556449413, 0.123852923512459, 0.034392461180687, 0.030901908874512, 0.129052087664604, -0.118109494447708, 0.077092558145523, 0.023776441812515, 0.097118124365807, 0.121740087866783, -0.076215937733650, 0.090432703495026, 0.013225600123405, -0.009899407625198, -0.065549947321415, 0.063592806458473, -0.004166290163994, -0.078509032726288, -0.026774495840073, -0.040122419595718, 0.116100475192070, -0.027248337864876, 0.019537672400475, 0.030729740858078, -0.020218104124069, -0.037782207131386, -0.010613396763802, -0.057523436844349, -0.005771085619926, 0.138134613633156, -0.146142810583115, 0.037915036082268, -0.129159793257713, -0.088184259831905, 0.013022258877754, -0.018420502543449, 0.036612331867218, 0.122325614094734, -0.010943472385406, 0.152846470475197, 0.084212332963943, 0.015020072460175, -0.075137026607990, 0.032209128141403, 0.069211795926094, -0.002420768141747, -0.060017347335815, -0.109067104756832, 0.137472406029701, 0.100938513875008, -0.087138742208481, -0.051976233720779, -0.064777746796608, 0.126581385731697, 0.069303050637245, 0.003788471221924, -0.033916391432285, -0.032054476439953, 0.131963297724724, -0.014383062720299, -0.118501290678978, -0.088014461100101, -0.127558782696724, -0.096331253647804, -0.094794347882271, 0.067742958664894, 0.018164202570915, 0.118997678160667, 0.142931416630745, 0.044940084218979, 0.064389720559120, -0.138123810291290, 0.013786762952805, 0.094047769904137, 0.145486399531364, 0.069159895181656, 0.050158888101578, 0.055849969387054, 0.114738479256630, 0.027403980493546, 0.138772293925285, 0.078464716672897, -0.152465015649796, -0.090720184147358, 0.047753453254700, -0.115312665700912, 0.063302159309387, -0.101793117821217, 0.036120057106018, 0.082982942461967, -0.075670734047890, 0.107277825474739, 0.063711211085320, 0.089231595396996, -0.109320342540741, -0.014763832092285, 0.022213131189346, 0.109224334359169, -0.108613371849060, 0.110342904925346, 0.061741799116135, 0.074811771512032, -0.141070961952209, 0.099592223763466, -0.064372047781944, -0.030695825815201, -0.034756332635880, -0.096793502569199, -0.027838081121445, 0.086212873458862, 0.076151520013809, -0.061290003359318, 0.039796650409698, -0.143181875348091, -0.127003908157349, -0.115338355302811, 0.006606981158257, -0.127562880516052, -0.118053831160069, -0.129260092973709, 0.005641400814056, -0.087256968021393, 0.004979878664017, -0.096779778599739, -0.099111333489418, -0.049027271568775, 0.076125383377075, 0.026644453406334, -0.030301004648209, -0.109632275998592, 0.146055981516838, 0.105264499783516, -0.071617893874645, 0.068875193595886, -0.081779487431049, 0.007484152913094, 0.111819013953209, 0.149135395884514, 0.149870470166206, -0.063676059246063, 0.122359886765480, 0.071136862039566, -0.018036380410194, -0.003659993410110, -0.100453928112984, 0.112313404679298, -0.079026274383068, -0.106374956667423, 0.010603830218315, -0.102752089500427, -0.037009052932262, 0.092196509242058, 0.002283051609993, 0.086789622902870, 0.076351493597031, -0.141924291849136, -0.038457497954369, -0.013048619031906, 0.004112154245377, 0.108340904116631, -0.031102918088436, 0.100337967276573, -0.111505761742592, 0.115791574120522, -0.023209914565086, -0.121655672788620, -0.110430389642715, -0.131978452205658, 0.077895209193230, -0.080590382218361, -0.025509878993034, -0.124465025961399, 0.095137923955917, -0.109431378543377, -0.077554292976856, 0.028157129883766, 0.005482628941536, -0.020498678088188, -0.095612019300461, -0.076043069362640, -0.067722149193287, 0.012417197227478, -0.125148266553879, 0.052692845463753, -0.087526813149452, -0.123982414603233, 0.040111243724823, 0.020908281207085, -0.145204603672028, 0.116980358958244, -0.017874971032143, -0.046836562454700, 0.044929459691048, 0.039550974965096, 0.116314962506294, -0.149492621421814, 0.098100826144218, -0.010537907481194, 0.025610610842705, 0.099579021334648, -0.046160325407982, -0.030746161937714, 0.120701655745506, -0.123116485774517, 0.096023336052895, 0.026997983455658, 0.063661098480225, 0.130351796746254, 0.084376111626625, 0.060787171125412, -0.079613998532295, 0.094956517219543, -0.005153805017471, 0.001381203532219, -0.001842275261879, 0.049891054630280, -0.004107668995857, 0.018160983920097, -0.124128855764866, 0.105063334107399, -0.012954622507095, 0.053546518087387, -0.125701501965523, -0.118845343589783, 0.062006399035454, 0.024169370532036, 0.137584820389748, -0.106669917702675, -0.068563513457775, 0.126501217484474, -0.076561853289604, 0.095922350883484, 0.049994096159935, 0.049883857369423, 0.137099817395210, 0.040959253907204, 0.092618823051453, 0.099296107888222, 0.140538975596428, 0.120770201086998, -0.061349064111710, -0.107902675867081, 0.063315406441689, 0.094817519187927, 0.131213441491127, 0.145004287362099, -0.106680139899254, 0.095560699701309, 0.017954796552658, 0.109538152813911, 0.120437964797020, -0.117190524935722, 0.075200617313385, -0.113969817757607, 0.045661628246307, -0.003428146243095, 0.017155811190605, -0.040065586566925, -0.001874104142189, -0.070797696709633, -0.096118353307247, -0.033757612109184, 0.068124562501907, 0.002184614539146, -0.142899185419083, -0.066247686743736, -0.068853586912155, -0.056939542293549, 0.009753957390785, 0.146936133503914, 0.121479675173759, -0.108642429113388, 0.126218244433403, 0.125498905777931, -0.106361560523510, 0.140384361147881, 0.012156769633293, 0.135144159197807, -0.064381755888462, 0.011991903185844, -0.086954489350319, 0.059809625148773, 0.031138762831688, 0.086913168430328, 0.061788737773895, -0.143626928329468, 0.038826152682304, 0.045877590775490, 0.102998271584511, 0.131859198212624, -0.089106000959873, -0.047428637742996, -0.104725733399391, -0.138930842280388, -0.151857137680054, 0.108836814761162, 0.139097854495049, 0.042721703648567, -0.108629286289215, -0.077154286205769, -0.083083458244801, -0.130547538399696, 0.034687638282776, -0.140924885869026, -0.033747360110283, -0.126423045992851, 0.000690475106239, 0.104589149355888, 0.078316271305084, 0.040041357278824, -0.142994448542595, 0.116298690438271, 0.098265156149864, -0.105447158217430, -0.036270253360271, -0.088370881974697, -0.118962943553925, 0.063861668109894, 0.003552451729774, 0.143871620297432, -0.051495745778084, 0.117022559046745, -0.089336536824703, -0.049932003021240, 0.141420587897301, -0.081564538180828, 0.010553315281868, -0.106372073292732, -0.094533324241638, -0.008682966232300, 0.053106248378754, -0.045995123684406, -0.072907887399197, -0.044123649597168, 0.010170981287956, 0.036432057619095, -0.071540072560310, -0.005755975842476, 0.128815129399300, 0.001607835292816, -0.057311728596687, 0.100622847676277, -0.145414486527443, 0.103312328457832, -0.048420526087284, 0.003398388624191, -0.124695673584938, 0.027808263897896, -0.102899149060249, -0.022326320409775, 0.027182132005692, 0.041487127542496, 0.072950333356857, 0.066067337989807, 0.037720367312431, -0.072143971920013, 0.080372944474220, 0.084192767739296, 0.019754767417908, -0.095048896968365, 0.121105000376701, -0.090085484087467, -0.029288999736309, -0.148796707391739, -0.091901555657387, -0.020744442939758, 0.013420224189758, -0.027892932295799, 0.049134477972984, -0.094355866312981, -0.032717794179916, -0.091927245259285, -0.084904745221138, 0.113177910447121, 0.086653769016266, 0.110109880566597, 0.123388424515724, -0.055127449333668, -0.140573054552078, 0.089321970939636, 0.144760027527809, -0.016938090324402, -0.148209422826767, -0.140081331133842, -0.048216678202152, 0.026427671313286, 0.085816562175751, 0.150888726115227, -0.079926811158657, -0.133163213729858, -0.075393736362457, 0.037901774048805, 0.012312918901443, -0.037961788475513, 0.056321084499359, 0.080209717154503, -0.101394459605217, 0.057490289211273, -0.062213018536568, 0.079946339130402, 0.089023873209953, -0.148900300264359, 0.151105746626854, 0.117202654480934, -0.116678901016712, -0.128149464726448, 0.064500346779823, 0.096108317375183, 0.087532728910446, -0.130405291914940, -0.047265261411667, -0.086813129484653, 0.108313545584679, -0.020264238119125, 0.123707786202431, -0.054283089935780, -0.039574913680553, -0.134479627013206, 0.053638681769371, 0.150524541735649, -0.082211136817932, 0.125103518366814, -0.020457327365875, -0.069950267672539, -0.086849592626095, 0.075954198837280, -0.147576063871384, -0.050443477928638, 0.067674443125725, 0.004511833190918, 0.116325363516808, 0.014332592487335, 0.018247634172440, -0.072326652705669, 0.129662111401558, -0.089855603873730, 0.032278329133987, 0.000148624181747, 0.002195015549660, 0.105622544884682, 0.091437593102455, -0.071784406900406, -0.007041692733765, 0.042445659637451, 0.020707726478577, 0.095794409513474, -0.011511951684952, -0.123282194137573, -0.050237618386745, -0.028789602220058, -0.143895313143730, -0.047329388558865, -0.068332105875015, 0.063767924904823, 0.086886778473854, -0.060264818370342, 0.106820449233055, -0.062990881502628, 0.111517921090126, 0.123382791876793, 0.144889727234840, -0.052408255636692, 0.151311501860619, -0.066896148025990, -0.038944922387600, -0.065894179046154, 0.100306168198586, -0.003066316246986, 0.011384576559067, -0.144409850239754, 0.129288688302040, 0.100505903363228, -0.096376806497574, -0.117417596280575, -0.048373736441135, -0.117489904165268, 0.043218880891800, -0.092481940984726, 0.044691666960716, -0.104222573339939, -0.108372397720814, -0.132403314113617, 0.090808779001236, -0.025607585906982, -0.049757786095142, -0.039129719138145, -0.043252900242805, -0.043191321194172, 0.091107159852982, -0.075628280639648, -0.152345955371857, -0.040776468813419, -0.078360326588154, 0.133897230029106, 0.140872314572334, 0.061671391129494, -0.096011079847813, 0.034121125936508, -0.035306721925735, -0.120735362172127, -0.131120085716248, -0.114182397723198, -0.028460040688515, -0.084288477897644, 0.128352507948875, -0.006405174732208, 0.063667088747025, 0.039081424474716, -0.146612539887428, -0.083540953695774, -0.095003128051758, 0.014238923788071, 0.014119029045105, 0.045166239142418, 0.006846308708191, -0.005781203508377, 0.051612406969070, -0.003421574831009, -0.097789913415909, 0.052726030349731, 0.142553165555000, -0.088173419237137, 0.068115800619125, 0.021983072161674, 0.087021693587303, 0.022709026932716, 0.019334107637405, 0.050347447395325, 0.122639968991280, -0.128282442688942, -0.013564079999924, -0.120384484529495, -0.078576557338238, -0.098902337253094, 0.029993921518326, -0.126760229468346, 0.012481585144997, -0.067410439252853, 0.037191078066826, 0.046856343746185, 0.032942563295364, 0.111337199807167, 0.025010839104652, -0.134357243776321, -0.048977158963680, 0.053628280758858, 0.061226129531860, 0.046337574720383, -0.026773512363434, 0.106183633208275, 0.031848430633545, 0.063361495733261, 0.104113683104515, 0.029229059815407, 0.133069679141045, -0.026240870356560, -0.044657170772552, -0.080632321536541, -0.041287504136562, -0.125134006142616, 0.061704427003860, -0.075993247330189, -0.108803793787956, -0.137027829885483, -0.118116647005081, 0.107892706990242, 0.108065620064735, 0.015365913510323, 0.089115411043167, 0.119345530867577, 0.066132813692093, 0.122248485684395, 0.038472309708595, -0.099703475832939, -0.103594295680523, 0.113349750638008, 0.101210579276085, -0.044436566531658, -0.102234035730362, -0.063123300671577, -0.005301371216774, -0.105075366795063, -0.079321086406708, -0.028089895844460, -0.091707810759544, 0.040402308106422, -0.115991279482841, 0.048345625400543, -0.139811217784882, 0.145854964852333, -0.049336358904839, -0.088605947792530, -0.128091096878052, -0.099662348628044, 0.020979136228561, 0.099421694874763, 0.050078108906746, -0.046781376004219, 0.032884344458580, -0.070515587925911, -0.012234658002853, -0.021422058343887, 0.031321913003922, -0.059078894555569, -0.134151637554169, -0.024536699056625, 0.108383819460869, 0.057584285736084, 0.014815673232079, 0.062782347202301, -0.024934157729149, -0.129380360245705, -0.075964562594891, 0.135899648070335, 0.099485501646996, -0.105957135558128, -0.066531836986542, 0.030747443437576, 0.148031249642372, -0.083127297461033, 0.069980606436729, 0.126068040728569, -0.107511907815933, 0.139136478304863, -0.068671777844429, -0.147904500365257, 0.105775699019432, -0.120295748114586, -0.097554415464401, 0.000664383172989, 0.035362496972084, -0.087880834937096, -0.034443676471710, -0.124261021614075, 0.033027097582817, 0.065024957060814, -0.079298637807369, 0.116860017180443, -0.105702295899391, 0.064569473266602, 0.017781898379326, -0.109062142670155, 0.033740758895874, 0.073043733835220, 0.121976956725121, 0.152329489588737, -0.078307367861271, 0.062223091721535, -0.126567110419273, 0.141088321805000, -0.039422929286957, 0.086729839444160, -0.115870311856270, -0.005662202835083, -0.013074606657028, 0.011556342244148, -0.131472051143646, -0.058725096285343, 0.031769484281540, -0.122340016067028, -0.057162590324879, 0.111890509724617, -0.099702969193459, -0.151211813092232, -0.046713888645172, -0.146450147032738, -0.046651072800159, -0.054705470800400, -0.110328845679760, -0.036751948297024, -0.050277404487133, -0.063275218009949, -0.073553100228310, 0.028919726610184, -0.040491037070751, -0.140436619520187, -0.059034474194050, 0.151983931660652, 0.125252261757851, 0.020631760358810, 0.080839276313782, 0.016718238592148, 0.062139138579369, -0.131033569574356, -0.112822175025940, -0.076805420219898, -0.032310709357262, 0.036152690649033, 0.111962780356407, -0.064249701797962, -0.126660153269768, 0.091752991080284, -0.096804521977901, -0.022343873977661, -0.107313230633736, 0.019637569785118, -0.121780797839165, 0.072447001934052, -0.026240542531013, -0.000875607132912, -0.080000542104244, 0.039447084069252, -0.034523062407970, -0.065578706562519, -0.036298833787441, 0.115721270442009, 0.032444879412651, 0.057722106575966, -0.151864588260651, 0.003587827086449, -0.009901344776154, 0.139300957322121, 0.017936617136002, 0.119118228554726, 0.035810098052025, 0.029799863696098, -0.089780852198601, 0.025681793689728, -0.132539018988609, 0.086181744933128, 0.136911198496819, 0.123918876051903, 0.062491700053215, -0.015637323260307, 0.032198578119278, 0.070819482207298, 0.028900057077408, -0.073618724942207, 0.128671631217003, 0.085929632186890, -0.022320374846458, 0.133650526404381, 0.075038805603981, -0.110358446836472, -0.084704838693142, 0.051723584532738, -0.053192093968391, 0.099930807948112, 0.041964143514633, 0.028314143419266, -0.083831459283829, 0.020951539278030, -0.063738368451595, 0.150586500763893, -0.002614840865135, 0.048634558916092, -0.054179899394512, -0.048485465347767, 0.138729289174080, 0.076406911015511, 0.024098962545395, -0.078448072075844, -0.087286099791527, 0.136016950011253, -0.073091551661491, 0.090956449508667, -0.017848551273346, 0.143016323447227, -0.101151987910271, 0.114931866526604, -0.020989105105400, -0.117735728621483, -0.068162307143211, 0.088546156883240, 0.040244400501251, 0.092860594391823, -0.129799976944923, -0.151478275656700, -0.082673594355583, 0.095966801047325, 0.044958010315895, -0.125576019287109, 0.069389402866364, -0.020647272467613, -0.032793499529362, -0.124812543392181, -0.138567954301834, -0.069914497435093, -0.072655305266380, 0.009850829839706, -0.147194057703018, -0.057649210095406, 0.036475822329521, 0.069444343447685, 0.029945343732834, 0.068941399455070, -0.014578640460968, -0.124916166067123, -0.132977023720741, -0.068510770797729, -0.041374780237675, 0.053825855255127, 0.127042964100838, 0.058183982968330, 0.136593922972679, 0.021706700325012, 0.051913559436798, -0.069713130593300, -0.152093157172203, 0.030937641859055, -0.095580704510212, -0.101697564125061, -0.141013279557228, -0.140322074294090, 0.137686833739281, -0.030721053481102, -0.008694902062416, -0.131555706262589, 0.086378306150436, 0.101735547184944, -0.003484860062599, 0.030003458261490, -0.034701623022556, 0.023018479347229, 0.123527154326439, -0.132340177893639, 0.116114869713783, -0.040191404521465, -0.141147896647453, 0.019207194447517, 0.092833220958710, -0.018302723765373, 0.046643033623695, 0.020246252417564, 0.148466780781746, 0.026280984282494, 0.147097334265709, -0.074740923941135, 0.021668225526810, 0.149054691195488, -0.002681493759155, -0.074386179447174, 0.116679713129997, 0.059273079037666, 0.091991350054741, 0.060686290264130, 0.053731530904770, 0.058087319135666, 0.004970937967300, -0.143492788076401, -0.024691835045815, 0.038033440709114, 0.110622808337212, 0.126607611775398, 0.029736891388893, 0.084074109792709, 0.096074372529984, -0.151976674795151, 0.060250252485275, -0.078890748322010, 0.052314952015877, -0.056341372430325, -0.041428215801716, -0.099452137947083, 0.077047854661942, -0.136483386158943, 0.152239724993706, 0.101681038737297, -0.031450398266315, -0.081742040812969, 0.115109130740166, -0.063064388930798, -0.015984192490578, -0.050052560865879, 0.016264259815216, -0.014309376478195, -0.043221324682236, -0.142443656921387, 0.079041495919228, -0.086916312575340, -0.064743183553219, -0.054763689637184, -0.149456560611725, -0.070783354341984, -0.144584685564041, -0.030874863266945, -0.018778651952744, -0.048745706677437, -0.078409239649773, 0.151928499341011, -0.146690711379051, 0.009331256151199, -0.074024789035320, 0.034906744956970, 0.024875611066818, 0.053616344928741, 0.122049942612648, 0.121516361832619, 0.125563278794289, 0.020018160343170, -0.127223670482635, 0.152522757649422, 0.097030058503151, -0.043173469603062, -0.111705161631107, 0.117161408066750, -0.005094990134239, 0.033399000763893, -0.069913439452648, 0.003696307539940, -0.068049922585487, 0.047789618372917, 0.001864939928055, 0.074639171361923, -0.117640390992165, -0.128463521599770, 0.105612352490425, 0.082472294569016, 0.097970440983772, 0.114334896206856, -0.026166811585426, 0.145346954464912, -0.150157406926155, 0.095649868249893, 0.028474211692810, -0.008420720696449, 0.048784762620926, -0.138382315635681, -0.078476399183273, 0.099867716431618, 0.142504528164864, 0.132276818156242, -0.027653455734253, -0.066486544907093, -0.078284807503223, -0.048466920852661, -0.039325870573521, 0.014503628015518, 0.002173513174057, 0.066990107297897, -0.115884259343147, -0.039755515754223, -0.090877324342728, -0.129522785544395, -0.129708543419838, -0.088269196450710, 0.087888896465302, 0.113613143563271, -0.132668703794479, 0.090644851326942, -0.025228962302208, 0.079897165298462, 0.075362458825111, 0.135651484131813, 0.132077291607857, -0.115606784820557, 0.042378649115562, -0.105508990585804, 0.130123302340508, 0.092527493834496, 0.042889937758446, 0.113916262984276, 0.117502316832542, -0.084466852247715, -0.125347167253494, -0.129176944494247, 0.140467181801796, 0.052838951349258, 0.052792340517044, 0.152207955718040, 0.138134405016899, 0.006743967533112, 0.134751901030540, -0.052558302879333, -0.127921119332314, 0.019791156053543, 0.101854339241982, -0.026353031396866, 0.075938284397125, -0.017971009016037, 0.153019055724144, 0.093632072210312, 0.067741170525551, 0.119729205965996, 0.081721276044846, 0.069896727800369, 0.048905208706856, 0.002061098814011, 0.091812863945961, 0.050003439188004, -0.041577570140362, -0.100379608571529, -0.144645020365715, -0.050595581531525, 0.133478149771690, -0.120852455496788, -0.071791306138039, -0.039234735071659, 0.036805823445320, -0.100667230784893, 0.065766721963882, 0.087411433458328, 0.150937929749489, -0.031567998230457, -0.062269739806652, -0.126219332218170, -0.070625923573971, -0.069394849240780, -0.139792606234550, 0.124479815363884, 0.079349234700203, 0.059384137392044, 0.102038070559502, -0.021521389484406, -0.006282165646553, 0.064268782734871, 0.082180410623550, -0.088754571974277, 0.120946839451790, 0.136684760451317, -0.141558200120926, 0.030732035636902, 0.073405534029007, 0.135586932301521, 0.060629308223724, 0.152339890599251, -0.111490502953529, 0.073812440037727, 0.011742934584618, 0.051277399063110, 0.026864066720009, -0.085025012493134, -0.038506515324116, 0.079115256667137, -0.084816455841064, -0.035286679863930, 0.113832786679268, 0.121955350041389, -0.011818379163742, -0.046172805130482, 0.102761492133141, -0.009089067578316, 0.034051299095154, -0.074192732572556, 0.040831610560417, -0.060390308499336, -0.128325656056404, -0.005248948931694, -0.052289918065071, -0.038083881139755, 0.059770941734314, -0.072734504938126, -0.064056612551212, -0.097248837351799, -0.049822427332401, 0.110588714480400, 0.113298580050468, -0.003464967012405, 0.135636791586876, -0.075785815715790, -0.103069022297859, 0.102071002125740, -0.122060939669609, 0.065171435475349, -0.123735636472702, -0.024061396718025, 0.047752425074577, -0.018293783068657, -0.105222895741463, -0.067307032644749, 0.146587178111076, -0.131296634674072, -0.136869668960571, 0.026527434587479, -0.137319430708885, 0.069865554571152, 0.148527875542641, -0.138532146811485, -0.083256289362907, -0.086802721023560, -0.050728112459183, 0.035787314176559, -0.079743795096874, 0.104776844382286, -0.137467652559280, 0.068055137991905, -0.139823809266090, -0.038847826421261, -0.137667492032051, 0.131719037890434, -0.056336812674999, 0.059919342398643, -0.143858879804611, -0.131815731525421, -0.032679252326488, 0.003085106611252, 0.015260562300682, 0.130887940526009, -0.094295352697372, -0.011563315987587, -0.102891087532043, 0.014581292867661, 0.061028912663460, 0.150798842310905, -0.037646822631359, 0.133875086903572, -0.030910596251488, -0.115997992455959, -0.037816844880581, 0.021774217486382, -0.050948023796082, -0.086327999830246, 0.153054520487785, -0.059017606079578, 0.025808155536652, 0.003832668066025, -0.137445792555809, -0.064946524798870, 0.140017822384834, 0.119754388928413, 0.092072114348412, -0.077492497861385, 0.117507204413414, -0.046009212732315, -0.031467914581299, -0.016207531094551, 0.081246584653854, 0.002755105495453, 0.003676772117615, 0.033296257257462, 0.044407144188881, 0.008732348680496, 0.039019897580147, -0.144525557756424, -0.043556466698647, 0.096226975321770, 0.005015492439270, -0.002452194690704, -0.146629109978676, 0.105830326676369, 0.007431954145432, 0.094053611159325, -0.011500611901283, 0.068813100457191, -0.139649450778961, 0.057320311665535, -0.023548975586891, 0.029695972800255, 0.003840193152428, 0.100736573338509, 0.057923689484596, -0.099465787410736, -0.123086996376514, 0.150207176804543, 0.014705330133438, -0.101704791188240, -0.134655311703682, 0.133022114634514, 0.086122289299965, 0.064998686313629, -0.041351199150085, 0.090966746211052, -0.113671138882637, -0.138300329446793, -0.049642920494080, 0.092907130718231, -0.143747046589851, 0.073901891708374, 0.015181735157967, -0.089911557734013, 0.097832337021828, -0.054587572813034, -0.075896009802818, -0.053830556571484, -0.148384809494019, 0.052644148468971, -0.134639173746109, 0.081217020750046, 0.108739063143730, -0.150483638048172, 0.057907715439796, 0.036175057291985, 0.117688015103340, 0.111991181969643, 0.081634685397148, -0.148561105132103, -0.064095266163349, 0.042812734842300, -0.104018643498421, 0.100340113043785, 0.044418826699257, -0.116912357509136, 0.147180661559105, 0.105401948094368, 0.089747637510300, 0.098606988787651, -0.009572803974152, 0.134483471512794, -0.079981118440628, -0.049954049289227, 0.152535274624825, 0.096568807959557, 0.025611236691475, 0.149620458483696, -0.048109181225300, -0.127694606781006, -0.096015714108944, 0.007566422224045, 0.089896589517593, -0.039551407098770, 0.054438620805740, 0.086213901638985, 0.055166795849800, -0.003029733896255, 0.106629922986031, 0.045775577425957, 0.026330143213272, 0.120830848813057, -0.070029325783253, 0.136375263333321, 0.117263451218605, -0.128417417407036, -0.009419173002243, 0.039173558354378, -0.118235163390636, 0.114386364817619, 0.037117019295692, 0.029594436287880, -0.081992171704769, 0.123216167092323, 0.143948152661324, 0.125412866473198, 0.043691232800484, -0.073887772858143, -0.009417980909348, 0.048344939947128, 0.068930089473724, -0.037176668643951, -0.094768427312374, -0.031684182584286, -0.033087983727455, -0.068584792315960, 0.127491906285286, 0.132791534066200, -0.102662809193134, 0.117196068167686, 0.116926059126854, -0.117250025272369, -0.152948752045631, -0.002327919006348, 0.043800115585327, 0.021939232945442, -0.151028946042061, -0.116120487451553, 0.034632384777069, -0.035780310630798, -0.080095946788788, -0.083010241389275, -0.021736770868301, 0.049925148487091, -0.050019972026348, -0.029395543038845, 0.146880075335503, -0.103844612836838, -0.126996278762817, 0.119177922606468, 0.082259863615036, 0.072221308946609, 0.015269115567207, -0.087971501052380, -0.080828800797462, -0.007676690816879, -0.149042785167694, -0.048862695693970, 0.083661109209061, 0.145285382866859, 0.061284169554710, 0.073373660445213, 0.127336248755455, -0.120226249098778, 0.093826502561569, -0.111737027764320, 0.105744495987892, 0.134013876318932, -0.006411924958229, -0.062482938170433, -0.092415913939476, -0.112616166472435, -0.060226969420910, -0.149591714143753, 0.071884050965309, 0.000840157270432, 0.151948675513268, 0.011873677372932, 0.007642716169357, -0.095917597413063, 0.072456553578377, 0.066996261477470, -0.051415592432022, -0.048693589866161, 0.026109024882317, 0.111107245087624, -0.052716568112373, -0.010694712400436, 0.016749784350395, 0.086358338594437, -0.061093486845493, 0.116137936711311, 0.052921012043953, -0.016197204589844, 0.097147390246391, 0.062138304114342, -0.064541444182396, -0.070721775293350, -0.110491961240768, 0.147832348942757, 0.074872612953186, -0.108367428183556, 0.140885129570961, 0.003117889165878, -0.086459986865520, -0.113802433013916, -0.019914135336876, -0.021849080920219, -0.126420080661774, 0.148861423134804, -0.045776486396790, -0.093483760952950, -0.123142108321190, -0.093963667750359, -0.091587834060192, 0.037909597158432, 0.078102484345436, -0.123031876981258, -0.127739936113358, -0.058201789855957, 0.140575781464577, 0.024926885962486, -0.006435751914978, -0.046939313411713, -0.124591752886772, 0.063879519701004, 0.008144408464432, -0.015815809369087, -0.148500904440880, 0.110808506608009, 0.010892763733864, -0.033739000558853, -0.032643407583237, -0.009750962257385, -0.078010506927967, -0.121782362461090, 0.119772657752037, -0.001884654164314, -0.044229499995708, 0.150297746062279, 0.024641931056976, -0.070994868874550, 0.123903915286064, 0.097019359469414, 0.039586991071701, -0.106332182884216, -0.024362966418266, 0.061142832040787, -0.115902364253998, -0.008712127804756, -0.003079310059547, 0.041868880391121, -0.020860984921455, 0.144664630293846, -0.076216049492359, 0.131162270903587, -0.061246566474438, 0.007657527923584, 0.013123258948326, 0.037605255842209, 0.049975469708443, 0.079982653260231, -0.009685188531876, -0.147274240851402, 0.042073175311089, 0.029736340045929, -0.087780453264713, -0.045411668717861, 0.022296756505966, 0.112037464976311, 0.062247261404991, 0.139626935124397, 0.034382313489914, -0.134849742054939, 0.146032109856606, -0.052513629198074, 0.002458795905113, 0.149209365248680, 0.003782808780670, -0.061927624046803, -0.078852131962776, -0.087829656898975, 0.129186734557152, 0.097499087452888, -0.100638613104820, 0.049597591161728, -0.137752935290337, 0.059708192944527, -0.035165429115295, -0.096862882375717, 0.006229937076569, 0.121822759509087, -0.109852120280266, 0.080761969089508, -0.116826690733433, 0.082479044795036, 0.051324591040611, -0.067359372973442, 0.069902345538139, 0.130680933594704, -0.040454134345055, -0.063989304006100, 0.137063935399055, -0.101291969418526, 0.061084002256393, -0.021200686693192, 0.129774376749992, -0.037828087806702, -0.145287945866585, 0.148032024502754, -0.097832515835762, 0.043054550886154, 0.094770148396492, -0.046322897076607, 0.036159336566925, 0.076542720198631, 0.096687942743301, -0.012839511036873, 0.141044482588768, 0.079485148191452, 0.119119152426720, -0.120061010122299, -0.081540152430534, -0.075637005269527, -0.096491456031799, 0.088581204414368, -0.058315485715866, -0.054085806012154, -0.054107628762722, -0.003837525844574, -0.023739024996758, -0.053360067307949, 0.019854962825775, 0.037886634469032, 0.085051655769348, 0.078929916024208, -0.007108420133591, -0.043087810277939, -0.086399070918560, 0.091074824333191, -0.032171279191971, 0.100804224610329, -0.149900034070015, -0.097699761390686, 0.051177471876144, -0.122062541544437, -0.065902136266232, -0.002493113279343, 0.097882822155952, -0.069311991333961, 0.063197001814842, 0.054338306188583, 0.126993790268898, -0.076755851507187, 0.073877662420273, 0.126074269413948, 0.029368132352829, 0.073874562978745, -0.120094344019890, 0.056043460965157, 0.090485274791718, 0.083694651722908, -0.102637916803360, -0.096218839287758, -0.047739945352077, -0.128872826695442, -0.127140894532204, 0.063997149467468, -0.118571773171425, -0.111463017761707, 0.102386459708214, 0.121060624718666, -0.007352352142334, -0.006656765937805, -0.062077827751637, 0.097828790545464, 0.036347016692162, 0.126390889286995, -0.120760947465897, 0.061326250433922, -0.099040232598782, 0.075085341930389, -0.115688905119896, 0.147277787327766, -0.086722858250141, -0.040335945785046, -0.128415152430534, -0.021575659513474, -0.032273627817631, -0.042344659566879, 0.070388421416283, -0.110862150788307, -0.015412554144859, 0.021468162536621, -0.001276746392250, -0.023365780711174, 0.065933421254158, 0.075928315520287, 0.003403574228287, -0.029877603054047, -0.019586578011513, 0.075810089707375, -0.096897959709167, 0.014639407396317, -0.107925012707710, -0.067488215863705, -0.058524161577225, -0.088403403759003, -0.094269648194313, 0.044750794768333, -0.113308906555176, 0.058291107416153, 0.045334145426750, -0.135795935988426, -0.091127350926399, 0.092902749776840, -0.019097179174423, -0.075497031211853, 0.083940267562866, 0.034081012010574, -0.099079176783562, 0.019789695739746, -0.078803583979607, -0.152353838086128, -0.001411139965057, -0.027695327997208, 0.115972027182579, 0.054941952228546, 0.069933623075485, -0.093829095363617, -0.072549559175968, -0.079452961683273, 0.105398222804070, -0.033690489828587, -0.103271529078484, 0.128577843308449, 0.115066066384315, -0.151681691408157, -0.083121784031391, 0.132333889603615, 0.118707463145256, -0.097133606672287, 0.066097483038902, -0.145068824291229, 0.061267226934433, -0.141827568411827, -0.046075642108917, 0.036483675241470, 0.037372082471848, 0.014080449938774, -0.004711747169495, 0.153051480650902, -0.058147586882114, -0.057709582149982, 0.116745486855507, 0.105243697762489, -0.080198809504509, 0.141892418265343, -0.110342532396317, 0.149311348795891, -0.027193993330002, -0.058392286300659, -0.135300844907761, 0.108752086758614, 0.049746766686440, -0.003617167472839, -0.013020187616348, -0.036685295403004, 0.013732373714447, 0.132808044552803, 0.097169950604439, -0.144408285617828, 0.116955235600471, -0.117620535194874, -0.015883624553680, 0.115687951445580, -0.097943291068077, 0.071263954043388, -0.042649544775486, 0.010211557149887, -0.000499069690704, 0.007334828376770, 0.026416569948196, -0.113598354160786, -0.059696294367313, 0.041341885924339, -0.069660492241383, 0.079959943890572, 0.071824848651886, -0.112290844321251, -0.126324012875557, -0.118303924798965, 0.140374079346657, 0.010069757699966, 0.043465554714203, -0.123128861188889, 0.082342252135277, -0.012979924678802, 0.139228686690331, -0.118392296135426, 0.137645855545998, 0.017285197973251, 0.000939995050430, -0.014365941286087, -0.037468627095222, 0.150052145123482, 0.039893165230751, -0.097854882478714, -0.065816141664982, 0.037904262542725, -0.119313307106495, -0.101642116904259, 0.047331288456917, 0.033050745725632, -0.073182113468647, -0.086536236107349, 0.121193721890450, -0.085579015314579, 0.067211031913757, 0.029480740427971, 0.047910407185555, -0.108184963464737, 0.131621286273003, -0.044061303138733, 0.131219699978828, -0.041217096149921, 0.081127598881721, 0.049999266862869, -0.013742595911026, -0.126910537481308, -0.025469839572906, 0.058984503149986, -0.037776768207550, -0.066208444535732, 0.015223234891891, 0.092118188738823, 0.086229458451271, -0.076995693147182, 0.104180589318275, 0.129297807812691, -0.069495327770710, -0.129237249493599, -0.118674337863922, 0.057339832186699, 0.043603196740150, 0.082115843892097, 0.045933544635773, -0.056528471410275, 0.101831808686256, 0.075265794992447, 0.098917350172997, -0.147358089685440, 0.074289232492447, 0.024963796138763, 0.024375006556511, 0.119245573878288, -0.077310726046562, -0.136588975787163, 0.097372069954872, 0.129668936133385, -0.052167244255543, -0.136009693145752, 0.068669289350510, 0.062281027436256, -0.046095646917820, -0.038144104182720, -0.089052997529507, -0.035623945295811, 0.016419336199760, 0.024424284696579, -0.109196752309799, -0.117321893572807, 0.063183486461639, 0.151244595646858, 0.119448855519295, 0.000449463725090, -0.048893392086029, 0.081799343228340, 0.000075414776802, -0.033236064016819, 0.125323101878166, -0.026408284902573, -0.081684403121471, -0.099586606025696, 0.041097447276115, -0.054292686283588, -0.100702092051506, -0.127587035298347, -0.117358103394508, -0.100156776607037, 0.108398154377937, 0.006990715861320, 0.047702714800835, -0.102848455309868, -0.081929281353951, -0.120116204023361, 0.015747666358948, 0.086049571633339, 0.132770851254463, -0.033273294568062, 0.113239631056786, 0.017037987709045, -0.104610756039619, 0.035149842500687, -0.120322361588478, 0.118812218308449, 0.140865817666054, -0.059598542749882, -0.090212062001228, 0.046260371804237, -0.034454807639122, 0.014290288090706, -0.075652264058590, -0.082634545862675, -0.089479289948940, -0.087170608341694, -0.062121622264385, -0.150756806135178, -0.018754184246063, 0.039201408624649, -0.082480765879154, 0.048585146665573, 0.069710969924927, -0.126022204756737, 0.032055899500847, -0.039709381759167, 0.143653228878975, 0.042848870158195, -0.115404859185219, 0.104222968220711, -0.118531361222267, 0.000920757651329, -0.114960655570030, 0.035516157746315, -0.016215413808823, 0.104224339127541, 0.064334630966187, 0.020613148808479, 0.137476488947868, -0.046715453267097, -0.125627845525742, 0.109156563878059, 0.033990919589996, 0.019716769456863, 0.076537653803825, -0.043883986771107, -0.004269108176231, 0.127630814909935, -0.092514462769032, -0.030300527811050, 0.021461710333824, 0.073229596018791, 0.115859434008598, 0.057871684432030, -0.073623947799206, 0.136025682091713, -0.119181364774704, 0.005377322435379, -0.028510555624962, 0.141651138663292, -0.074144728481770, 0.071518719196320, -0.108689621090889, 0.061784625053406, -0.101309970021248, -0.106343530118465, 0.039713472127914, -0.049042455852032, -0.002562865614891, 0.038005724549294, -0.145263195037842, 0.087605953216553, -0.009727135300636, -0.045897521078587, 0.138970807194710, -0.096069149672985, -0.086630001664162, -0.012931674718857, 0.013050362467766, -0.029223516583443, -0.051012888550758, -0.145162776112556, -0.085298910737038, 0.038623601198196, -0.008318006992340, 0.046823576092720, -0.112150683999062, 0.068531572818756, -0.061269931495190, 0.153079643845558, 0.115999266505241, 0.039644151926041, -0.093889459967613, -0.103939145803452, -0.000675290822983, 0.031298920512199, 0.069212928414345, -0.018879860639572, 0.125091269612312, 0.049085050821304, -0.032395355403423, -0.059724949300289, 0.107096955180168, 0.065088912844658, -0.133504569530487, -0.142822414636612, -0.060410492122173, -0.095162779092789, -0.100013479590416, 0.078007772564888, 0.084569633007050, -0.135459885001183, -0.141128629446030, -0.077620469033718, 0.138323143124580, -0.033966980874538, -0.070113316178322, 0.079142898321152, 0.146008953452110, -0.133427798748016, 0.115836247801781, 0.094717219471931, 0.138325110077858, -0.066518113017082, -0.110246390104294, 0.029828548431396, 0.054057627916336, -0.151963025331497, -0.120854385197163, -0.142393767833710, 0.103941932320595, -0.131212383508682, 0.132422283291817, -0.020606473088264, 0.034398734569550, -0.140750959515572, 0.089608103036880, -0.053618527948856, -0.066402591764927, -0.052354887127876, -0.074731804430485, 0.036788955330849, 0.120707288384438, -0.081995896995068, 0.027007400989532, 0.002617284655571, 0.066263601183891, -0.097004026174545, 0.019274130463600, 0.029068544507027, 0.124944135546684, 0.054286658763885, 0.123371109366417, 0.148242846131325, -0.009162589907646, 0.142898127436638, 0.048639342188835, -0.097063817083836, -0.115968279540539, 0.139389619231224, -0.040724448859692, 0.122469022870064, -0.081811167299747, -0.090796217322350, 0.099666103720665, 0.124603822827339, 0.139474704861641, 0.076810926198959, -0.147287756204605, 0.128758475184441, -0.070017725229263, -0.111268147826195, -0.086431883275509, -0.124510362744331, -0.022134259343147, -0.103241704404354, 0.029939576983452, 0.022154480218887, -0.088371172547340, -0.144424304366112, -0.006581827998161, 0.076825127005577, 0.055590420961380, -0.134745433926582, 0.001253277063370, 0.150535896420479, 0.003395870327950, -0.129439100623131, 0.007347613573074, 0.106902465224266, 0.049028590321541, 0.089380994439125, 0.102338716387749, -0.104874469339848, -0.038758620619774, 0.005537927150726, -0.104905784130096, -0.058909021317959, 0.035232812166214, 0.037470996379852, -0.067527130246162, -0.011063769459724, -0.039350695908070, -0.124873057007790, 0.063570678234100, -0.028792232275009, -0.039011426270008, -0.023584857583046, 0.071647197008133, -0.149562627077103, 0.056806534528732, -0.120701521635056, -0.064036570489407, 0.045227348804474, 0.003978013992310, -0.114999160170555, -0.103535160422325, -0.144195482134819, 0.114377155900002, -0.031486608088017, -0.038204692304134, -0.092895418405533, -0.062683366239071, 0.088341534137726, 0.144537463784218, -0.089979194104671, -0.027416497468948, 0.067659154534340, -0.101403295993805, -0.032974541187286, 0.058344915509224, -0.091574177145958, -0.072664096951485, 0.123354837298393, -0.072423562407494, 0.089943498373032, -0.100733667612076, -0.113871783018112, 0.140868261456490, 0.075340375304222, -0.113496080040932, -0.100105673074722, -0.015364229679108, -0.033658809959888, 0.105463758111000, 0.001451730728149, 0.043476492166519, 0.097680643200874, 0.057800069451332, -0.115858741104603, 0.136980816721916, -0.112034499645233, 0.028055042028427, -0.116826906800270, 0.152981325984001, -0.002760216593742, 0.106475368142128, 0.064231708645821, 0.048810824751854, 0.055885151028633, 0.134769007563591, 0.083899825811386, -0.034786663949490, -0.034783378243446, 0.115411683917046, 0.056472375988960, -0.087838567793369, -0.090942762792110, -0.054654367268085, 0.138982936739922, 0.051592066884041, -0.052915170788765, 0.008161962032318, -0.092550598084927, -0.017029881477356, -0.042227424681187, -0.052350439131260, -0.106950417160988, -0.072754107415676, 0.008945479989052, 0.115578457713127, -0.088418737053871, 0.134630635380745, -0.111732065677643, -0.049336723983288, 0.129756912589073, -0.008607015013695, -0.007235839962959, -0.024131298065186, 0.026380330324173, 0.033954933285713, 0.071068897843361, -0.049984931945801, -0.120750397443771, -0.000447198748589, -0.073282085359097, 0.078056797385216, 0.027158662676811, -0.137820214033127, 0.101118966937065, -0.149862110614777, 0.054055541753769, 0.102107539772987, -0.031291805207729, -0.107663854956627, 0.014693826436996, 0.051718622446060, -0.036358185112476, 0.000157684087753, -0.040074490010738, 0.134942427277565, 0.037042379379272, -0.116657696664333, 0.122749432921410, -0.077021166682243, -0.134640663862228, 0.086671024560928, -0.022595331072807, 0.041921436786652, -0.023752868175507, 0.138034269213676, 0.122331812977791, -0.122583180665970, -0.061188131570816, -0.020841747522354, -0.124992489814758, 0.055398136377335, -0.008792549371719, -0.148371443152428, -0.011656492948532, -0.145841643214226, -0.127993464469910, 0.009197771549225, -0.016719952225685, 0.059147909283638, -0.103584408760071, 0.112362608313560, 0.016847714781761, -0.006543323397636, 0.091078102588654, 0.093663454055786, 0.047312930226326, 0.008761256933212, 0.050746217370033, -0.083850950002670, -0.125194266438484, 0.033490136265755, -0.060606606304646, -0.128559410572052, 0.065277576446533, -0.114667415618896, -0.133609578013420, 0.140861287713051, -0.083642058074474, 0.022650048136711, 0.031471088528633, 0.052576124668121, 0.150383308529854, -0.089312076568604, 0.010490313172340, 0.009625047445297, 0.006548359990120, 0.009472802281380, -0.103755190968513, -0.019076228141785, -0.122341364622116, 0.093728929758072, -0.068710207939148, -0.031531684100628, 0.132379993796349, 0.009287521243095, -0.115264445543289, 0.040066063404083, -0.049427427351475, 0.088454365730286, -0.010351836681366, -0.113834984600544, -0.011566489934921, 0.037878751754761, 0.152926638722420, 0.111865147948265, 0.135107740759850, -0.143180668354034, -0.005976408720016, -0.025176629424095, -0.111402280628681, 0.129372760653496, 0.018530413508415, 0.026601701974869, 0.124415263533592, -0.097398310899734, 0.066935539245605, 0.130473032593727, 0.147648230195045, -0.024416178464890, 0.072363004088402, -0.103783659636974, -0.042863294482231, 0.064078912138939, -0.073762901127338, -0.083736300468445, 0.062632113695145, -0.097809731960297, -0.080078355967999, -0.039427235722542, -0.149648115038872, 0.013393655419350, 0.091315388679504, -0.025962442159653, 0.151217505335808, -0.089620649814606, -0.017713129520416, 0.127111151814461, 0.115111216902733, 0.135220929980278, 0.095009773969650, 0.024214074015617, -0.146957278251648, 0.012812748551369, -0.118013203144073, 0.006727248430252, 0.089690983295441, -0.041638746857643, 0.020946025848389, -0.127137541770935, -0.121702209115028, -0.033688046038151, -0.137062430381775, -0.020478174090385, 0.034160539507866, 0.117724224925041, 0.114468589425087, 0.028158992528915, -0.046799331903458, -0.045613333582878, 0.117230281233788, 0.151012703776360, 0.084936141967773, 0.015560239553452, 0.090122789144516, 0.103069022297859, 0.090653285384178, -0.052821293473244, -0.007505327463150, -0.068713456392288, 0.029728055000305, -0.032693341374397, 0.108451858162880, 0.084409177303314, 0.124638006091118, -0.056532926857471, 0.103559300303459, 0.069310858845711, -0.054591439664364, -0.140267506241798, -0.057029910385609, -0.097804956138134, 0.130461350083351, 0.022591933608055, -0.071090318262577, 0.024683430790901, 0.026529103517532, -0.000561267137527, -0.139289811253548, -0.127495571970940, -0.139807283878326, -0.066962867975235, -0.071199268102646, -0.062988869845867, -0.020010709762573, 0.022353768348694, -0.023619055747986, -0.121741160750389, -0.029707290232182, -0.125921607017517, 0.069433540105820, 0.116590455174446, -0.059706911444664, -0.026192903518677, -0.030258990824223, 0.095880478620529, -0.053921915590763, 0.068294808268547, 0.010568469762802, 0.107315346598625, -0.068478323519230, 0.035462096333504, -0.080023348331451, -0.057563476264477, -0.020278871059418, 0.021537959575653, 0.060295477509499, -0.045825138688087, 0.089500889182091, -0.108087949454784, -0.151724249124527, -0.143882453441620, 0.060723334550858, 0.066944032907486, 0.051424831151962, 0.136386290192604, 0.059148356318474, 0.079415872693062, 0.148643985390663, -0.140314191579819, -0.044065937399864, 0.037418231368065, -0.137384325265884, 0.077874466776848, 0.000817134976387, 0.038301452994347, -0.130315423011780, 0.079793587327003, 0.025011017918587, 0.048666030168533, 0.024606779217720, 0.059360742568970, 0.019511237740517, -0.080930896103382, 0.023863598704338, 0.134417518973351, 0.031931221485138, 0.055003389716148, -0.148936510086060, -0.015191078186035, 0.027650862932205, -0.118780806660652, 0.052015870809555, 0.004158467054367, 0.023827984929085, 0.034246355295181, -0.059607595205307, -0.092197895050049, -0.076208345592022, 0.043133035302162, 0.063282519578934, 0.012611374258995, 0.046574637293816, 0.022955179214478, -0.101363837718964, -0.033987969160080, 0.076167538762093, -0.107655599713326, 0.060181856155396, -0.053602360188961, -0.117305502295494, 0.118858620524406, -0.008162364363670, -0.137150689959526, 0.118217840790749, 0.064118042588234, -0.135253980755806, 0.136876121163368, -0.121393635869026, 0.051069319248199, 0.010642200708389, -0.048987194895744, 0.079350426793098, 0.099779412150383, 0.121210083365440, 0.052443772554398, -0.029044590890408, 0.085289418697357, 0.126872226595879, 0.100108310580254, -0.069578915834427, -0.071466304361820, 0.069222778081894, 0.019945517182350, -0.096820436418056, -0.043307498097420, -0.081815838813782, -0.006847232580185, 0.050440236926079, 0.021650701761246, 0.055350065231323, -0.060500867664814, -0.065916337072849, 0.126678153872490, -0.013030737638474, -0.069602020084858, -0.102938458323479, 0.032483503222466, -0.135169237852097, 0.078508079051971, 0.078455522656441, 0.021951615810394, -0.059357315301895, -0.007599458098412, 0.068491935729980, -0.083283990621567, -0.037134215235710, 0.007697209715843, 0.079611882567406, 0.092727154493332, 0.109485551714897, 0.029774665832520, -0.007450103759766, 0.037151813507080, 0.107600256800652, 0.096964403986931, 0.139107301831245, -0.034582011401653, -0.109275773167610, 0.147830888628960, 0.046376734972000, 0.022357240319252, -0.091264992952347, -0.098190762102604, -0.088534444570541, 0.030428215861320, 0.030975818634033, -0.005495950579643, 0.035376831889153, 0.096737027168274, -0.016346737742424, -0.105260461568832, -0.102345481514931, -0.027219623327255, 0.140035435557365, 0.074790924787521, -0.117112308740616, -0.137166962027550, -0.101600289344788, 0.080211728811264, -0.024264052510262, -0.004173800349236, -0.015412151813507, -0.062248609960079, -0.065677843987942, 0.012578427791595, 0.008920699357986, 0.056312248110771, -0.093131609261036, -0.024847984313965, 0.076971784234047, 0.075763121247292, 0.119938507676125, -0.063151843845844, -0.096094667911530, -0.052360035479069, 0.000122025609016, -0.105312362313271, 0.147868588566780, 0.036804437637329, 0.009609714150429, -0.038080811500549, 0.108631864190102, 0.108457162976265, -0.072238869965076, 0.070384263992310, 0.102384671568871, -0.000095412135124, -0.041893556714058, 0.135222062468529, -0.106170117855072, -0.132916986942291, -0.073579855263233, 0.055847674608231, -0.152913495898247, -0.104151979088783, 0.145402148365974, -0.010685116052628, -0.129329890012741, 0.136623039841652, 0.098162010312080, -0.140912100672722, 0.039323210716248, -0.133926510810852, -0.112641207873821, 0.021306321024895, -0.118196912109852, -0.128129720687866, -0.041228920221329, 0.025971204042435, 0.149004623293877, -0.045328408479691, 0.049725160002708, 0.111433371901512, -0.106982395052910, 0.029523447155952, 0.025116473436356, 0.065677627921104, -0.095796197652817, -0.137074112892151, 0.152881637215614, 0.078902721405029, -0.145684987306595, 0.100025460124016, 0.111411675810814, -0.071581281721592, -0.103880167007446, -0.133253514766693, 0.039856478571892, 0.094952136278152, -0.062730848789215, -0.141988933086395, -0.138085350394249, 0.146008744835854, -0.137777388095856, -0.002761647105217, -0.143843770027161, 0.045925557613373, 0.113683357834816, -0.126088663935661, 0.094361588358879, -0.057353451848030, 0.012304410338402, -0.049060344696045, -0.011117607355118, -0.064155273139477, 0.039150089025497, 0.079794064164162, -0.121819451451302, -0.051459938287735, 0.039869800209999, 0.095543906092644, 0.083674177527428, -0.004384085536003, 0.057040244340897, 0.002259880304337, -0.108872637152672, -0.041844278573990, 0.109007582068443, -0.020819187164307, -0.111449480056763, 0.065038397908211, 0.041011095046997, -0.011359825730324, 0.079220160841942, -0.113603062927723, 0.122743174433708, -0.005951151251793, -0.034567557275295, -0.037735812366009, -0.009534269571304, 0.143467351794243, -0.027752265334129, -0.061395674943924, 0.129014417529106, -0.152857720851898, 0.113874271512032, 0.003577023744583, -0.025037556886673, -0.116573229432106, -0.022606462240219, -0.094402551651001, -0.108733788132668, -0.109083607792854, -0.073454514145851, -0.055109523236752, 0.138600364327431, -0.124030090868473, 0.112044051289558, 0.036726757884026, -0.005258440971375, -0.062140278518200, -0.111418813467026, 0.125814005732536, -0.093070693314075, -0.083860367536545, -0.001911878585815, -0.005276545882225, -0.105764240026474, 0.146130546927452, -0.098754473030567, 0.029613077640533, -0.075264960527420, 0.131661459803581, 0.092015549540520, -0.025107100605965, 0.057819530367851, -0.137820720672607, 0.076459899544716, 0.057266622781754, -0.129925787448883, -0.065901115536690, 0.037187352776527, -0.076984889805317, 0.022317305207253, -0.029384627938271, 0.098240628838539, -0.111424766480923, 0.047844663262367, -0.146896943449974, 0.029146641492844, -0.138095423579216, -0.149975001811981, 0.130011454224586, -0.114120677113533, 0.121516302227974, 0.109728768467903, 0.122598543763161, -0.065419279038906, -0.082396745681763, -0.007344067096710, 0.064878091216087, -0.088011756539345, 0.092746272683144, -0.035783886909485, 0.068109378218651, 0.066125050187111, 0.128985777497292, 0.043980821967125, 0.030550956726074, -0.029045358300209, -0.089170053601265, 0.131782606244087, -0.118460185825825, 0.030525192618370, -0.150135353207588, 0.054966628551483, 0.036951929330826, 0.149501457810402, -0.045983038842678, -0.130767121911049, 0.061984673142433, -0.066902354359627, 0.081689581274986, -0.149936944246292, 0.080106675624847, 0.143580242991447, -0.069895662367344, 0.133719250559807, -0.098835572600365, 0.081333234906197, -0.019454330205917, 0.125165715813637, -0.148811265826225, 0.093848586082458, 0.003721460700035, -0.138748154044151, -0.113086037337780, -0.033103823661804, -0.027080774307251, -0.027014344930649, 0.010503023862839, -0.059070132672787, -0.107463061809540, 0.019317030906677, -0.000062853097916, -0.119630239903927, 0.074860095977783, -0.056542307138443, -0.143953531980515, 0.093770220875740, 0.082104966044426, -0.065679669380188, -0.000271782279015, 0.114923790097237, -0.001790449023247, -0.095619685947895, 0.121762558817863, 0.036730229854584, -0.112016618251801, -0.004164889454842, -0.131527706980705, -0.126651063561440, -0.106283850967884, 0.079200521111488, -0.068208694458008, 0.052111655473709, -0.053582683205605, -0.040754452347755, -0.120076090097427, -0.034499265253544, 0.065896734595299, -0.097947567701340, 0.000715583562851, 0.102542057633400, 0.028409123420715, 0.064839363098145, 0.086861640214920, -0.070461235940456, 0.011769175529480, -0.009981319308281, 0.046372354030609, 0.152942195534706, 0.141152933239937, 0.108751788735390, 0.002443104982376, -0.020240813493729, -0.090437158942223, -0.151254042983055, 0.141700670123100, 0.010783091187477, 0.073510393500328, -0.053570091724396, -0.093815118074417, 0.085506275296211, 0.073001474142075, -0.084676802158356, -0.110381811857224, -0.077199585735798, 0.140299811959267, 0.017338231205940, 0.030729159712791, -0.141597583889961, 0.020060792565346, 0.105086818337440, 0.069233298301697, 0.002092152833939, -0.061733663082123, 0.132178917527199, -0.093087449669838, 0.150272473692894, -0.054143913090229, -0.093094013631344, 0.135060265660286, 0.102330580353737, 0.074844554066658, 0.144218906760216, -0.143844172358513, -0.020305261015892, -0.018616944551468, -0.010573133826256, -0.028452269732952, -0.143588408827782, -0.066989220678806, -0.120938450098038, 0.030925929546356, 0.118565663695335, 0.010639056563377, -0.055913843214512, 0.011239737272263, -0.119996190071106, -0.137455686926842, 0.076559007167816, -0.108688667416573, 0.106096640229225, 0.030043393373489, 0.106742009520531, -0.056188181042671, 0.129124686121941, 0.143170282244682, 0.030442997813225, -0.110264241695404, -0.038308061659336, 0.054784566164017, -0.089885428547859, -0.146912708878517, 0.038215979933739, 0.126988843083382, -0.015506282448769, 0.019183546304703, -0.005533918738365, 0.109507068991661, -0.038749568164349, 0.009269595146179, 0.014619916677475, 0.045462802052498, -0.073532804846764, -0.112962558865547, -0.025420486927032, -0.045945152640343, 0.084401115775108, 0.143576964735985, 0.072890371084213, -0.078728869557381, -0.075347162783146, -0.006914675235748, -0.120268523693085, -0.019340127706528, -0.050361536443233, -0.007306218147278, -0.066978491842747, -0.119314908981323, 0.003284767270088, -0.131242394447327, -0.009543091058731, -0.085727423429489, 0.126081153750420, -0.019327312707901, -0.044402182102203, 0.142964854836464, 0.066089048981667, -0.147800356149673, -0.147240340709686, -0.036650590598583, 0.049014136195183, -0.141487464308739, -0.000723943114281, -0.081336081027985, -0.070699147880077, 0.114478901028633, -0.110612630844116, -0.064920864999294, 0.022714689373970, -0.067709155380726, -0.093441314995289, -0.081926219165325, -0.140858560800552, -0.119210630655289, 0.123265102505684, -0.134329259395599, 0.090383619070053, 0.117566153407097, -0.123165577650070, -0.121760681271553, -0.126498892903328, -0.123618111014366, -0.103963792324066, 0.065858840942383, 0.110953524708748, -0.020372062921524, -0.050806291401386, 0.136213824152946, 0.116584703326225, -0.075705520808697, 0.129577383399010, 0.036798566579819, 0.026588857173920, 0.032210513949394, 0.009757757186890, -0.068400941789150, -0.010942995548248, 0.059413999319077, 0.071466416120529, 0.135312244296074, 0.126688614487648, -0.040512166917324, 0.141481593251228, -0.122573256492615, -0.022271469235420, -0.072693847119808, -0.013677775859833, -0.131356969475746, 0.097067877650261, 0.088094428181648, -0.040349997580051, 0.004761815071106, 0.106453463435173, -0.135282054543495, 0.057368382811546, -0.030233189463615, 0.045346289873123, -0.117032885551453, 0.072412833571434, 0.041627317667007, 0.042053237557411, -0.052550457417965, 